-0.07163621
0.032222476
-0.08361716
-0.023219101
-4.581655
-0.6286424
0.06778656
0.48736137
0.03513215
-0.61382365
-0.6488558
7.236913
0.013207428
-6.7641835
-0.8009957
-0.20658222
-0.17216405
0.025410565
-4.0460186
-1.2391828
-6.470735
9.186233
-0.08458246
0.7790142
-0.07247279
0.5515308
-0.5853672
-8.453413
-0.032475702
-0.53543615
-0.5113281
0.054650728
-0.069852084
-0.06553434
5.9505258
-0.70163625
5.1086435
0.09290433
-0.21283007
-0.013697687
2.4129665
-4.0829186
-0.15457545
0.24914128
-6.6257987
-8.337879
6.065197
-0.9534885
0.05048289
0.09786295
-7.5472927
0.90980285
0.76484734
-0.6644898
-0.38556314
0.7401962
0.031293094
-0.5707799
-0.02069656
-0.8408179
-0.31856555
-0.018899014
-0.79649127
-0.012979023
-0.028263047
-0.9952861
0.20422477
-0.24869347
9.465106
0.099532336
0.04382443
-7.7799997
-5.775024
-0.042466234
-0.8464199
0.025794264
-0.6144059
-0.42772466
7.649163
-6.0768175
3.8467882
2.0135455
0.9557436
9.719687
1.0686275
0.07571917
-3.2656503
-0.00050918706
-0.4431189
5.2146893
0.08656771
-0.6085744
0.21186951
8.7762575
-0.80355793
-0.7421093
-7.0286784
0.685972
-0.88179207
-7.5671782
-0.5320734
0.9737597
-0.020212848
0.43803254
0.38481042
-0.030954832
0.094863735
6.0039606
0.40370044
-0.06514426
0.776335
-0.07402547
-0.067701004
-0.09743071
-0.34309253
2.2305658
-0.07584957
7.611766
-0.49410006
6.6411896
0.7273154
-0.05750727
-0.04537285
0.3469269
2.6138914
-8.448416
-0.35636142
3.8957913
-0.08682555
8.291675
0.061895058
-3.604108
-0.043561887
-7.842862
-0.014682894
0.09713966
0.7493796
0.095871896
-0.026650507
0.030051267
8.396274
-7.742661
0.69858813
-8.768326
0.07878012
0.4257967
-0.09846026
0.41348132
-0.049889646
0.6499842
0.049877092
0.05144063
-0.9004617
-0.15058547
-0.5319638
0.00900691
6.466881
-0.34735626
6.3022504
-0.16138907
-0.014284141
-4.589301
0.19427106
-0.25252408
8.770549
-0.06333678
-0.98644495
-0.15715684
-0.07229953
-3.2476902
-0.36847493
4.245849
-0.9100198
9.266682
-8.711245
0.082082435
9.2433
-0.23159412
0.03864806
-0.92230386
0.8525067
-0.09154958
-7.999334
0.11002687
-0.6781156
0.5638477
-0.08526821
-1.7664713
-0.040126104
-0.8868085
-4.718783
0.0041795713
-3.6504612
0.7599411
-0.41778177
0.7153709
-7.2359457
-0.057508655
0.7813854
7.5566106
0.009806915
0.28885186
-0.5617568
0.07797704
-0.019874727
0.9801867
0.076961525
0.05167164
-0.07474841
-5.661751
2.5667348
0.15870067
7.957035
-0.021176621
0.4554433
0.086194366
-0.09282489
8.20458
0.081159115
2.464412
-0.008651697
-3.3020718
0.9799984
9.713943
-0.08061581
-0.87956023
-0.092855446
-7.845134
0.249831
0.7183636
-0.01975547
-0.81078076
-1.4233285
-0.57701755
0.06878281
3.502501
-4.799842
0.03956009
2.1259992
-0.06586949
0.07315934
-0.075688325
-0.51488805
-0.06894168
0.04847726
-9.430193
-0.39194444
-0.079417735
-0.09195583
0.07561528
-0.07874006
-2.8604622
0.821204
0.124876134
-9.260964
0.70979327
-0.06504412
0.696558
-0.4713386
-0.09050572
2.9738228
-4.3015804
-3.4561713
0.894385
-6.1239686
-0.07308779
0.7849642
0.06341441
-0.05984098
0.61134845
-8.971952
5.6653414
-0.022331784
-0.015826058
-8.262711
-3.6568308
-0.43290696
-0.0034922939
0.15505767
2.3054569
9.151709
4.6023755
0.89771205
-0.08703713
-9.259945
0.021546906
3.5998263
-9.415634
-0.036439054
0.05579591
3.3319523
-0.045443047
0.08366807
0.6807063
0.099230476
-9.477873
8.085525
-5.50989
-0.73630536
0.009857741
5.871108
-0.08941225
-0.098742165
1.896143
0.03545906
-3.5568378
0.03410002
3.1789093
-1.5592313
7.207928
-0.77083915
-0.032816786
-0.17712553
-0.07157644
7.705427
0.6397439
0.3056417
3.915609
-6.1288977
2.7112615
-0.62156576
-0.045792397
-2.64489
-0.10625949
0.0033686687
-7.2906923
0.114170976
0.42497358
-0.7057404
0.056873668
-6.58176
-4.9818664
-0.09059111
0.8429242
-0.070656486
-0.8246139
0.6309545
-4.770374e-05
-7.039833
0.08785383
-0.06688995
-2.4936545
5.135145
0.07294197
-8.69465
-8.551457
0.08921778
5.2723737
-0.038331244
0.5525235
0.69165254
0.24478771
0.050179135
0.03522285
-0.20236279
-3.979369
-8.119433
-0.74367046
-5.1785545
0.03338027
1.3652538
0.028457979
7.84055
-0.80583364
0.44773084
-0.93080777
-0.032845505
-0.028322272
-0.7947769
0.05135495
-0.0469605
0.124457516
-0.08238256
-0.5380444
-4.57774
0.8800935
6.10085
-0.052803397
0.882551
0.09859205
0.4486706
-0.024919689
-0.031709254
-1.167202
-0.029593969
-0.034658153
0.2674403
0.0939506
0.42255476
0.06902958
-0.5301891
0.059114803
-0.68310666
-0.0488939
0.029275509
-0.007698759
0.054377556
-0.34760278
-0.09590535
0.0055210046
6.4687033
0.057110492
-0.03455486
-0.92551345
0.82981294
0.9520275
0.07930722
0.057667896
0.0019288393
0.1141631
5.393231
0.8173289
0.68557245
-0.09680388
-5.6304
-0.7882705
7.7026467
-0.8110711
-0.09622581
0.04139873
0.07457382
0.07533166
0.06197824
0.065615654
0.061489064
0.07030852
-8.5639515
-3.2659168
5.26665
9.704932
-5.5484657
0.05578055
4.2008715
-0.83864707
-0.027457101
-0.03970231
3.6840522
-6.019379
-0.098896146
0.08767959
-0.28999943
-0.033283435
-8.664007
-3.3770583
-5.64727
-4.023571
0.73751664
-0.075295255
-0.075197145
5.0354767
4.083445
-0.8584012
8.74353
-0.0586397
0.8026063
-6.4212413
0.009199083
0.083033204
-0.008087398
5.2735376
-0.024236867
-0.009059908
-7.8948994
5.927396
-0.39766034
0.103421405
-0.060394146
-1.731583
0.0048204963
-0.9577111
-0.78838825
-0.051389765
-0.064134896
-0.088156395
0.08829826
0.49234927
1.506219
0.37212616
-0.017877044
-0.03882807
-6.059058
7.117823
0.02659084
0.03229253
-0.5586974
-1.3564175
6.0185714
1.1144361
0.28302515
-0.2225007
-3.5692153
-0.21910335
3.6980543
-3.4969604
-6.716399
0.0605908
0.4556771
-4.917156
-0.5369905
-5.394705
0.33896798
-6.4082522
0.5399393
-0.008054996
7.2765555
-0.051949713
-8.59436
0.007996792
0.07704795
-0.037871923
5.144826
-2.3220625
3.2156973
-0.68349427
-0.8417502
2.3353717
-0.058460284
0.35640848
-0.8178181
1.9598715
2.8612638
4.2912645
0.04774618
-6.1770005
6.276795
0.013796098
0.019002626
-0.5777583
-4.223938
-0.00087354233
-0.8710184
-0.5489038
0.013718447
-0.04354617
0.94037765
-9.295478
-0.620256
8.021003
0.20922343
-0.06635747
0.08344226
9.48958
6.3114457
9.936082
6.045959
-0.09080318
-8.676773
0.096268885
-6.221069
-8.785703
-0.41756457
-6.029093
-0.08975851
0.0006593055
-0.29997763
-5.9438605
-4.872599
-1.2288417
-6.8067307
9.141294
-0.030910151
-0.31928384
0.059815902
-9.32024
0.21324725
0.15832226
-2.4558585
0.044802275
0.80023843
0.09429442
2.3389754
-0.012517447
-0.012690051
0.002394747
-0.02329112
-0.9645114
-0.9202645
0.28544238
-0.33187965
-0.024190223
-0.75541663
0.99336356
-0.041257083
0.023725545
-0.009786045
1.9721143
-0.017810717
-0.039911203
0.09264899
-0.025808495
0.094613224
-9.765697
0.3949871
-4.88737
-0.0691156
-0.7640855
-0.042206693
0.8903156
-0.06859362
-0.61525494
-2.0809274
0.19039235
-0.013663965
7.597095
-0.5408624
-3.8467798
0.061789628
6.8786407
0.3805642
0.5760253
-0.12559167
0.0131327445
3.6435583
0.1475842
-0.12255939
0.25219586
0.081127316
0.4628228
-0.010092534
-0.0055212793
0.8427734
0.078294635
7.829133
0.016833248
0.8697162
7.019126
-7.3681254
0.48828483
7.6484575
-0.04443322
-0.05542468
0.76414424
0.7989891
0.07088951
4.8480744
0.013039876
-0.0062102485
-0.011611857
-0.08980325
-0.5830033
6.5204563
6.7100415
5.8673487
5.5572844
3.0171835
0.040604945
-9.90795
-0.038193256
-0.0058834637
0.2153147
0.90343934
-6.736563
0.06974124
0.09672218
-0.05963836
0.002989831
0.6703767
0.016884489
-0.6650066
-0.058234394
0.086242996
0.0974294
0.12295353
-4.309967
-0.06263491
9.859238
-0.12964493
-0.58430886
-1.3428376
-0.39000183
0.93403417
-0.011221127
9.834149
-0.03578173
-0.016359426
-0.4181429
-0.17201596
0.018236874
1.9792181
9.69365
-0.056154437
8.838027
-0.43879938
-0.04956273
3.6545887
-9.088984
-3.4412878
0.0506277
-0.3851266
0.33090952
0.20551337
0.08464937
-0.008084332
0.06291848
9.491585
8.312555
0.69442594
1.8417603
0.82994074
-0.03471412
0.2325967
-0.07688376
-0.094180375
-9.920412
-8.278602
5.991086
0.33118415
3.3873887
0.027315024
0.058752812
0.12071734
-2.534314
0.8351449
-6.483149
0.07009703
1.0514116
0.063438945
-0.08346453
1.2124523
-2.0765314
0.6430661
7.0494275
2.145952
0.052059676
1.9186742
5.7461
9.122971
0.67521316
-0.019996442
0.3942817
-8.223237
8.49962
0.030361412
-8.134026
3.9603057
3.8453238
-0.052582365
1.8306203
0.07833939
9.491299
0.056143716
0.37904334
0.057692155
0.037873443
2.9250066
-0.033199128
-9.621217
-0.025861396
-6.1805215
-0.059232336
-0.0058857626
0.4358186
0.07741047
-0.035154134
0.05259947
7.429352
-4.0434523
-0.046631765
-0.07358314
0.3734894
7.994217
-0.5416503
-1.8286232
-0.8133916
-0.0023235867
0.7931276
-0.02541807
-0.060714886
-0.06699372
-0.05214466
0.036799196
-0.4609968
5.7948112
-9.978109
1.0349973
0.037363585
-0.08394445
5.5505633
-0.04203242
0.6996194
-0.14793482
-0.0894495
0.2745263
-0.64507705
0.26206473
0.10548113
8.6619005
-3.929009
0.557732
-0.009520084
0.097972184
-0.33267838
8.377872
0.9124973
0.03350461
-0.6191325
0.012692055
-0.08650072
9.622293
-4.205216
-6.453346
-0.059104934
0.043818522
0.090909615
0.0041139545
0.07615234
0.09424224
-0.045225576
0.46616808
-0.63760465
-0.011904319
0.5615939
4.1553082
0.6358347
3.933463
0.0017320247
-0.003327228
9.23649
-6.0430994
5.1443486
0.53953725
-0.15898465
-0.0069585578
-9.558776
0.3970002
-0.29743823
-0.016522314
-0.050365992
-1.0238973
6.5425596
0.96466184
0.06332987
-0.77087766
0.0064080507
5.8914948
0.0693157
0.02890333
-1.1328762
-0.20678964
-0.011158109
-8.071378
0.020935396
0.98275054
-0.07592806
4.742401
0.27237824
-0.08218573
0.03864033
-0.05758119
-2.147841
-3.1121175
0.09818198
-0.054728225
0.8707785
-0.09348217
0.08968259
-0.09523122
9.957933
5.376274
0.008703417
0.28359348
-0.73522466
-7.5878897
0.31070304
-0.07448294
0.37922212
0.69223756
4.395714
-0.028443543
0.54932666
-5.931426
8.694143
-0.5702888
3.3829484
0.044353567
-0.09255788
0.09616072
-7.5519753
-6.457555
-0.3233883
3.3759723
-4.5378118
-0.0794045
0.34489742
-4.013244
6.8263125
6.605953
0.019842837
-2.0723112
0.6034752
-0.26814952
0.036062945
0.82389855
-4.062358
-3.5496573
-0.21999027
0.028489655
0.05868819
-0.42352843
-0.022479294
-7.5036273
-0.08328187
-0.012504573
-0.67049295
8.9415
-8.178794
0.22143057
3.1916327
3.728341
6.093565
0.64429975
0.7429593
-0.07167206
-8.358793
0.037945777
0.94130325
0.03638658
-4.693394
-0.026833205
0.8344015
-0.13516033
0.0038986418
-0.029110666
-0.015415033
0.048164845
-0.7355691
0.015409741
0.09362467
0.7565474
-0.103336595
-1.2052091
-0.0180498
-9.779693
0.00011398084
0.840371
0.01604097
-4.6101747
0.9886493
8.134044
-0.028183628
-0.050907522
5.698223
-0.003519512
-6.55664
-0.8433537
-1.9465063
0.09831802
-8.434209
5.733064
0.36971587
3.16596
0.26102465
0.9707874
0.6621248
-0.9241979
2.9529002
3.4760513
-5.477766
-0.09088992
6.044839
3.3402343
-0.26157108
0.45962816
0.07537489
-5.9408264
0.038267545
-0.96950936
0.010437747
-0.09631319
-0.05166855
0.017591152
0.00064678653
0.15017946
0.06892639
-0.034734674
0.1881898
-0.05298329
-7.128096
-0.5975207
-0.59493876
0.083472595
-0.006961762
-0.020639967
-0.13451478
0.03219882
6.9985614
0.018276222
-0.42024717
0.0709116
-0.023599233
0.08446231
4.8385296
-0.052757405
0.51331913
-0.7101013
-0.008577145
6.653405
-1.8407412
7.068717
4.373751
-0.046041638
7.3268213
-0.018462095
0.008083412
0.018962821
-5.2572255
0.9804266
0.6792457
-0.021981662
0.05281834
0.8560623
-0.83583033
-0.04382314
0.048556745
0.085694015
-0.04838036
0.22475731
0.45877883
-0.010110311
-1.7334317
-0.3732174
0.17611036
-0.037683275
-0.22830416
-7.4467516
8.0066185
-0.48076665
-0.05693221
-0.4468902
-0.008995339
2.9856265
0.0862516
0.33265716
-0.9088541
-0.441787
-0.41472685
-0.28339776
0.5140379
0.23766355
-0.0980284
0.02568223
0.21997757
0.59459007
0.9629093
-0.049700905
2.3922284
2.9096744
-0.60391194
0.30703676
0.5221078
0.26579887
0.6752819
-0.49480852
-0.022986233
0.004367738
8.706563
0.0825762
0.43316332
0.09795489
-0.05883499
-0.9353605
5.9400954
-9.35455
0.09647684
0.97054243
-1.1274133
1.6659745
8.8430805
-0.04917216
1.5616949
-0.035322383
0.0813462
0.5500226
6.508035
2.0164635
-0.99768186
0.6903227
6.365574
-4.5832176
-0.023481593
0.32836422
-0.6893925
0.4760355
0.06174442
-0.040539127
-0.34422684
-0.2873339
0.09072435
0.5941965
0.48034954
-0.025213756
-0.76254773
9.5448885
0.67263323
0.35425937
-7.187407
-0.06677778
0.010040084
-0.022599708
-0.28712818
-0.47985235
0.08223572
-0.095491424
-0.2176311
-0.6766742
-0.008713903
0.647607
-0.5579066
-0.61624295
0.29696286
-2.4331532
-0.80070376
-0.005772657
6.351672
-0.09723783
-7.884396
0.6553027
0.10678402
-0.8670764
-0.041040264
-7.011839
0.07346971
0.051736586
-0.3148905
-7.0511537
0.04116944
-0.8159652
0.9295979
0.5574012
-8.223721
0.00122847
-0.00866512
0.13859473
-0.09792406
-0.097085185
-0.88013077
0.07251756
0.053773053
-0.025323166
-2.2616496
7.763178
0.042836647
-0.09611645
0.5598976
3.914141
-0.068996124
0.038023304
7.2470922
0.7312854
0.44673145
-8.797332
1.460251
-0.84510624
0.7554764
0.7660143
4.224717
-0.9147196
0.076444186
0.9922395
-0.02393835
1.7550646
-7.21157
0.72994965
-4.9537992
-4.1169205
-0.010520182
-0.3405987
-0.33260784
-0.9606983
-0.08319571
0.011417154
0.891569
9.6525955
-0.057475988
-4.601323
1.4923092
-0.525464
-0.30131578
0.72205967
0.01794158
-0.053121775
-0.012415422
1.2277989
-0.086284965
-6.8945055
0.07366386
0.01460518
9.319212
-0.9514075
-0.5887458
0.010056067
-0.540513
-0.21906938
0.097003534
-0.7975689
0.53510314
7.3111095
-0.06856951
-0.04495851
0.1717729
-0.04253113
0.025573736
7.26511
-7.6426005
-0.03290957
0.013523378
0.05073987
-9.485986
-0.94739085
-0.98771745
4.2680454
-0.09297645
-5.8035684
-0.49852797
-7.5522394
-3.2820392
4.008361
0.81672573
0.7152665
-0.072487734
-9.0975275
0.34712034
-0.8172339
-0.91144717
0.5925701
-0.49640214
3.191784
0.04711577
0.0631479
-0.059225716
-5.176616
-0.97737044
0.4495732
0.03162033
0.82120067
3.613255
4.155796
-0.07367845
-0.22925587
-0.46278116
2.3174832
-0.016125368
0.448031
0.060208686
-0.340966
0.04711976
0.06248372
-0.054524746
0.54010665
0.024843892
5.3943534
-4.5920286
0.69418925
0.04461731
0.9498568
-8.397571
-8.7452965
-0.09087358
0.03410769
-0.066909716
-7.87056
-0.016201915
-2.8649955
-0.053122967
-0.03039387
-0.933489
-0.69366515
-0.43369874
-0.72446144
4.7784457
0.79631656
-3.6755624
-1.775556
0.01133224
-0.83621913
1.1759064
-0.24684608
0.09523267
1.8855201
-0.37175202
-0.72401875
-0.8367433
-0.6762686
-0.93439126
3.4407232
0.045652147
-0.3414162
-0.33521238
-7.9916544
-0.34485936
0.052156545
-0.0274446
-0.09739792
1.1085482
0.09200962
0.06055577
-0.8105015
0.066483416
2.0045543
-0.08416781
0.27276024
0.07730533
0.005192778
9.130883
-0.077980585
-0.07785798
-7.663489
-0.063841976
0.80382484
-0.4646606
0.06820838
-0.09688174
-8.25377
-0.7648193
0.061599888
3.2278183
0.07346943
0.057341583
-9.733086
-0.07937987
-0.43810874
-0.5612041
-7.5116096
-0.8604961
-0.0548009
3.8183458
1.7257184
0.08365597
-0.7981943
-0.4186829
-0.7780035
6.0143466
8.36301
-0.039089058
-0.8196562
-0.47504866
-2.0269253
0.9846357
8.450376
0.32403076
-0.09024399
8.874749
-0.120896466
-0.063368
-0.26612663
9.704859
0.3612622
-0.9720716
-0.023665328
-6.926118
0.08321656
0.07658712
0.009811035
-0.093837515
-0.0054079727
-4.623865
0.5981244
-0.03430702
-0.035362635
-0.6583736
-0.004925541
0.042672355
0.122889504
-7.2045245
0.024918556
-0.29839203
4.280783
-0.681134
0.6037527
8.946558
-0.85137016
-6.6659956
-8.178293
-3.7091703
0.025256293
-0.7469153
0.51301336
9.506611
0.05734344
6.222541
0.039768685
-0.036847245
-0.709975
-0.24500002
2.6819065
0.89431924
-0.008035569
0.3831089
-0.25081542
-2.5431197
-0.05772593
0.014148493
2.6726644
-0.08219033
-2.6697066
7.8724675
-0.5835126
4.479174
-6.5774903
0.009438939
0.120906375
0.0072739413
1.5418121
-0.05894186
0.019887622
-3.9192495
-0.0005346559
0.3428916
0.017247029
0.026679294
-0.010220541
-0.031588312
0.88053584
-0.4829687
-0.02856191
0.13669823
-6.331965
-0.09527129
2.071221
0.028312784
-0.059610676
-0.08293211
3.514619
-5.0325227
-0.026141731
0.25026608
-0.2751239
0.71189046
0.06735797
-0.4731503
-7.6997633
-0.9196861
0.06984642
7.4494467
-0.81379956
-0.41083083
0.056478288
-7.7780647
0.48513663
0.8066801
0.058767397
2.7770774
0.021142047
-0.042142905
0.3204348
-4.8166513
-0.6911296
3.2078395
-0.68146455
0.06440886
0.8701425
-0.32587227
8.236202
8.413964
9.560365
-0.0031253106
0.023802549
-0.07827864
-0.036902774
0.3716153
0.02330411
-0.40124884
-0.5711039
-0.92656976
0.093319304
0.21283358
4.06505
-0.019743085
-0.8215968
0.0032492504
-0.23561548
-0.93881685
-0.002615263
0.0053110314
-0.13988075
-4.0077653
-0.41360357
-8.039448
0.610102
8.327593
0.05152199
-1.9075111
0.021902466
-0.8431466
-9.87104
0.8752848
0.048206825
0.7617995
-3.4385197
-8.733296
-3.0023038
0.0046333456
8.1203985
-3.982638
2.3332126
1.0670408
0.8950092
0.7683421
0.071811005
6.6283593
-0.08788763
-0.013758646
-0.25435376
0.88947666
-0.07813555
9.516246
0.30288026
0.07335087
-0.009945869
3.5803566
0.90617126
1.4373524
8.570249
-2.5363305
-9.75308
-7.778998
-0.78781825
-0.054612797
0.098882176
-0.00054226554
0.055809956
0.03272767
-0.06505299
-0.024656948
-0.03761061
7.818008
-0.16904365
-3.1107981
0.3354551
7.639137
3.9535894
0.40113273
0.26461855
5.166289
2.716858
0.13840201
0.003346754
-3.9402392
-9.734414
-9.187263
8.468998
-0.0958926
-0.07121689
4.2869825
6.9437356
0.092559256
-0.7266492
-0.0053519746
-0.08586298
0.066605195
0.25355926
-6.540131
-0.0853653
-4.138028
2.9000823
0.23675448
0.027339268
-0.022909794
-0.0283255
3.3378816
-0.045525823
0.06101753
-0.074129604
-0.049812183
7.7670493
-5.0693316
-0.77562964
-0.06762627
-2.9950743
0.08667194
-1.8906137
-2.7702525
6.891084
0.881926
-0.002795439
0.052029505
0.2187422
-0.5138206
0.45516855
0.851049
-4.3895564
-9.468784
-9.738057
-0.08840992
-1.2602174
0.071101
0.039770067
-0.40086943
-0.043646686
0.20451537
-0.109525375
0.084208935
2.117597
-0.85866886
-0.06522878
0.07473276
-0.73965096
-0.6398712
-0.08279086
-0.27280408
0.007400627
-0.043168824
0.75614643
0.07093744
-0.23714572
0.34592873
2.3820384
9.68335
-8.740492
0.040263288
-3.3589728
0.060253
1.085364
-0.33473006
0.08230317
-0.0543054
-8.934294
0.014834671
2.027306
0.02904662
1.9996278
5.468796
1.0727692
0.075908415
1.0923439
3.8313632
-0.13387187
-0.9763486
-0.60469466
-0.0359138
0.029713742
0.08384055
-3.0774822
-0.7757552
7.8498025
-6.9212923
-0.9303824
0.07050939
0.04097556
-6.486018
0.09171557
0.010464037
0.07007821
-0.58075595
-0.370183
0.979606
2.9557462
-0.74129575
-0.40427673
0.07741484
0.7739266
0.5660612
-0.029644666
0.96612954
0.05817888
8.431417
0.25852284
0.015024978
-0.06618547
0.050673302
0.0039479462
-9.0826025
-0.5969214
-0.38279372
0.23044632
-0.09169477
-0.024625976
0.0968876
-0.07280268
-0.9821405
4.68926
0.21382253
7.7314086
-7.249316
0.98709476
0.46053454
0.86101145
0.07231764
8.451635
-7.627836
-7.5045877
0.8252104
-0.014214488
-0.16863951
-0.06477339
4.988975
0.11466104
0.03232524
0.18250652
-8.672086
-9.881827
-0.68754697
-7.95597
2.2302327
-6.8490224
-0.86582035
-4.2682266
2.46049
0.07883184
0.047709882
0.8904034
2.2282796
-0.40309513
-1.663282
-0.04060042
-0.06865865
3.3572657
-6.8352246
-7.783927
4.349146
-7.6477695
9.28237
0.87706536
-5.524838
-0.62323415
-1.1600306
0.26060176
-0.8374167
5.8781056
0.3276048
0.08201928
-2.152382
0.025241928
-0.8275003
-0.23986429
0.5074376
7.9381866
-4.021844
0.78602237
-0.098692425
-8.441917
0.016258877
-0.057126485
-1.184154
-4.9478416
6.6245856
-0.05123395
-9.608322
0.95329046
-0.29269055
-0.059259806
-0.042889122
0.8770267
0.28110015
0.76046234
0.07380244
7.7747245
6.520717
0.02473779
-0.18197486
0.026181504
7.1984396
-0.51753616
-0.04659647
-8.700983
0.47693282
-8.292516
-0.4854082
1.7989476
-8.564497
0.12244501
0.07759873
-0.63770527
0.0832831
-0.6052408
8.497825
-0.6384997
4.343588
0.24957414
-0.078957886
2.6799421
-0.85112
-0.00072958303
-7.9495697
0.038144916
0.73848444
0.07233242
0.025090117
-0.43638614
-5.589855
-0.0062807766
-0.056622192
-0.8118458
-0.27488905
0.029287562
-0.040620673
-0.07128931
-0.005904284
-0.839555
-5.923556
-0.971266
1.0153126
0.08735668
7.575179
0.6572041
-0.68158466
-0.041401632
-0.09916695
0.56987214
-0.04594612
-0.20661749
0.6506949
0.7636963
-5.4969764
-3.4395216
8.462694
-1.2413726
7.2321
0.09605004
-0.08576764
0.042872205
0.6284481
-6.045115
0.04893033
-0.562754
0.06152564
-0.027185747
-0.96257025
-0.03745564
0.98577327
7.72762
0.5590983
0.47217482
7.9835806
-0.8057028
7.6316733
-0.8163
-0.47562528
-0.12026147
-3.5572531
-7.3145823
-0.037824623
-0.033266407
0.03628281
-0.63800734
9.653309
0.26818994
-0.9553542
-2.1327703
0.058153022
0.096941605
0.29409796
-0.01014555
-0.09489436
-0.04603574
-0.3408048
0.09015811
-0.07446024
-0.046514492
7.2941046
0.4612029
8.683241
-0.08509208
0.058394045
2.2429695
-0.34352195
-6.927976
0.021661598
-5.633593
-7.221577
0.34745407
-6.0322056
-1.3340266
-6.684959
-0.04335326
0.06661667
-0.04849973
0.60864455
0.53140515
-0.54146004
-0.87810373
0.069643945
0.0025843957
-0.041645847
0.68036735
0.3018909
-0.48489872
-0.8995139
0.09341371
0.75680786
0.059984107
0.0034879316
-0.7753981
9.0781975
0.09268692
-0.053497866
0.7727906
0.08018595
-0.9663929
-0.079274274
-0.94647676
0.03236212
0.20223325
-3.7664976
2.5144234
-3.4107063
0.013744063
-3.096121
-0.83631396
0.03386082
6.3235083
-0.06525048
-6.828662
0.5012048
5.587006
0.733513
9.015186
0.40721357
0.0021795325
0.36744186
0.13724977
-6.102821
-0.439544
3.9336116
-0.6260978
-0.07009833
7.831919
0.23414986
-0.02135973
4.039018
-0.6617081
0.31147116
-4.7131815
0.24873246
-8.159587
7.781907
4.9491744
0.5066828
0.036099944
-0.49723443
0.09673699
-0.027502978
-0.6078638
1.0365111
0.35839117
-0.07287637
-0.6614812
0.70164204
-0.03525677
0.21040455
0.9282401
0.004159337
2.820428
0.99319917
0.015180889
-0.1094231
0.016623886
0.054522324
0.5566435
-6.4116826
0.21185271
6.6970057
0.69838953
7.2712374
-0.9621911
-0.2008874
3.2373233
-6.000903
-0.022351874
9.706365
-0.011426153
-1.3328137
-0.02695605
0.50873625
-0.077849984
-0.044908915
0.06774614
-0.41003627
0.09894564
-0.06681682
-8.449428
-0.07414465
0.32324576
0.9714399
0.07169828
9.370993
0.6537133
-0.477928
5.9787693
0.39102763
-0.619891
-7.003463
0.03780837
0.00831811
0.08887415
-0.847677
3.9795153
-0.49562052
0.19972718
3.668257
2.1080608
8.265052
-1.4357439
-8.706456
-5.4559913
0.67017496
-4.5851927
-0.04385151
0.07726334
0.24157582
-0.99464047
-8.278595
4.98963
5.818844
7.416387
3.2141318
6.7372284
0.057924993
-0.0069923317
-0.23370874
0.03228092
-5.822445
-8.840673
-0.31051424
5.6072006
0.0072651412
-0.035381317
0.09898324
0.083960325
0.053981185
-0.0867959
-7.867771
2.2691052
6.2986894
0.048628867
-0.05929198
0.0052103004
0.07280821
-5.013371
-4.357425
-0.7848576
-0.08569267
-0.0044206395
-0.9646148
1.0475115
0.037098363
0.079567194
-0.32116216
-0.02656309
-0.08143412
9.042139
0.09416499
0.011283552
-9.3275175
-3.4913468
0.42044488
-0.08470333
0.20812443
-0.029938223
-6.276743
4.765319
4.6796603
2.4179788
0.038528897
-0.043669485
0.45256948
-0.73407435
-0.44947365
-0.31787694
-2.0299392
-0.030580563
-9.46815
0.017033732
-0.0728314
-0.0448061
0.053302996
4.943122
0.09508023
-0.087867655
-0.8471547
9.593152
0.23521402
-0.35463533
0.3315163
-8.858603
-5.156097
-0.2850225
0.062251016
0.008117607
-0.12158013
2.4319627
0.014840312
-0.079852045
0.0792633
-0.08629444
-8.424187
-0.06854377
0.9932513
0.89653116
6.346194
3.082856
-6.13743
0.0243033
0.013334013
0.09771283
-7.7350726
-0.06447486
-4.0208473
0.054758333
0.9845888
-0.2915851
-0.018199774
0.87556607
-7.3471212
-0.07854591
0.90600246
0.01839307
5.4682617
0.3046576
0.049509723
0.42623648
-0.30717662
-0.050283697
-0.6510459
-8.21617
0.18569028
5.1482186
0.15526126
-0.5460808
0.007497041
0.06999926
0.877988
-0.5431713
0.27109167
-0.65741664
-0.3081235
-4.4190755
0.06733699
0.036353413
1.0692818
-6.006655
-0.25882447
-2.098765
0.3870674
0.45430166
-1.812782
0.093021795
0.9459905
0.017564995
0.045069575
-0.99211174
1.2290337
-0.1544684
-4.155835
0.0882064
-0.08918422
-9.462315
-4.4121943
0.85394
0.7019166
0.09688854
0.005199555
-0.9116743
-9.920058
-0.053700965
2.7546651
-6.421476
-0.011577578
4.414421
-7.203565
0.8943097
-0.9405437
-9.424991
-2.972887
4.0250597
-7.3826118
6.4045386
-0.05135806
-0.07271293
0.89107233
0.0730932
0.0266223
0.24105194
0.4816172
0.0739001
-3.2971075
-0.022740362
-9.764712
7.160575
-0.0638559
0.12088199
6.9753227
3.5022368
0.06964051
4.1315427
0.05085784
0.046285473
0.021750296
0.0042076055
0.027937362
-0.044162106
-2.6086721
-0.09731283
-0.037885338
-0.02410455
0.16884361
8.117401
-0.52521646
3.1910758
0.5475852
-0.5502816
0.014572915
-7.386725
-0.063998096
-0.25886342
0.026830323
0.0032756352
4.1431236
-0.040598467
-0.0639811
-0.7099277
-9.797643
-0.65735155
-0.6631345
-0.45781016
-8.413742
-0.014158246
-0.55339146
0.011061748
-0.09731452
9.7050705
-0.081845224
0.029233044
-0.021976946
-0.06710365
-0.046537846
2.7821558
0.25216758
-0.093728654
-5.9095626
0.087656535
-7.549554
-0.6242516
9.202678
-0.99923587
-8.740398
8.686439
-0.05430924
-4.6416593
0.9881142
-5.49188
1.400977
-9.746705
0.48754475
-0.04680375
-7.4046264
0.50217307
3.1658218
0.54408765
-8.257149
-5.627441
-0.9332153
-8.676042
-2.679959
-0.7641244
-0.03937788
0.024471994
0.8673542
6.767956
0.15014303
0.091858506
0.24268581
-0.0031428481
0.083285615
0.36474296
4.580239
0.18766882
0.5037128
5.7315354
9.606975
0.020545328
-0.09724477
0.052833714
-8.577859
-1.3081894
-0.26253343
-0.9007159
-0.88513273
-0.003345153
0.079810664
-5.1787605
-0.24728528
0.09149173
-0.52298784
0.07802046
0.03829412
-0.08200211
0.08886347
0.110098146
9.656621
0.32672185
0.20284607
-2.199415
-0.006563623
-0.061268035
0.076516025
-4.3406315
0.015971685
-0.13171272
-0.049194317
0.008597369
0.009961883
-0.27293742
0.06793265
0.05418711
0.4124924
5.315154
-0.6887381
-0.09045465
0.27315024
6.3586535
-6.284644
0.4564697
-0.2637147
-0.9668609
0.03033077
-0.2347946
-0.07930071
0.9123685
-6.117966
-0.08451768
0.8191052
-0.064995706
0.026435165
0.4938376
0.049271014
-0.036265645
-0.21312152
3.0447426
0.42419827
2.3473825
0.0821955
0.03323327
0.022941805
-4.831873
-0.04628938
2.5388827
0.12198475
-0.03852929
0.099529564
-0.026376858
0.7549458
9.054312
9.679717
0.3848419
-0.05159493
-0.09775859
-0.07031885
-0.03545042
-0.46108902
0.03385264
-0.015121445
9.045664
1.3466414
-8.338733
0.57793915
-0.08539627
2.757884
-0.021379381
0.027267523
0.9470557
-0.6111143
0.30475923
-0.1519009
-0.0111377565
-3.7491345
0.3311325
0.012340259
-0.033066582
-0.01738497
0.122643985
0.325816
0.19799699
7.276508
-0.03846417
0.3920843
8.108278
5.3039026
-0.02542949
8.270743
-0.3820732
0.029551035
-0.080268204
0.061006572
-0.79654217
-0.5580607
-9.549099
-0.42903042
-0.18622683
-0.010037072
2.4090738
-8.139348
-0.6263214
-6.739087
-9.228418
-1.2004411
-0.022486782
0.3233214
-0.097156
-0.0103308
-5.958404
0.52402186
-0.0853637
-0.06601234
-0.07916172
-0.24012102
1.3678441
0.02134746
-9.74965
0.03764989
0.11987655
0.0675258
0.003432135
-0.026483802
-0.087444946
-0.16953972
0.07030877
0.019588593
0.42431107
-0.068436295
0.07211612
-0.7258217
-0.20335515
0.6313401
-0.004307794
3.9505305
-9.565127
-0.6667608
0.03008933
-0.029810097
-8.891032
-8.066753
0.0058084433
-0.2101158
-0.9229462
-9.179153
-8.839853
0.6693579
-9.771088
0.14415887
2.7897983
0.75928533
0.07725231
2.1421602
0.68976104
0.03305712
0.037899215
-0.0449778
-0.05630087
0.04214263
-7.8227787
0.029758254
-0.018677335
-0.08553429
-0.042338375
0.121279396
0.06647331
0.004653901
-0.09270263
2.1020193
-0.015023186
0.025093557
-0.03294856
0.55491614
-4.3890424
0.8819242
-0.07632502
0.06715367
-0.07553364
-0.099734366
0.026308334
-0.1887587
0.009417981
-0.17852807
0.52833766
-5.545258
0.04836635
-0.047069892
-0.0067103775
0.49942055
0.6867243
0.024425654
-9.604813
0.084158696
2.025035
-0.07095582
0.30862632
0.055686288
-0.06895349
0.9228023
-1.7698756
-0.07846774
0.9161891
-0.09347889
0.6902817
-0.24430914
-0.19521248
0.9397671
-0.28912577
0.22103651
-0.029900579
5.889246
-0.79902065
0.07106507
-7.480994
-0.4811398
-8.7179165
-3.765186
0.03741723
-0.09318056
-0.71393365
-0.26136872
0.048563033
0.46395043
0.011886405
-3.5048425
7.4677057
2.4397724
-0.047177862
-7.0923133
0.7918757
0.050099075
0.08985453
-5.641225
0.03749593
-0.21749084
0.089257546
0.09446124
-0.0094022555
0.006504422
0.51241374
-0.06025155
-0.026858194
0.61603975
-0.07482219
0.08725144
8.470922
-0.018325625
0.7279243
-6.520647
-0.08612773
0.059728578
-0.012315846
-0.04871949
-2.7525656
0.8257764
-0.033324867
0.20909071
0.0133567145
-0.06267598
-9.99044
-6.6498237
-0.033615798
-0.99615127
0.045940246
-0.9152274
-0.02675385
-0.0077082952
-0.0505398
0.1986165
0.18144077
-0.037518706
-2.885719
1.971377
-0.069493525
3.6482975
-3.0942295
8.383946
-0.95643395
0.58607423
-0.93895257
0.044499338
0.040794086
0.06725111
-0.08864465
0.03297466
3.383855
-8.704017
-0.26754785
6.7311335
0.7083936
0.123674445
0.28984413
-0.068947956
-4.0323386
0.04121246
0.1906155
0.07554242
0.058010887
0.09901056
-0.07466936
-0.010813891
5.8103447
-0.040125493
0.09631981
0.3514663
8.946202
-6.8708973
4.865158
-0.7437138
-0.96118987
0.3832493
-0.551804
-7.1760497
0.9420109
9.707473
0.2593099
-0.85230345
7.324813
-0.06279434
0.15348074
0.9007213
-0.07270251
0.029316694
0.06474049
-3.1559093
8.728488
-7.5442247
0.698664
-5.321054
-9.342728
0.77842003
-0.7525774
0.039046124
-0.4485689
4.7331104
-0.01240223
0.63911927
2.0947409
-0.05524536
-0.011150299
0.50998425
7.236008
0.09487354
0.06942115
-0.06682812
-0.18849011
-9.9887
-0.09784264
-0.019564174
-0.014792054
-0.86741215
0.094489634
-4.4834595
8.589319
-9.579599
-0.052608933
0.7054383
-0.044829197
-0.016092086
0.5467619
0.040591527
2.8980443
-0.040079594
0.8648999
0.026369438
0.010032111
7.6953263
0.047716822
2.5403752
-0.0759985
-0.0047076927
0.38121614
0.8146274
-0.09606111
-0.087545075
-0.012445303
1.3224119
0.040437073
-0.007716996
0.5799172
0.28389758
0.060280476
-0.044470545
0.31718934
0.055336446
-0.4757273
-0.038830258
-0.7938928
-0.58529246
-0.06901531
6.192328
0.09148517
-0.31403497
-6.2718925
0.028827924
-0.05238682
6.073188
-0.021877406
0.013821574
-0.9168924
0.630186
-5.291473
-0.39852095
0.37447697
-0.062506415
-0.037610896
-0.023902567
-0.09289365
-0.07991329
-6.7379665
-7.9197483
-0.04543811
-0.8322973
-0.63028896
-0.910622
-5.8587203
4.2247896
0.6595947
0.6499306
-0.85460615
-6.3768153
0.08032636
0.22459267
8.332218
-0.04401932
7.6604342
-1.3358554
0.17626901
1.6062301
0.042276282
4.7311826
-0.0917059
-6.2693367
0.9822373
0.033084832
-0.23901337
-9.843097
0.27848694
-9.200321
-0.85849303
-0.050014798
0.665898
2.0994625
-0.07691579
-0.05724052
2.811278
-0.025410496
0.03137296
-0.00968449
0.014404554
0.14861062
-0.027849982
-3.2842205
2.3309498
0.8412662
0.35704038
-0.09419014
0.25011817
0.044443805
2.1986587
-2.4355216
-0.22613162
0.33597273
0.0945801
-3.026767
-7.3857217
-0.08928926
0.036075503
0.51568365
0.0704737
0.08449044
9.392599
-8.534117
-0.04195666
1.1338023
0.8127991
-7.6116934
0.09107125
0.15910132
1.6129158
-9.013106
-0.6848159
9.266156
0.98177356
-0.83830434
-0.7552159
0.4719818
0.9618199
-0.02367941
-0.92741287
0.02284044
-6.6046376
-4.0087695
-0.5506733
0.56886333
-0.095811844
3.7916343
0.084270656
-4.492954
-0.95846176
-0.9126262
-0.042575464
0.09621702
9.010563
-0.05108913
-6.647223
-6.7865105
0.066180736
-4.5851326
0.023168437
-0.077083826
3.6541553
-0.016198914
2.5227315
0.6224891
-0.5190227
9.588151
-0.078868285
7.9205127
6.3523736
-0.05018746
-1.9992918
-0.071940064
0.09737382
0.0073659495
0.30251694
0.050223947
-0.0061756824
-0.76075095
0.027684927
0.938676
-0.49835217
-3.4966486
-2.919047
-0.093299635
-0.07815429
-6.098036
-0.0537347
8.768747
-5.2005024
-0.91387886
0.14254105
-0.25216734
-0.046588104
0.0722272
-0.07850263
4.0190544
0.27722952
-0.6037745
-0.08873892
0.49146596
0.026085721
-0.11300411
-0.6263808
0.56791586
-3.6248434
-0.8026788
-0.07300683
0.01883119
0.46368498
8.36479
0.07443308
-0.039558094
-0.0057465094
0.08644641
0.017517695
0.79127496
-0.05415935
0.65749884
0.03024369
0.015801528
0.9131336
0.071925655
0.62690675
9.729453
-0.4515471
-7.293538
0.9127471
-1.1252865
2.160665
-0.6492868
-0.0148441
-0.036599282
-0.38057268
0.19526888
0.083363526
-4.7748046
0.11297503
-0.022145744
0.39372966
-0.07574469
-0.09708305
-0.032005705
-7.176355
-8.296927
0.15093999
7.68274
0.0034863083
-0.6998423
-5.5722637
-1.9477233
-0.237734
0.01271827
2.7437184
-4.0283804
0.043738056
0.63078874
0.08103274
0.0075412923
0.059189867
-0.06569562
-1.6628106
0.6824644
-3.4426281
-0.65258986
7.3024044
0.077561066
-0.61338466
-0.18411636
-0.33197662
0.02109114
-5.8484073
-0.09027205
-2.0259802
0.7762094
5.7533183
-0.057896703
-6.152619
-0.034304693
-0.05294664
-0.96964604
8.52985
-0.32861036
0.26114333
0.08489873
-0.3431991
-3.7271812
0.88181734
0.11892548
-0.79481494
0.23356725
-0.0718819
-0.64024824
0.2347473
-1.4582684
0.83452636
0.29467526
-2.4580734
0.055006552
-0.20448591
-0.77119243
-0.049255554
4.884216
0.07648685
1.7347971
-7.3272524
-0.5094422
-0.25301397
0.5307483
-5.5848904
-0.097559184
0.091107085
0.95163274
9.83079
7.1891165
-3.492668
-0.20613211
-0.37263903
-7.7008204
2.903009
8.978293
-2.8117087
0.4448819
-0.2762821
5.1137824
0.088022925
-0.45517635
-0.031087749
-0.7321989
0.07069141
1.1701847
-0.042437226
-9.691281
-0.05072002
0.052616872
5.6349025
-3.7768593
-0.049955204
-0.06842572
-6.05647
2.9046042
-1.5655025
-9.884305
-0.02674413
-0.07256235
-0.06246407
0.22424757
0.5825623
0.0428347
-0.030376662
0.39300522
-0.0341572
1.895381
0.087418586
8.037676
-0.017068932
0.61528105
-1.1226419
0.040305026
0.71798813
8.322597
-0.3250272
-0.04896511
-0.064327
1.9776994
-0.9881706
-2.4481943
-3.3374271
-7.4439273
-0.61145407
0.33597004
-0.037618097
-0.09633799
0.061925292
-0.06496452
0.91204035
2.9279628
-0.4651318
0.042015024
0.5076597
3.590384
-0.98508567
-5.6152806
-9.53229
0.09551865
-5.826447
3.1274617
-2.3860404
-0.08401559
0.09816391
-6.5655985
0.102893785
9.418811
-0.22095102
0.085966185
0.7965964
0.49858674
-0.090735406
-0.041886695
-0.05460485
2.8063197
0.06729611
-9.867546
0.08975699
-3.3985157
-0.044683896
-0.06755163
-0.49846917
-0.089994185
-7.186279
-0.071152754
0.2736168
-0.03539097
-0.75191003
0.6827091
0.05387144
-0.06270185
0.9065745
0.045186568
-4.926445
5.7742033
-0.019491497
0.52044255
-0.44366756
0.055693753
0.09822076
0.9506001
-0.063418746
0.031570837
-0.89910454
-0.015491301
0.08686928
0.22924933
-0.8638712
-0.7093321
0.84144384
4.7233815
-5.852369
-0.76456714
4.5795164
-0.010570367
-0.78429294
-7.731374
-0.5484949
5.7034063
0.46515325
-0.9372431
9.059358
0.82071084
0.05918092
-0.6802088
5.138169
9.855255
2.5646577
0.97900206
-0.061470866
-1.9430436
-0.48996055
0.3157908
-0.034817018
-0.9884142
-0.044872507
-2.5737338
-0.04999887
-0.039901562
-0.094480745
6.4480906
0.44206306
0.05187234
0.49444985
-0.09209361
0.4775708
0.882457
-0.3664664
-0.070908844
-0.02500241
-0.96770585
-0.06464992
-0.072505586
0.22012626
-0.673848
-0.9616653
5.636152
-0.8744028
-0.44869047
7.3608994
3.769279
0.5002337
4.3806643
0.06506404
-0.15249011
4.8753076
0.8082349
7.2221603
0.44673568
-0.19492008
7.504436
-0.014022948
0.102204666
0.83658326
-0.13098682
9.262422
-0.08933679
0.028731076
0.043968152
0.44445974
-0.0839413
0.055968583
0.013325732
-0.04317951
-0.019362852
-0.0010543796
0.32743573
0.08883743
-0.8589363
0.001625597
5.4109664
3.1877265
0.48144794
0.05463315
-5.1796536
0.05602066
-0.04566546
-9.344842
6.4660363
8.741707
-0.08856194
0.7545321
-0.05984215
-4.644434
-0.75321275
0.898257
-3.2003853
0.08537749
0.6174015
-0.17236616
0.69741404
0.078284256
-8.193836
0.019295583
-0.43650347
-0.004779003
-2.1456132
0.055092964
0.03206171
7.0780168
8.712677
0.08764356
-0.7988405
-0.37743238
9.451972
7.152351
0.6099379
-0.14817233
0.012286041
-0.008646124
0.8966208
-0.43189758
-0.47839588
-0.9786933
9.92505
-0.67521304
-3.4070013
0.010700894
0.9494782
0.028349247
0.05045866
-0.04687528
-0.9922954
0.26669896
-0.0708721
-0.04862528
-7.9263363
0.0032420964
-0.96919614
-0.49248028
0.35475436
-4.4321446
-0.9208788
0.29537272
8.200213
-0.8697526
0.50737315
0.047711838
0.74226105
-0.62638944
-0.016293244
0.63024145
0.66195685
-0.79642403
0.72020954
0.09020818
0.42138806
0.10870649
0.5481901
-0.06529883
0.0066942764
-0.049909607
-7.5703716
0.07443461
0.54242826
0.053470127
0.025478622
0.08296342
5.6191106
0.9598229
-0.09796287
-2.2659922
-0.066373765
-2.4662955
-0.3710826
2.2363036
0.07547037
0.09330229
0.5789792
-0.85214293
-0.07338068
-0.08020216
-0.022153495
0.040541273
0.05539169
-0.025197884
1.3545393
0.24873883
-0.09241021
-1.039085
3.1706233
-8.570769
-0.43608272
-0.07323782
-0.5306133
-0.032078024
0.72061515
9.994388
4.749548
-0.20720965
-4.732301
-0.011968114
-0.044038307
-0.22164072
-0.046023265
-0.0073200706
-0.044486217
-2.0224383
-2.2425776
-8.656475
5.4041376
-0.012871746
-4.781321
-0.49511507
0.467576
-5.849766
0.11533025
-0.0043269307
-0.04596136
-4.4318757
7.0304303
0.042375535
-3.176357
1.3104081
0.07608302
0.06448017
-0.06723721
0.03360886
0.056981914
0.72598755
6.045506
0.88084453
9.851099
-6.707671
0.21805306
-7.2621355
-0.09299076
-0.085394785
0.9264984
0.06521824
0.5051264
-0.999414
-0.69110215
-5.422885
-0.066161506
0.017038733
0.53904545
0.07914159
-0.0026136197
-0.042915165
0.70077705
-0.8082124
6.6527524
0.06453737
-1.6140919
-0.107018456
-0.99076617
-0.2160816
-0.041219644
-0.06334028
-3.0481415
-1.4200407
4.388199
-0.06467868
0.5007721
-0.036070347
-0.2401145
-5.477577
6.776337
0.0017472544
6.953935
0.0970314
9.646668
-0.18753965
-2.9649718
-2.141578
-0.4958665
-0.37396887
0.030790139
-0.057917256
1.4681864
-0.08852145
-0.26974633
0.078120984
-2.6837227
-1.2220131
-0.9312294
-0.45415437
-0.008997945
-3.4116137
0.09669624
0.020439733
0.16647325
0.6121965
0.7848486
-1.6817211
-6.669496
0.0388533
0.018597666
2.8816178
-0.0011350296
0.45350033
-0.088287786
-0.2998179
-0.027310843
0.020035699
-0.05667418
-1.9700993
-2.796516
0.095674634
-0.06875719
-0.028048094
-6.2725644
5.6654906
-0.46248627
0.08816964
0.09840615
0.025721533
-5.649755
0.22897923
-0.46223575
0.76142365
0.07079855
0.0065106396
-9.36567
6.3242903
-0.04704397
-2.7858305
-0.7057503
0.054753415
-0.45645165
0.88773906
-0.01772729
-0.9453923
-0.0018024398
0.026486998
0.009441516
0.10344438
0.010522837
0.04925345
-0.015311476
-0.06951797
0.09216148
6.5590944
0.48240593
-0.0826415
6.5348377
0.03934621
7.764253
-0.00024535166
-0.76441216
-0.015326735
0.02833975
0.06996462
0.02190628
0.008535177
-0.080901384
-0.2786374
0.08405909
-0.012639057
-0.025128588
-0.09661247
-0.76165193
-0.6545163
7.406113
0.6239142
-0.94796234
0.010134957
7.6252747
0.18191388
0.50932765
9.289552
0.07082272
0.054642458
9.01266
0.08610051
4.29208
-0.5169351
0.5168102
-6.823291
-0.44704103
0.68454766
-4.9251137
-6.856813
6.9133368
2.878111
-0.046190254
0.064431325
-0.80598676
0.041496065
6.0175147
0.39045796
-7.859263
-8.761246
-3.6906068
0.5338269
2.3237567
9.926683
5.995936
0.09892493
9.202105
9.028164
9.101826
-0.9055662
-0.060101535
-9.059536
-0.071499944
-0.06880489
0.8700406
-0.062893525
0.08118658
0.19653276
1.9081132
0.08307916
-7.6016965
-7.6313977
0.7706176
-0.089103326
-0.94506174
-3.8733935
-0.37327358
-0.17125805
0.011377375
-2.1712544
-5.309465
-0.7099264
-4.417295
-0.8431769
0.036488645
4.179152
1.7867471
-0.2755595
-7.0559564
-1.1785365
-0.03362365
-0.7540881
-0.8140576
0.7734542
-9.339401
-0.67150813
-0.077619106
-0.9227677
-0.018860169
0.5226936
7.2910104
-1.6423377
0.08792697
0.0070167207
-0.8782195
-5.7262473
0.81929654
0.008905896
-0.06849977
-7.589869
0.40831622
-8.7622795
-0.81735003
-0.044969406
0.07654897
4.998918
-0.5499814
0.19489396
8.125406
0.045343354
0.33142442
0.07801003
-0.5447376
-0.09559374
4.7472486
0.1830496
-0.03367102
0.36230028
0.06388381
-0.068352774
0.9734288
-0.051049136
0.088731706
0.0120410165
0.5692519
0.42858967
-9.431238
-0.6578886
0.021904884
-0.025521614
0.1990324
-0.06968782
0.09096758
0.048677422
-2.2230618
-6.167589
7.593134
2.2848268
5.3485813
0.020243077
0.8506219
-1.1024249
0.876471
-0.012576371
-6.7299523
-0.04310213
-6.396671
-0.6878389
-0.026591012
-0.07649215
0.3741118
-4.5329742
-0.814624
2.0848725
0.5695727
0.08710735
-0.05580243
-0.88692784
-4.7795734
3.4715269
7.643512
7.868253
-0.05997157
-0.4197831
-7.458266
-0.086870335
-0.24308385
0.8063896
0.85957193
-6.965023
-0.037866175
-0.43207774
-0.09459696
-0.07475484
0.02291635
-2.7836018
-0.7058636
8.137882
-0.014152205
0.030098407
-0.73368794
0.08379022
0.043505426
-0.0880272
-8.7621155
0.028689122
-0.74476755
-0.04639361
0.7533264
-0.4249898
0.800975
9.952745
-0.1281481
0.65952533
-0.06906037
-0.0514747
-0.06481155
0.4247448
-0.011731103
0.035685558
2.8933861
9.787273
0.18695702
-0.06797619
-1.596232
-0.038393058
0.9270207
0.887106
-0.83830005
-0.5761004
0.02468308
-0.05308417
0.05642036
-0.047657546
0.48700908
-0.04970448
0.031399053
-0.36090946
-0.011963054
0.0557736
-0.06842912
9.325826
-0.9926818
-0.0018481037
-0.6448402
-0.35235953
-0.56889635
-6.0797257
0.6399895
7.5376105
-0.075514995
-0.086649634
8.734914
-8.84436
-5.3874774
0.23036426
0.03702028
0.2654378
0.18256588
0.08634535
-2.692103
0.51128423
1.9461896
0.029024916
0.9002598
-0.014761398
-1.9458603
0.4044275
9.925572
-0.033469662
-0.87319756
2.1804378
-8.47961
-0.07559386
0.017004581
5.3395705
0.34051406
1.4565828
0.4611906
0.014108536
0.9394164
-0.6920541
6.4618497
0.2936923
5.6060557
-0.9396918
-0.025303705
0.3478686
0.03928926
-0.45846802
-0.031918578
0.052782074
-4.00659
-0.054038156
-0.806853
-0.040771607
0.06552087
-8.417687
-1.9508952
4.164279
-6.690519
0.057586975
-0.004643749
-0.06131007
-0.8869006
8.343412
0.0720267
0.6229238
6.3612027
-0.08320737
0.04832251
0.064533144
0.010643964
8.661776
-1.0630165
0.72064394
6.1038876
-0.11329795
-0.034048177
-0.06957255
0.98347706
-0.7818824
0.05398599
0.063608855
0.36058533
-0.9734658
0.029925833
0.3053763
0.14912313
-0.07751298
0.9300189
8.066582
-0.5847218
0.9647365
0.08099597
-5.384136
0.79062486
0.0072126575
-0.33538607
0.051961366
0.037812322
-0.6612859
-0.3955866
-0.9537045
0.024682797
-0.12333414
-0.8660435
-5.1174884
5.961986
-9.095864
-9.491729
-5.979768
-9.571944
0.027328612
0.6641841
5.8642664
-0.101913676
-0.50969994
-2.0445516
0.48654288
-0.046480145
-3.7546377
9.128105
0.017202726
0.7200253
0.3473451
-0.5877916
-0.03672678
0.7624433
-0.94976515
0.0071674986
-7.4025736
-0.03317434
-0.0973966
-1.8140745
-0.98570323
-0.08313338
-0.08385066
6.445859
0.048033528
-0.10804373
-7.2981334
-0.39571306
1.0474067
6.9632306
4.8773417
0.6405776
0.82751477
0.013317501
0.0076196846
-5.3893523
8.213372
-0.01778274
-0.970257
0.64430106
-0.9374577
0.73252326
0.99069035
8.43326
-0.093695916
-0.027730815
-0.093871094
-0.044868134
0.08518969
-0.018812675
-0.004568882
-0.020785924
-0.2446273
2.0348547
3.2718935
0.56404406
0.005286101
-0.94959426
0.0107281655
0.018740688
-1.6141945
-0.26435417
-0.060261328
0.021810982
0.052749585
-0.041643847
-0.124846086
0.042405907
-0.2567954
8.065068
-9.481274
0.3579015
-0.32581463
-0.11498921
-0.0384547
-0.45566767
-0.40174952
-0.85104537
0.2422029
0.41356748
0.060654934
5.154023
-4.5123057
5.5925083
5.2007246
-0.020564053
0.6979619
9.063501
0.014318234
0.0032012945
-0.078535855
-0.049682792
0.45206535
-0.9213134
-0.13000774
-0.60856026
4.999861
0.089224204
0.1850989
8.736696
0.36704984
0.07077958
-0.06344638
9.337952
-5.353206
0.9512831
-0.7218014
0.06314415
-0.6326281
-0.37131226
0.065869674
0.81204945
-0.058951396
0.030272158
0.3794008
-0.051915143
8.022813
-0.61598116
-5.282197
-0.7526831
0.034111716
-0.073663734
-0.4896356
-0.65903485
0.57015765
-0.055652034
-0.77643085
-1.9810545
-0.047494132
-4.0345006
0.89580005
-0.9583422
-0.05901607
-0.03794871
-8.98209
-0.0050012614
0.1355052
6.5555468
9.826509
1.0109649
0.05760896
-0.06700572
0.6792674
0.059434164
0.0913079
0.28080016
0.89150435
0.6138106
-0.0033585287
-5.68821
-0.056837548
-7.1658926
4.7936378
0.06893123
-8.469394
0.9682411
0.06804703
-7.6925507
0.63343143
-0.58554715
0.20431322
0.7792805
-0.86006504
-4.509285
-8.624235
3.9568207
0.21586904
-0.09847981
0.60072297
2.334514
-0.06782695
2.8728058
-9.546166
-5.9795485
-0.09305736
0.07893038
5.573334
0.060432263
-4.980082
-0.095374994
-0.028356345
-9.255931
-0.7648767
-7.6447053
0.08056716
-0.33419532
-6.4215765
6.863113
0.48747626
-0.810584
-0.46804962
-0.6629159
-0.5933247
0.024327168
0.9775845
0.09543347
0.0048257485
4.755015
0.18792164
-6.9644003
9.282329
0.7891414
0.08661237
0.2486359
2.6746972
-0.044260286
-1.0804024
0.07460992
0.1623215
-8.899569
5.906434
-0.65899944
-0.80529946
0.04815497
-0.014396801
0.12032352
0.027950158
0.9418122
-7.870831
-9.673914
0.010896986
-0.98820233
6.9506626
4.4300733
-0.7675026
3.3974552
-5.4163737
-0.010293377
0.3879503
-0.010914655
-0.63009226
-0.062141094
-0.015687939
0.00948082
0.3944522
0.517749
0.23481055
-9.4423065
-0.24579053
0.09723609
0.08057034
-1.7375255
4.7441134
0.030266896
0.033009674
5.610433
0.037405238
0.2666779
0.07035622
-4.643021
-0.43860888
7.4986343
0.9689457
-4.6461797
-7.5187683
0.046180874
-0.0069940626
0.028079672
0.6752505
-0.029245406
1.9774878
-0.049930133
1.9578141
-5.225068
-0.03281205
0.11675196
0.030273236
0.41026658
-0.10955812
-0.7453603
4.2673163
0.15636456
-0.028836627
-0.024693156
-0.5570012
-2.8049364
-0.49318743
0.011562379
-0.33755192
0.030750452
-0.08649795
-1.2234633
-3.769779
-3.782096
-0.0097908545
0.023622286
-0.036725186
0.5764075
-2.798135
0.30884525
-0.695908
0.08813805
-0.09688147
0.7327788
9.926053
-6.76762
-0.091501914
0.00951605
-0.05442515
-5.398242
-0.8929565
-0.042165987
0.0069573065
4.5283184
0.06448844
-0.7130472
-9.415804
0.9007365
0.0007204583
-0.60227937
-0.83590615
3.8937166
-2.570358
0.55445755
-0.29859805
0.7553203
4.89752
-0.08758227
-3.0398252
0.07896651
-5.500983
0.0867614
2.9931622
0.46296054
0.03157683
1.5827523
0.029354675
-6.2438807
5.8348603
-0.0485316
-0.082131825
-0.065956995
0.09952688
-5.5746245
-0.8152846
-0.20789097
1.7029722
-3.0875359
-5.1030126
-0.3623649
1.4713292
-0.7342927
-8.751481
-1.7867941
-3.3143787
0.0016473657
0.18665867
0.022058148
4.7295437
-0.054682262
0.797039
0.2644943
-0.026779823
-0.07939804
-0.085245386
1.9070051
-5.21814
0.08551717
-0.82963234
-0.25716773
9.463874
-0.5845697
0.040089883
0.056445844
0.04205581
-0.04224835
0.72919494
-5.56282
0.7456897
-5.1685395
-6.1442947
-0.33832222
-9.372445
7.618554
-9.15638
-0.27851075
-0.045674574
6.848406
7.7830806
-4.1305656
6.59898
0.040434387
-0.034442898
5.474474
-0.96096987
-3.7409582
8.059404
-7.108248
-0.7362859
-0.033393122
5.01802
-0.061629895
7.3370323
0.21836028
-0.08185572
0.5083369
-0.55226284
0.8486764
-0.4375337
8.995097
4.012377
-0.97333616
0.68219
-0.41181633
0.8078492
-9.845872
0.0027267549
0.5301687
0.0009547823
-9.597659
-0.4489434
0.084977515
0.066851445
-0.25730634
-0.28351426
0.4941357
2.8475885
-0.8683729
0.087816745
-9.086229
0.9437383
-0.0851306
0.75639915
-0.032429267
0.7374682
-0.46892005
-0.20351365
-0.93394536
0.06065099
0.96508956
0.12463694
0.035764806
0.4672239
-0.9960482
-0.8837517
0.09349543
3.9328146
-0.044653825
-0.77865976
-0.40669993
0.72946817
-0.07652552
-0.07707947
-0.08433278
-0.07577679
2.110425
-0.03108023
-0.04772623
3.1411412
0.023181105
-0.063573465
0.6646877
-0.06367858
0.81040996
2.7032619
9.614597e-06
0.02213004
-8.76774
-0.07587495
0.21737523
-0.06475016
-0.8389023
-3.8834105
0.056050934
0.71117985
-0.02486716
-7.40189
8.079656
0.06828538
0.04807496
-0.9774771
0.5460875
8.753055
-3.797228e-06
-0.04762402
0.4180486
-0.032140214
0.6162482
-8.875107
9.666079
0.045961954
0.27179193
-0.06355118
0.92696863
-1.7637799
0.026336048
-0.21434823
-4.0034475
-0.37253755
-0.0012218606
0.2722164
-0.021853035
-0.08335831
-0.080420114
4.3580647
-0.057270553
-0.030169686
-0.025340132
0.8516603
-0.0037221482
-0.5902503
-0.4761908
-1.6844375
-0.065125264
8.707043
0.49803266
-0.7018003
-7.9124084
0.08514947
8.930835
-0.046855547
-2.058734
0.33541986
-0.7181411
-0.745258
-0.5206419
0.009834947
7.6930494
0.039601672
-0.016716452
5.889261
-2.8337026
-0.0023398597
-0.0411411
-0.97261095
7.6588125
0.25137728
-0.025122544
-0.054844532
-0.6711387
-7.2762628
-0.57223034
-0.3557095
-7.7762003
-1.9698523
0.056151878
0.052914657
-0.7634547
0.9603315
0.12135279
-0.054311793
0.09670259
-7.9281926
0.006964053
-0.120688856
0.011889058
-0.12536202
-0.011355421
0.07377099
-0.43907866
-0.1550987
2.6438572
0.031473603
-7.0591564
-0.095877826
3.7332315
-0.2145473
-8.179008
-3.2850091
-0.05857505
0.9031979
-0.03228935
0.63334435
0.050630275
-0.6020653
-0.26376972
-0.017977485
6.0791574
9.96501
0.01804781
0.29496327
-9.870097
-0.6799041
5.0916047
5.174442
0.017588649
1.8238066
-0.44779083
-0.08916606
9.910647
-0.09962529
-0.60344934
0.9747163
-7.6337357
5.261954
-0.65326375
-0.73912156
-0.34758964
-0.80563813
-0.56759334
-0.01222783
-0.66941386
-0.17106745
8.739652
0.039441697
-0.053399544
-0.3244351
-0.08849908
0.25661144
0.030393705
-0.026514614
-0.034556303
-0.023874234
-0.0027237926
0.19533809
0.07333277
-0.08477162
-9.69512
0.063346736
0.046035886
0.60617304
8.522673
1.3030772
2.1900015
-0.049269132
-0.032236747
-0.63763833
0.02141094
-0.078643546
-0.65292114
-9.617066
-0.66909355
0.32061717
-0.8571041
0.38932413
6.327595
4.380987
0.17496698
-1.399747
0.7093613
0.32414505
0.032209132
0.4990491
-0.93692994
-0.79519016
0.093275465
-0.42265216
-0.017600795
1.1151702
0.6590083
-0.038819775
0.9840851
-4.610137
0.6299278
0.007256336
-0.8184531
0.072320275
5.2122755
0.659903
0.02034697
0.88519573
-0.0624871
-0.04301657
-0.4329834
0.49069822
-0.006485812
-0.0041330676
0.09828098
-0.0026158192
9.953132
-0.063788705
-0.30419782
0.062357854
0.51371163
3.1775312
-6.1567802
0.053667527
0.19798042
0.022022597
-0.62064147
0.015604256
0.047314003
0.012024543
0.8398257
0.04284513
2.109687
0.048333563
-9.483707
-0.31711012
6.993949
0.08999076
-6.8115563
-0.018973492
-9.805502
-0.1192823
0.08844773
-0.08511734
-0.0129329255
-0.57126313
3.295665
-0.095405065
-0.49572462
2.6500142
0.046158664
6.210417
-0.08219516
-9.131147
0.0021406622
-0.040613838
0.7460329
0.7576863
0.034563
-0.36220008
-7.375663
1.7796601
-5.550843
3.969538
6.4142127
-0.05698326
0.21714787
0.4152237
9.595248
-0.40420282
4.4940777
0.17437634
0.9137249
0.0057215905
0.08495744
0.06532535
-0.0076255486
0.0019146762
0.3708436
0.88215524
-0.09309277
0.74875474
-1.5565317
0.9289402
-0.22282673
5.8259397
0.053879082
-0.09603974
-0.032288596
0.054234203
-0.8557601
-3.6254568
-0.021892153
0.07295447
7.0067577
-0.85379976
0.24361904
-7.7371206
0.097066894
-3.9301972
2.3037057
-0.74024916
-0.04869013
-0.56664175
-7.7822475
-0.06967306
7.374369
8.892319
2.594696
-0.98916274
0.66828215
4.6529408
3.95089
0.08957467
0.99124444
0.027849684
-0.24298029
-0.0853879
0.05310702
0.07847873
1.9478847
-7.3384986
0.90393245
0.48397306
8.188012
4.820694
2.2985966
-0.009859558
0.09865458
-0.015228557
-0.04731326
-0.26122883
-0.8850574
2.9361103
-0.03632467
0.07952418
0.7923933
0.6684483
-0.3073535
6.8508
-0.3541831
-0.634708
0.6681565
0.63460815
-0.7527449
-7.6657987
9.600817
-0.61319125
0.55119485
0.29076192
-4.044988
-0.015503737
0.061575614
-2.0510237
0.11954451
-0.17026235
0.086262666
-0.050411493
6.4315367
0.75712043
2.5860968
-8.694586
0.4103651
-4.3894877
0.07012009
0.08681857
-0.29667303
-0.025743887
-2.3995123
-6.525166
-0.001767826
0.43832633
-1.7005299
-2.2750335
-0.6806993
-0.052505925
0.025414953
-0.6750397
-0.8183566
-0.033182736
-0.05491788
0.94573295
0.18263027
-0.39925435
3.0586486
4.286686
-0.045116276
0.83012736
-0.45449308
3.1478546
0.085261576
-6.72502
-9.13371
0.32761052
0.66000164
-0.043341998
-0.30379188
-0.9951787
8.721631
9.314904
-0.044529263
-0.016282704
-0.20266157
-1.9618573
0.46669152
-3.8257165
0.5628921
0.35566875
-0.090537414
-0.04512115
0.77167565
-0.9947241
0.0845445
-0.016857395
0.0028283685
-0.6182582
-4.9666996
-0.49326932
0.045072395
-0.030242607
0.047037046
-0.870084
0.029799415
-0.07905369
-0.5397061
-0.43986776
-6.0737805
0.1660032
8.016131
-2.7048066
-0.0774048
0.6651353
0.9680301
-0.35662907
0.0053601074
1.1526957
7.7952957
0.12021514
-0.9103369
-0.0012332511
-0.07616617
-0.0064583565
-0.06640715
0.41015676
-5.844973
0.06966133
0.0013342296
0.04292694
-5.2107525
0.08809265
0.7044992
-0.029268155
0.5525847
-9.8052435
-0.52249956
4.98401
-8.909458
0.032388512
-7.1697106
0.03626222
0.047081467
1.1052066
-0.074822426
-7.3188424
0.2180675
9.180616
0.62470424
-0.026346039
-0.045123227
-3.8092647
0.09543298
-0.98612857
2.7257252
-3.4639902
0.07334158
0.23992297
-0.051660515
-0.399804
-0.7860798
-0.016775925
-0.027565235
0.45273346
0.70615196
-0.07874101
-0.6962397
6.207686
-1.2032473
0.0454127
-0.08267621
-0.022848578
2.4293385
0.28528005
0.08761322
-9.483341
0.88618416
0.008697654
-0.04962827
-1.8495622
9.717819
0.08377746
8.150445
4.265813
0.012039798
-0.047126833
-0.9906262
-0.06543465
0.6544758
0.07581849
0.052356746
-4.3816657
4.170412
-8.868585
0.09811242
0.0943919
-0.06642286
0.0756612
0.84734434
-0.5108734
-0.35774726
-7.488133
-0.084397025
5.725376
0.00590091
0.04060003
-7.2909217
0.6172072
-0.07918218
-9.224353
-0.33096325
-0.02414079
0.058625285
0.035419032
-0.033141214
-8.6715145
9.046567
-0.50492454
0.019082591
-0.24816899
-0.66720736
0.23985012
2.492197
-0.018640563
-3.255163
0.051317267
1.2456675
-0.080306366
0.3242313
2.5638971
5.292302
0.7323378
8.808444
-0.8859612
8.058941
-0.101343445
8.2946825
-9.956763
-0.024058247
9.1901865
0.0073445425
-0.029080182
-0.52014023
0.07525645
-0.036831137
-0.009393599
-0.0835722
0.018535433
-0.21432278
0.026595118
0.50719875
-1.9900903
-0.00019225526
-6.046698
-0.66319674
-4.5718865
8.03174
0.23155388
-0.08039982
-0.011365782
-0.033788018
0.032755755
0.18701883
-0.97824144
-0.19611835
0.5041471
-0.56789565
7.0330157
0.41148585
0.042352956
-7.298628
-8.580187
8.529685
-0.037131913
7.270042
6.448526
0.0394738
-6.1296873
-0.32404727
0.8220923
0.023689462
0.059221014
0.026894808
0.07101235
-0.9763753
-0.054950614
-0.017229242
0.7211926
0.5177002
0.15798745
0.7142281
-0.3005824
-0.6859631
-0.2724947
-0.97181225
-0.6465464
0.09367346
-0.37231866
6.572894
0.7514638
-0.41709906
0.08903966
-0.001352734
1.0309163
0.058743875
0.027186902
-0.051733427
6.16129
-9.058964
9.233546
0.61623627
0.913802
0.99413
-1.3080094
2.6427782
0.9877089
9.184759
8.710033
-0.07154846
-4.7498775
-0.012418114
-0.18826039
0.0051659625
-0.47027007
-2.8305566
-2.488755
6.596351
-0.14925805
5.046033
-4.9047356
-3.8492234
-0.994683
0.011137029
5.782113
0.17386797
0.0116091315
-0.7650328
0.09237508
0.7575451
9.168943
0.14505087
0.6995112
0.6437623
-9.47984
-0.014417831
-0.09042248
-0.17560145
0.04118723
0.5982141
-0.7248069
0.7178407
-0.21157883
7.322058
0.51738787
-0.8600041
-0.43348876
-4.34714
-0.08042726
0.012902323
0.73775744
-0.09975867
6.7168913
-0.2911757
-0.09539271
0.14784437
-0.4205179
-3.2304935
0.012506861
-0.055016395
0.07404084
-2.9941754
-0.5769618
0.09613147
1.9301124
-0.01969927
0.4739919
-0.051685125
-0.07415317
0.84491414
-0.08298747
-0.19059204
-0.20365128
0.07606692
1.5281461
0.86314285
1.5865302
0.117816575
0.022694195
0.3016828
0.48177966
0.84015054
-2.1545506
0.9555877
0.79207176
0.89458483
8.473788
-0.06486044
-0.73401785
0.87076247
4.79977
0.9302878
-0.8182764
3.069463
0.4658516
0.8882618
0.033420973
-8.623643
4.92657
-4.145526
-0.06506256
-0.89747536
-3.9488528
-7.556333
-0.2953429
-0.036008913
6.7278805
0.050513696
-0.025914725
5.589494
-0.09377221
9.193672
-0.047567442
-0.21597819
-0.81750214
-1.6156586
-0.0028745537
0.99665534
-7.3334613
7.670673
-0.0026813853
-0.5841645
0.026235238
5.5337563
0.44011426
0.019571215
-7.6480412
1.8024504
0.74506885
-3.1501746
-0.6014163
-0.06540708
-5.813528
8.713814
-0.07183937
-0.8947274
-5.541652
7.3749237
-0.7316689
-0.014862095
-0.028565317
-2.641672
-0.025928197
0.43722528
9.881378
0.44360033
-0.8291908
-0.5320408
-0.022260306
0.06266951
-0.22857726
2.810246
0.033237733
0.9660296
0.044809844
-0.2741563
0.35364634
0.6591873
-1.7475834
0.6592397
0.89839625
-0.13825446
-0.017965596
0.8572017
0.097211815
-1.2663796
-0.82978004
-0.040132884
9.144607
-0.04669673
-0.044593956
-1.6043373
0.043382037
-3.8058853
8.936149
0.012591478
-0.024235899
0.21897939
5.0329795
0.6998031
0.7334491
-6.525776
-3.6274283
-0.11814417
-0.59874034
0.8104214
0.49396887
-8.210617
7.94868
0.33054286
-0.6614534
0.041656096
0.70345694
9.502164
-0.04440041
-6.7895126
-0.01474329
-0.086319864
-4.0553856
-0.05232788
0.005491542
-0.77874917
-6.4258213
9.62712
-2.6629856
0.06648737
0.035243228
-1.4028506
0.18588555
0.015403876
-0.4065938
-4.347057
-0.969101
0.65933925
0.6751436
-0.08291236
7.4284735
-0.7429774
-0.06019275
-0.9023226
3.8112235
9.81221
0.83051646
-0.77155167
0.58157575
0.092368245
0.13958895
-2.04018
-0.08124743
-0.014010555
-9.447421
0.9133758
-3.1240604
1.4251736
0.6743645
-0.053743225
-0.09239149
0.5679965
0.20900694
7.4230747
6.3348317
-4.046378
-8.43202
-0.351817
-0.097838864
0.54493856
0.06394141
0.017604817
-0.09928276
-0.37624133
-3.7759237
0.47157362
0.5999307
-0.44591245
-0.040450204
-4.3787584
-0.044489577
0.68213797
0.044941362
-0.039743282
-0.3223559
-8.653001
7.605061
-0.020679204
-0.044552848
0.01696943
1.405541
-9.4218855
6.0145516
-4.106301
0.19204414
6.630796
-5.1435413
-0.23787087
5.05754
-0.0124707045
0.7534554
0.064659
3.506282
0.6723526
0.46786845
-0.38362363
-3.784966
0.36340126
0.06240336
0.90662074
7.4443154
0.7360876
6.5840225
-0.07220763
-0.8984885
0.0064984513
-0.06637836
-0.8991646
-0.94978815
-0.26654884
-0.69309586
-0.020306135
-1.486651
0.22793527
-0.047351748
-0.29262164
-2.6155674
-5.5042005
-0.21090059
0.01287877
8.834098
0.0006696598
-0.51827186
-0.053636037
-4.3333225
-5.243261
3.7116659
0.8622954
0.11994964
0.29826954
-0.07221459
-6.2464848
-0.12498863
0.43590918
-0.7259374
-3.8567898
-2.2858765
0.44803846
-0.017072972
-0.055317316
0.8467847
0.35503748
-0.3820736
0.16749977
-6.2153406
0.06547871
0.44438145
0.033881895
0.4325061
-9.44889
9.374963
0.09516936
-0.749544
0.026004937
0.14778437
3.7327087
-0.0036137267
4.412811
-0.93112016
-7.7892175
-6.0018616
-4.507567
0.68245554
-0.0275553
-0.09047977
4.411282
0.06615927
0.066376716
-0.6038517
-9.90123
9.848363
-0.090538435
2.4887235
-0.09204248
-0.028896611
0.02887244
-6.6065035
-4.6329193
-0.0037442762
-0.9151194
7.968039
-0.05726538
-0.056774125
6.1661963
-0.91224176
-1.3547279
-0.2510652
0.24876112
-5.8872476
0.026799312
-0.072069824
-0.045106407
-5.992588
0.054810632
6.8536716
-2.123713
-0.91192424
-0.328095
0.70368826
-0.60124576
0.057469077
-2.6354556
-8.625894
0.32701764
-1.5935345
-9.075844
7.720784
0.72110057
0.047971148
0.038102612
-4.106886
3.576983
-0.3625637
0.011205246
-4.062841
0.04170499
-0.83614475
-0.32426715
0.96088666
-0.009425673
-0.9326538
0.09787874
2.9327538
0.017915288
-6.51212
-4.717595
0.10957767
-0.8472709
-0.04331874
-0.53281003
-0.16577587
0.3399285
0.020701142
0.7503398
-0.040859763
8.580264
-7.135768
-0.0982202
0.010765826
0.038896598
-9.728185
0.8540856
5.4080772
-5.075258
0.58300143
-5.5423007
-0.9487339
0.5970148
0.028431065
-0.29252142
-0.034294255
0.059762105
0.50076956
4.2735868
0.044583987
2.47335
-6.0864425
0.7126458
0.020644749
-2.114701
5.5879507
0.051807053
0.67987496
-2.8827775
0.74483395
-0.84653854
-0.54532844
0.78272027
0.0022186243
0.033488464
0.06344478
-0.031483836
0.018221224
7.02579
-4.5041733
-9.324812
0.85101426
0.034264665
8.493039
-0.69881326
-0.50635916
0.78422695
-4.579612
-0.6138955
-5.8776994
-0.0002107253
-0.012708646
0.4358879
0.4072249
-0.87658364
8.44801
6.076037
5.3782654
-4.9512687
1.1744542
-0.044888895
0.94327503
0.06964203
-7.348411
-0.066357344
-0.7621107
-0.09268757
-0.48954865
1.5558584
-0.09236852
0.8367885
-0.04579627
-9.924172
-5.138339
5.4255786
-0.04397654
-1.5155383
-6.218071
1.9925338
0.028357964
4.852806
-3.4420693
-0.23477487
0.09213942
-0.0916596
-6.6879373
0.6293145
8.764945
0.41270122
0.7100514
-0.093155764
0.29357344
-0.29183546
-0.87357724
1.0739324
0.6110243
0.073987275
-1.7797781
0.5018269
0.02777861
0.6035658
-9.232102
5.4390116
0.037804037
-0.8762509
3.644028
0.07303744
0.5146321
-0.07588777
-0.06612541
0.07570302
-1.7040213
0.029049225
-0.06651484
-0.6751965
-7.853393
0.044174653
8.527328
1.4082596
-0.40264934
1.4530442
-7.9148755
-0.31906813
-0.032953884
-0.16765329
0.5548224
0.95781463
-0.04617846
0.020624982
-0.03291411
-5.001139
7.195351
2.658282
1.7738786
0.075378664
0.6236142
-2.3429368
0.07944955
-0.015935676
-0.285968
-0.07260109
0.54273975
-0.8042976
0.8503747
0.007553787
-0.024980253
3.1550255
0.00985794
0.40197268
-0.872725
-0.032346614
0.08408691
0.06799713
-0.76109093
-0.042064454
-0.049003176
-0.09222021
5.242879
0.043006606
-7.771709
-2.606406
5.179207
0.3092458
-4.96536
-6.312784
-0.052088227
0.5967321
-0.08460488
0.07248132
-6.879823
-0.08637819
0.25759116
-9.466822
-0.9356273
-0.51941115
-0.8038441
-0.55601865
-0.8965467
-1.1688831
0.048725884
0.029058855
0.7324364
0.079520926
0.03884351
-0.3641157
-0.00079813413
0.7955305
9.902819
7.1916785
9.936388
-4.113746
-0.081717454
-0.042854626
-9.913263
0.82855034
5.2694416
3.9195657
6.7813025
0.0016739944
0.3030047
-0.22528118
-0.8102601
-0.001623642
0.934816
-0.025717732
-0.98809814
-0.015454371
-0.00937527
0.0005578173
-0.9482035
0.011859377
-8.431425
0.47043186
0.028527817
0.4042759
0.01977847
3.3694031
0.824511
0.041089706
-0.8021253
0.3358419
-0.037722472
0.13855638
0.09782582
0.24396706
0.028633446
0.085366815
-8.569863
4.691403
-4.446839
7.7836885
0.80686647
0.12846774
-0.08105503
6.9674563
0.012589732
0.013854392
-8.049401
-0.032350823
-1.1588259
-3.0827675
0.06785375
-0.38592505
0.8316484
0.008991775
3.241005
-6.9625783
0.19929463
0.23394948
0.15084994
5.5515404
-0.8168965
0.52299345
0.46133482
-1.9714845
5.895053
0.73477244
9.007526
-0.25728667
-0.6437161
0.008084651
-3.7411797
0.899141
0.35947505
-8.288756
-0.5799851
7.1257634
0.05311349
-7.202461
4.9886
-0.06343443
-0.062075254
0.07278862
-0.23634906
-0.0449362
2.6598349
6.988732
-8.120335
-0.63696176
-0.014985512
0.454169
0.030435689
0.6365813
6.715431
0.029894952
5.6243734
-0.041161086
0.018697739
-8.357251
8.303883
6.100693
0.019318335
0.90520424
-7.5545835
-0.9608655
0.018074438
-0.9271318
0.17797382
3.2331576
-0.014948914
-0.5907136
-0.04896999
-0.06271934
0.8074665
-0.33263683
-0.67499506
0.033378556
-0.081070244
-5.066422
0.5118992
-6.6665144
-0.08112001
-0.5264999
0.9462398
-0.801434
0.43512905
-4.21915
1.5577843
-0.13741767
-7.2689233
0.21891084
0.079295725
4.2280316
0.68151045
0.09845788
-0.0067036757
0.64894134
0.12891977
-0.07938262
0.09959221
-0.08824421
-0.050854616
-0.79378575
0.95203114
-2.2251225
2.0287209
-3.263997
-0.88248396
0.7362664
0.04563449
0.89819336
-0.025002444
3.2096903
-3.4324389
0.9636755
9.671123
-0.09728458
-0.056291956
-0.90047497
0.26779708
-0.33586547
0.06993978
0.24378178
-6.3898396
-0.85797167
7.3601427
6.273821
4.0017266
0.9834503
3.409728
-0.078415796
-2.2561615
2.8575513
0.10848564
-0.2880175
8.516366
-0.5992252
-3.6554372
0.088345915
-2.8166525
0.04761654
-3.8689396
-0.9204357
-6.195929
0.021361992
0.048399054
2.8561997
0.010021312
0.9535038
-0.0031658972
-0.039698917
-0.46050733
0.023139466
7.894813
0.75821936
0.16813512
2.2264063
0.012328164
0.0025626707
0.07738234
0.5157562
0.09472061
0.33099928
0.18594548
-2.786465
-4.378977
-0.8863798
-2.7324157
-3.0245602
0.07033424
0.61854
4.9913054
-3.256258
-1.3119044
-0.06329955
0.09293563
-0.087592326
0.20191655
-0.5977083
0.08501116
-0.0068046623
0.024440823
5.444258
-6.445426
0.0827957
0.76616865
-0.43709823
0.02039172
-8.606758
0.088347405
0.07841886
-0.06828047
-0.34080198
0.20269172
-0.8493249
2.3459089
-0.025749864
-1.6843505
0.59510803
7.1995974
0.011774308
0.08760208
7.0174727
-0.07355181
0.06986504
-0.6303412
-0.03732474
-0.036759574
0.044408463
8.206447
-0.5530426
-0.09037668
0.5087376
-1.9579743
0.039518803
8.351238
-0.020107007
4.873325
0.58623034
0.5998899
-0.82425636
-1.0038066
-0.62264967
-3.239665
0.046719626
-0.21515033
-0.08063354
-0.019177098
-0.40136167
-5.687749
0.0036658791
0.011437906
-0.045394976
-0.07862125
0.07078907
-8.714328
0.08179803
-6.4347763
0.031016357
5.270958
0.0049254997
-0.824955
0.15686792
-0.057842318
-0.69330585
-0.09958974
0.22468686
-3.5361857
0.5605771
0.04233483
-0.44641617
-1.2926127
-4.6407337
-0.0010134593
-7.995445
-0.7426425
-0.08173561
0.038769197
0.0784186
0.004021776
0.09197051
0.96464705
9.964033
4.411017
7.5115128
0.07972093
0.61290884
0.07641126
-0.63886535
-0.21409011
-0.08864502
-6.617443
-0.603748
4.0713577
0.30717808
-0.06835078
0.020971393
8.48354
0.05312384
-0.9708739
1.9794714
5.9190373
0.06086295
-0.9687565
0.97157645
-0.092790596
0.14595957
-0.0819631
9.301858
7.0472345
-0.34886056
0.119023725
0.9341135
0.32307658
0.0054683043
0.5731564
-0.082357176
0.058617633
-0.8770453
-2.8612945
-0.85688645
-0.27560315
-8.816659
3.111917
-0.042163927
-0.3293235
4.661082
0.08955617
0.027633242
-4.5838704
0.010138563
0.088942766
0.7565971
-6.7425346
0.6391861
-2.342497
0.56778336
-5.499515
0.31242475
0.5850082
1.3553932
0.68946254
-7.2504005
0.040043455
-0.09791031
0.38633424
-0.8387056
0.83510906
-0.5748077
-0.046540685
-0.6969881
-0.49391347
-0.07483732
0.08082554
0.0525836
0.018532079
0.98666406
8.904846
-0.19257507
2.2322772
-9.413397
0.025164101
0.079480335
-0.33979326
-0.7847292
-0.07858287
0.41597912
0.04693247
7.8074713
-7.097302
-0.0730444
-0.04354907
3.9709551
0.52342117
-0.7146712
-2.141671
0.03298391
5.6686907
-0.48728168
-0.03876723
-2.0514998
-0.20959324
0.020785877
-9.700328
0.034582265
-6.863351
0.06471927
8.17899
0.16452733
7.645782
-1.6485556
-0.21902518
6.247585
0.6977004
0.22232789
1.5349864
-0.961306
-0.08158409
-0.00018050197
4.85025
0.0781727
-0.266176
0.06862774
0.9164024
-0.6421205
1.5254139
-5.309881
-0.057997663
-5.7328725
7.7101436
0.04422141
-0.058226805
-0.23622935
-0.61162865
7.2838783
-0.05670318
0.26567525
-0.1161133
-0.043646693
-3.1441793
-5.2141085
0.021865945
0.058294136
-1.3935746
8.630071
-8.510597
-0.7345604
-1.151768
4.321906
0.032243695
0.086215265
-9.830991
-0.020904135
-0.07629902
0.9076998
-0.7590142
-0.83775014
-0.55116814
2.3799489
-8.206743
-4.3412013
-0.07184765
4.208525
-0.54179037
0.6529993
0.008536604
-0.049373582
0.3614387
0.008128054
0.012359723
5.3363004
-0.013760924
-0.8508927
-0.3412555
-0.40087864
-0.65002465
0.05987349
-0.081749626
6.3153563
0.020525493
-2.5162542
0.013002376
-0.0140379565
0.0977954
0.40334228
-0.0105437655
-2.5146663
-3.8984106
-9.501088
-0.1984608
0.029523192
0.6364555
-0.50759315
0.018019414
-8.745849
-0.011674942
-0.7925328
-0.027558042
0.019765258
-2.201941
-0.10047967
-9.162691
7.6632724
0.020549083
0.73666924
4.157287
-0.067098975
0.051885374
-0.060795326
-0.61871487
-0.7979302
0.060063925
-0.8647898
-0.004672257
0.25164428
0.020142522
-0.06328036
0.08285713
-8.008795
-0.11215638
-0.61956733
0.25981203
0.08809863
4.13901
4.295684
4.8689547
4.7363997
0.69683343
0.048497036
0.033113085
-0.069213316
7.7640705
8.273282
-0.5895031
0.08596857
-0.082073905
-3.0931547
0.08842811
0.003471456
-4.9895797
9.04722
-7.7357044
-0.07763731
0.017428814
6.213303
-0.20622256
0.04235103
0.117586836
-0.6120238
-0.5839841
-0.05906521
-0.8091146
2.6982598
-1.3241073
0.5550427
3.4879098
0.08103846
-0.007658988
-1.822915
0.88165873
0.16789363
0.574125
0.05053458
9.938349
-0.2584611
-0.13253681
8.336742
-0.1147699
-0.032068603
-4.9114947
-0.6588449
0.2688636
0.7197925
-8.747986
7.433244
0.36911198
-0.00203295
3.788209
0.079934835
-6.322413
0.03704506
-0.0738714
-5.921367
9.899661
-0.33255553
-3.0262678
-0.07237696
-0.02538571
9.5561905
-0.06821677
0.099088706
0.08700801
-0.9279736
0.09160247
0.17338914
1.2617446
0.49173072
0.96215177
0.0006980376
0.0673572
0.820308
-0.064816654
0.0046564643
-0.44558126
0.10125481
-2.0089755
-0.025719075
-5.3014226
-0.08465043
-5.963347
-0.34488177
-0.9604509
6.24077
9.365448
-0.516918
-9.6761875
-0.49271065
-0.08086725
0.3808253
0.09064752
-0.045638986
5.749008
-0.110625155
0.64224994
0.5705067
0.69957155
-4.1912074
-0.03144692
0.8002681
-0.07884458
4.4519663
0.013480151
-0.09902643
1.9223522
-8.236899
-0.5998256
0.055614185
0.078391396
0.03932891
0.9192093
0.077598214
9.279297
-0.039974023
-0.611338
-0.5434336
-0.0011897604
-0.30541676
0.7448852
-0.014360665
-0.02516875
0.07635988
-0.552626
0.0704943
0.9948493
0.04442805
0.023040153
4.726612
0.05976087
-0.15129866
-8.317938
0.70232356
-0.0034628431
-0.068325676
0.059367634
-2.850062
-0.082790755
0.04701035
-0.011005126
-0.66180974
-0.009728316
8.857064
0.04229203
-0.2745589
-0.021017497
0.5325256
-9.36046
0.6945416
-0.90763766
0.33751255
0.6587563
-0.4580372
0.013415947
4.4644203
0.097065635
0.52211004
-0.7424613
-6.0877304
-0.06913523
0.054361884
3.8096714
0.11088392
-0.76208436
-0.062301707
5.771121
-4.2925925
0.03997114
-0.008744509
-0.5489479
0.08794371
0.017913084
-0.5703963
0.2755844
0.6275501
-6.026862
-0.4124186
-0.034056235
-0.09048042
-0.11441163
0.48912555
-0.051861584
-0.37439057
0.06437052
0.08194424
0.06363622
-4.563192
0.735065
-0.054354675
-4.759618
-0.015184821
-0.882071
-0.7417449
0.06638481
-0.52066386
-0.08686077
7.775231
0.009650707
0.05425991
0.03980537
0.21223831
-0.5604473
-7.6067104
-1.6022785
-0.033339128
-0.9306847
-0.03825734
0.0048801377
-0.6661906
8.464919
-0.058375664
1.3859285
-0.32783028
0.06804584
-3.9604454
-0.52721447
-0.0056296634
-8.76476
-0.75681037
-8.205211
-0.21523237
-0.022738079
0.6368344
-0.8876623
6.712002
-8.981315
2.4913225
0.9067837
0.17294092
0.54273725
-0.029351426
0.055148665
-0.025547132
-4.383816
-0.052713774
0.45982248
-0.31618533
0.7644367
-0.50114477
-0.61242396
-0.9846174
-0.06458532
-2.5247304
4.4317064
0.06522541
3.1643608
8.32904
-0.6662267
0.048101764
-6.6922336
0.07364431
0.6736764
0.1582779
0.007548191
0.68118787
-0.06851887
0.074281245
2.1267722
0.05683433
0.06681717
-0.91766196
-0.1744394
0.9670123
-0.91392684
6.7302003
-0.10957274
-0.22222443
0.36160442
0.011962217
0.033048555
-0.01132348
0.8075252
-0.0039758333
-7.577212
0.84398395
-0.35698873
-0.8878136
-9.118486
1.38659
0.7679255
0.30116364
9.0167265
0.059941504
-0.7845307
0.03624239
-8.1045685
9.158512
1.5939993
-0.5299952
-6.31846
-0.018372167
-0.73529863
6.095905
9.4844885
-0.5382904
-0.022360219
-0.766152
-9.475011
0.77831507
0.04337771
3.5882897
-6.224119
-0.9849748
-0.26182884
-0.89806765
-0.21726844
1.930817
3.9680173
0.25251985
-0.013223342
0.008503051
5.4112267
7.443799
0.08209814
-0.027148115
-0.027028516
-0.5693198
0.006133965
-1.8196057
0.014485813
-0.055556737
6.307236
0.04854043
-9.58815
0.09533296
0.5849385
0.07275241
-0.057704084
-4.4219832
6.744769
7.0998406
0.15169099
-6.858336
-2.891935
-6.607731
-0.008509056
-0.22364366
0.28854576
0.023094248
-0.6362742
0.061550427
3.0215886
-0.002492356
-0.00994507
7.4537024
-0.05787607
4.435751
-0.03030554
-0.022637445
9.152592
3.4828448
6.3842115
-0.004349211
0.75684595
-0.9334663
-0.55977577
0.733509
-7.4095182
-0.8543363
-1.017886
0.05021576
0.75332075
-0.061150525
-0.013078854
0.019707277
0.3144418
6.409111
-0.6216996
-0.11852836
3.9979458
0.69143844
0.8436217
0.13119876
-0.21975854
0.08195806
-5.083247
0.44250348
-0.5521865
-0.013979597
9.209162
2.669093
-0.037909567
-0.6426176
-0.6605462
-0.9247692
-0.29912707
-0.8821151
9.537394
-5.8663683
-0.1828245
-4.0264072
-0.15284885
-0.5219905
0.4781235
0.27576867
5.1883297
0.009826655
0.15866183
1.9068542
-0.07181674
9.690673
0.059813682
-4.233642
-0.91734636
-0.051209804
3.682069
0.20267296
1.7605109
-0.9696885
0.07324121
1.6607674
-2.2121117
-0.034289524
-2.2996716
0.19027887
-0.60280216
0.08335727
0.858577
-0.50319386
-0.045984857
-0.22064503
0.83565354
-4.66773
-0.038960688
-0.02747924
9.399125
-0.026691046
9.273261
0.08804957
0.5259471
0.0047563314
-0.68676656
-8.542718
-4.12708
2.5647824
2.6625082
0.02462728
-0.6237449
0.06680596
-0.06122962
-0.29288533
0.06967925
-3.0002813
-0.20101598
-0.21082829
0.77481663
-0.17973338
0.8574071
0.4678674
-1.1138394
0.9033666
-8.422763
0.61626184
0.043718826
0.21886785
-8.071092
-2.6514804
-9.157639
-6.8411126
0.59417677
0.025761008
-5.0950713
-0.087737136
-7.081465
-7.3482885
-0.79519963
-2.7462018
0.082216635
-0.7989052
0.8460275
-0.044285677
-0.7417568
7.6087737
0.019342177
0.82237804
-0.039879587
-3.8026402
0.31155282
7.397926
-1.2306887
-0.007807552
-1.1899272
-9.528181
-0.07906434
-0.030354371
-3.0236256
0.09611566
-0.43775126
-0.028697303
-1.3829336
-0.04441976
0.91553366
9.174036
9.499594
3.4262855
1.57238
-0.06973833
8.808258
-4.8861365
3.9898453
-0.9272075
0.7124677
7.9834433
-1.0424032
-0.03645706
-0.9360609
0.05715547
2.9849896
-0.021838844
5.452154
0.7975691
0.077945806
0.07223975
-0.92795795
-0.05890328
0.9158381
-0.38718683
-0.2768975
5.4422083
-4.2962217
-0.6544828
-0.8293369
-0.9491074
8.814663
1.0906838
0.6833714
0.013760888
0.57074744
-0.043784443
-0.64032143
-6.1694636
-0.047020923
-0.0060030366
0.019946922
0.03685921
-0.68776745
-0.06757585
-0.05596773
-1.0982615
-8.248722
-4.5178113
-0.009044362
-0.91069406
0.058105785
-0.023075933
4.2138
0.9872754
-0.8459587
0.47887436
-0.037345905
0.0853936
-6.45151
-0.074099176
0.64399385
-5.7900915
0.25358266
-0.099677056
0.03587687
0.09874232
9.335857
-0.4023798
0.09286521
0.09417953
-1.2884828
-8.19352
0.8247115
-0.09157178
0.08036086
-0.63266236
-0.49545804
-0.057019975
0.9206373
0.012627377
2.8721323
0.0050190687
-0.8317793
5.8408823
0.39743832
-0.07030351
4.81988
-2.1922524
0.72395766
-6.2351575
0.53907025
-4.070303
8.5496235
-2.3360016
0.5741761
0.51591223
-4.130497
0.46478626
-2.8252213
-0.051735964
-0.81619495
-0.086634226
-0.5461876
-3.3114007
-0.06639062
-6.235692
-3.6198056
-7.030738
-2.5107956
0.144253
1.469231
-0.003569592
0.8641155
4.9465184
-0.40142015
-8.298261
-1.453762
-4.2697864
0.054059885
-0.08747408
-0.03079316
1.5925761
0.057520386
5.3216233
-0.053872757
-0.0875163
6.9377813
-0.058023833
0.07459182
6.2344065
0.8862555
-3.2305794
0.04590129
0.44105354
0.06011014
-0.09428274
-0.00045065576
-0.07629723
-0.5498795
-2.6601791
-0.2316712
-0.09811888
0.89348555
0.080330156
-0.024790414
-7.238911
-0.051360182
5.4276934
0.32742637
1.3645403
1.9239779
2.1178296
0.76403534
0.6562502
-0.882913
3.3083076
-0.7473449
-1.6746341
-8.553429
-0.76515496
0.6516984
7.125861
0.85646325
0.026524214
0.05444957
8.371971
-0.08114454
-9.620019
-4.3656034
0.68855673
-0.074383356
-0.050306328
0.04933573
0.7816808
-0.771121
-0.03842034
0.7041321
0.52546734
-0.6437301
9.195527
0.8336703
-0.8222478
-0.70297796
0.024766041
0.26658562
0.00080948236
5.6145983
3.0856888
-9.444927
-0.81694967
0.76438373
-0.0960611
-4.8329983
6.864594
-0.051922917
-0.079838246
2.3489726
-3.1388366
0.004172355
0.86464024
-2.2412853
-0.06473172
-0.08605085
0.5361243
-0.023381064
0.01313737
-9.711831
0.73901194
0.7069919
4.982947
-0.023849718
-0.03721996
-2.0137944
-0.025966292
-0.12534015
0.9770489
-4.033887
-7.3172207
3.0165868
0.24378438
0.5963084
-5.328889
-0.014164536
0.06982112
-3.0805655
-0.048967727
0.6067301
0.05476369
-1.6271951
-0.7351834
0.961282
-1.8526175
-7.061707
0.0972724
0.07295982
-0.055948336
-0.50918204
-0.094586134
-0.49707347
6.9291964
-0.04910549
7.9856687
0.07738583
-0.015833937
0.27250585
0.41004518
0.02358816
-2.187791
0.012862024
0.069100484
6.7284403
0.74252033
-0.1096977
0.9304951
-0.022834934
0.00860802
0.11316782
-0.95547026
0.8153031
5.0299473
-0.49857888
0.08004025
0.20998669
-2.5273643
-0.7954101
0.09379384
-0.09299681
0.5894244
0.78187525
-0.20282462
-0.048424058
0.95628375
-8.875679
-0.026963167
-0.9034642
0.66102827
-0.97790384
0.9624193
-0.26086503
2.7589447
0.027808478
-0.7297851
-8.619638
0.09300922
0.27289128
-0.06262814
-9.823194
-0.00065408286
-0.07284384
-0.9548145
-0.45949304
0.063096754
-0.042004492
0.018171223
3.5370502
-0.41611716
7.8354163
-0.04835033
-0.68006444
0.1283409
-1.5148805
2.6492534
-8.555808
0.07191601
-0.46985608
0.75307196
0.6928337
0.8796461
-0.41537154
-0.86925465
0.6121014
-0.0705497
2.7783291
0.05340737
-9.293004
9.218451
-0.08559244
0.011162154
0.6788571
-3.1447086
-0.07581142
-0.061169222
-0.36574873
0.09256595
9.113163
-0.052699853
4.443769
7.278906
-0.046069268
0.052544054
8.0476885
0.516801
0.6709645
-4.318247
0.7702083
0.03603703
-0.031935647
-0.033232663
-0.46055365
-0.35082927
-1.6387784
0.07707844
-3.4180377
0.07284443
-0.0032818955
-2.0506968
-0.005140918
0.5804798
0.3902176
-0.76018995
-0.03617444
-0.33055234
-4.877721
0.5987816
0.06427426
-0.99608004
0.02826104
-0.7549453
0.05981949
0.014947898
-0.097058505
-1.6137313
0.0036457856
-0.07353095
0.022116542
-8.387621
-0.22918597
-0.8320945
0.077018306
0.03249157
-0.0654766
-5.5526447
-0.079438046
-0.5056763
5.5785446
-0.032289367
0.08068756
-0.060697492
-0.115710355
-4.072897
-0.9646782
-4.6597705
-2.2452364
0.23291941
-3.4684567
0.89629084
-0.5390528
-5.2158465
0.07937389
-5.953303
-0.0022161666
-0.02970795
5.225626
-0.66473496
-7.3858905
-0.6315376
-0.22789171
0.04152346
-7.2958345
9.7671585
7.9178534
-6.0198884
0.07923819
1.4686887
0.028032105
0.012215535
4.0408854
-0.8273184
-0.03238521
0.2303509
0.13973744
-0.034005452
-0.5415162
-0.98448926
-0.4762442
-0.3774107
0.047762632
0.66616565
3.113549
-0.05900331
-0.6394086
-0.09880829
0.033854473
-0.8477573
-1.9265805
0.091379754
0.07727111
-0.4010523
7.580342
-0.07871474
-0.07117426
0.42369327
-0.048618812
-0.52081907
-2.9516516
-0.07696295
-0.5333725
-0.32354385
0.09960794
-0.06579387
-0.013613673
-4.8137
-0.360708
2.2416875
0.14828198
0.035738498
0.03984412
-0.020013675
1.9736129
5.007449
0.024088204
-0.38175628
0.03577602
-0.0332167
-0.45159593
0.08751808
-9.834656
0.5145383
0.014419237
-0.018582363
-2.3876302
0.021506209
0.046831593
-0.06573946
0.07996437
-0.06271329
1.9261657
7.285539
0.04240741
0.08383503
0.21134105
0.08727278
0.4615043
0.24976495
-2.154045
-0.98201793
-0.81147426
0.8936212
0.52330804
0.20843206
-0.45713463
0.67965233
-0.7557159
9.244625
-0.10488595
4.18313
6.425465
0.046025645
-2.9406908
5.2628827
0.26163572
0.8703852
0.4282524
-9.948257
0.009423115
-0.08838897
-0.008495278
-6.1372995
-5.126157
0.0711993
0.037141833
-0.6782725
-0.44106618
-0.062031437
-0.9901915
-0.035589732
1.5885793
0.6956147
-0.25606346
3.2441134
-7.2778935
6.0216293
-6.5365815
0.49140984
0.44332355
-9.181887
-0.0728273
-0.73745805
0.09034454
0.08394708
0.007043895
0.09758487
-6.419664
-0.078934915
-1.6791195
0.0768518
-0.33575836
0.008397861
0.7029108
-9.697745
0.106775895
-0.8712128
-0.020087011
0.006206789
-7.515178
-0.42685503
0.16584255
9.560155
-0.013656255
-0.95787686
6.553345
0.44965532
0.07683608
0.09391613
-0.0012626437
-0.05808799
5.536715
-0.018649876
0.013785688
-0.03507064
0.009004764
0.98083836
0.030402314
0.070447326
8.734476
-0.039588086
3.8654552
0.043979757
-0.9248448
0.605072
0.18889616
0.013196645
0.045836434
0.07864852
-0.0063301376
-0.66606015
0.019514667
7.7101746
0.023588175
-5.543538
0.85511124
-0.50899017
4.311796
-0.6058103
-0.8931978
0.059874725
-5.4401116
-0.91725403
0.025356337
0.30406964
-0.7893649
0.30370316
-6.8034105
0.8627469
0.14837225
-7.7217836
-8.927545
-0.4928157
9.399935
-0.44156957
3.2887092
5.4627795
0.012072438
4.5528507
-2.799417
2.836732
-0.010025677
-0.099532045
0.6437271
-0.0021489887
0.7576036
-0.63924426
2.217018
-0.037662692
7.9908843
1.3637171
-0.20610812
8.259462
1.7295922
-0.7181713
0.007023079
-6.8704996
0.3962787
0.07524968
-7.830782
0.09074332
0.037491657
0.068649836
8.037406
0.09880179
-0.01693581
-8.029986
1.8643824
-8.295632
-0.012122042
0.014993828
0.1526258
0.76859504
-0.9171814
-0.9891166
-0.7686515
0.08146847
0.43949434
-3.258439
-0.080395274
-0.511933
-0.020642962
0.7591477
-3.5290947
0.24020441
-0.0999105
-6.1487923
-3.2838855
0.07220855
-0.034405224
2.6070325
-0.02906146
-3.825118
0.026195467
0.07624242
-8.647243
-4.2111793
-0.638739
-0.047861148
0.008572621
0.005941073
-0.05136706
0.5021337
0.7810868
-0.057287104
0.056625493
5.324112
0.8158664
-0.316263
0.6235878
0.78972137
-4.3680673
-5.015318
0.05105989
0.051077615
5.492252
9.904081
-0.11413569
5.1202774
0.04341884
-1.4721414
0.67466116
-0.005101267
0.85566753
0.06370838
-0.07561996
0.060524255
-0.0646246
0.15786588
-0.07372556
-6.7074184
-1.7833415
8.196279
-0.050252363
6.589854
5.2833033
-0.9740247
0.016423658
0.0864952
2.5148833
0.06285744
0.016485928
0.015651986
-1.7596692
-2.0143974
0.09210009
7.363996
-0.3327796
0.07600909
0.5553032
-2.6000595
-4.4445148
0.0929371
-7.3122277
-4.9725637
0.09927826
0.77078587
-8.426286
0.9822391
7.0106297
0.9502969
5.748683
-0.04258113
6.7056317
0.77795756
-0.020165794
0.06759771
0.016054064
-0.32154992
5.7285533
2.306219
-6.373634
-0.27104676
-6.827921
7.9170756
-0.7833976
-0.054108575
-0.024897596
-0.029998496
4.714732
-0.052947126
0.4160989
0.5973531
-0.34653434
8.063704
8.349595
-2.10698
-0.06893487
1.8344232
0.73263764
-3.7556763
8.645844
-0.09519693
0.0165598
7.050369
0.0690474
0.09456678
0.08599581
-0.07330117
-9.874898
0.77860457
-0.07469691
-0.009270838
-0.07547274
-0.75874466
2.2969875
-0.3568618
0.01961382
0.9823823
-0.44699267
0.5121567
-0.4422627
0.07747296
0.068932705
-0.027241277
-0.032963496
7.7034836
-6.8339095
-0.80737215
0.032259617
-0.022769608
-0.025230777
-5.294926
0.045194227
-0.3715103
0.029389793
-0.47061834
1.723977
0.08171949
-0.35781354
-0.69210875
4.135424
-0.05883734
-0.08816994
0.0049913777
-0.8154827
0.8649306
0.6212581
-0.6327339
-0.8599072
0.85936946
3.0028083
5.146007
8.729723
0.69618
1.7217417
-7.8443336
-0.069559
0.3739505
0.016524294
-0.04176452
0.80695564
-5.8289666
-0.2781935
0.0621316
0.44390768
0.015420121
0.32527143
-4.1873875
0.004244861
-0.34788164
0.94587624
-0.013564011
-5.000822
-0.76117766
-0.68697464
0.056623448
-0.008607569
0.19425558
1.4390068
0.04422493
-0.096538916
9.545027
-0.18520889
-0.96374714
-0.066723935
-0.09631267
-4.626311
-1.6586057
-0.8977555
-0.7877269
-0.049981706
-0.24643445
-0.026696408
0.041041832
-0.6192624
8.697597
0.020050447
0.3174907
-0.007881202
0.12097396
-0.010991013
-8.559982
-0.094215386
0.028364869
0.07532576
-0.015930565
-0.043012634
9.178945
0.06290297
5.3007455
-0.06753578
0.04402365
-0.096635796
-0.021864666
6.1672544
6.325134
-0.034855388
5.5103135
-0.93630666
0.071116
0.7008279
0.04527613
0.5508952
0.59022176
0.042921547
0.498292
0.1484849
0.068362124
0.210036
0.05840056
-0.09325204
-0.95689803
0.02070022
-0.030351441
0.017445391
9.105261
8.633971
-0.5209035
0.5520671
-6.1079197
0.0964578
-0.08691268
-0.5776816
0.13359343
0.024627637
0.38195795
0.02805545
0.64496
0.05138779
5.128544
0.58574367
2.3593185
0.03575936
5.0785556
-0.08904933
-9.747368
9.570204
-0.45666137
-0.050984528
-5.592828
0.08593481
-0.947221
-0.092343844
0.7362238
0.08146591
-0.6885821
-2.0739055
6.327311
0.06821629
8.432863
-0.27752113
-9.379837
6.684305
-3.3608932
-6.895372
-2.2867806
0.12339746
-0.023495039
-7.4815035
0.043260828
-0.019209921
-0.561248
1.3436162
-6.4346585
0.1600084
-0.6529376
0.04364485
0.5887401
0.557239
-0.04895385
-0.061209038
0.33594456
-7.183773
0.7431264
0.07669368
0.8943104
-6.1812725
0.053340793
-0.098727554
0.8264366
-0.81651133
-0.391081
-0.1946373
-9.279174
0.43279225
-0.07012175
-0.83710337
0.007404222
0.024494093
-9.686087
-0.49314797
-0.969857
2.65414
-0.0456206
0.021234531
3.5099456
5.5270553
0.85961926
-0.07299786
0.50657547
0.53346115
-9.220477
-0.9442892
-3.659425
9.117549
0.37444365
0.41520485
-0.6676397
-0.023872508
7.9836535
9.400703
4.2827744
-0.8690833
0.16221486
4.8323736
-0.39054865
-0.27834865
9.391662
-0.07654695
-0.63732934
5.0501056
-0.4122344
0.5469041
-8.512503
0.08260508
0.09563062
-1.7419327
0.046281323
-0.095946565
0.0424262
-0.6890144
0.6119196
-7.8109326
-9.152587
-6.279195
-9.932772
0.08314678
-0.3943698
-0.48090726
0.01496244
-0.08563863
0.08853798
5.9960876
6.1479416
0.004732052
8.304385
-0.09113428
-2.3160868
8.040735
7.431048
0.17706116
-0.9370605
-3.9723058
-0.027159028
0.0033737195
-0.005338056
-0.32262656
-0.08408834
-0.2197442
-0.077794574
0.008562529
0.8749272
-0.2662709
-0.045607585
6.2651935
6.2966065
0.8807333
0.087561846
0.8890459
-5.036943
-0.7464682
0.64719474
-0.017784365
0.031675287
5.7587194
-0.07136422
-0.06377828
0.28912643
-0.41834208
-0.48849624
-0.66741353
0.69125545
0.44093186
0.5512295
0.8931987
-0.07498513
-6.310744
-3.1676228
-0.0036445057
5.1486926
0.72975695
-0.37715164
0.013283648
-7.972137
0.10181299
0.47313362
-2.9479663
0.94670296
-0.037969697
0.043434903
-0.6629988
-0.17295371
8.141541
-0.0960863
-0.09952465
0.014385602
3.0857391
0.8670343
-7.8165827
9.80701
-1.5796561
6.443573
0.060762264
0.040321216
-0.047439147
0.059811488
-0.091345
-0.7259273
0.03342838
0.313952
0.07138804
-0.019120129
-0.06548258
-0.22737136
-0.007869865
-8.137662
0.42425707
-0.0755221
4.838983
0.021789422
8.693152
3.9537218
-0.04943135
0.54328334
7.795736
5.3865986
0.44834322
-0.022107627
-0.070120685
0.08740387
0.001965065
0.011595452
-0.35519466
-4.1113772
0.19679998
-7.0311227
0.067673184
5.0095634
0.99681145
0.85872257
6.657827
-4.9880505
0.02002387
-1.4675438
-0.007949855
0.09547407
0.8594976
-0.008629633
-8.193931
-3.640669
-3.4512973
0.06262905
-0.52191466
-0.03382222
0.7773249
1.3102088
8.540173
0.050509196
0.83391005
6.5503936
-0.06868431
3.6891809
-0.23086964
-9.358542
-0.07108405
-9.762531
0.013733656
-7.4551325
1.8258693
0.8102034
0.0742544
-7.586097
0.031771168
5.6492667
6.188283
0.45420167
-4.9714165
5.5860705
0.08361627
0.09248906
0.023028336
-0.04149841
-0.006724843
0.067754775
0.863501
8.782024
-0.88704306
-0.07205143
-0.010595228
0.054411005
0.38749337
-0.07430174
-0.045258574
-2.3177698
0.39461428
6.408232
0.9699212
0.09477826
-8.613964
0.07556256
-0.6217087
0.0997095
-0.50340927
-0.091634504
0.091574095
-0.04816104
-6.3843293
3.643517
-0.6255637
0.064947285
0.21664968
0.6382106
-0.50416166
-0.15242228
0.04384774
-7.8844833
8.977731
-0.029926518
0.097435504
0.020060267
0.86847377
-0.5322184
-0.0060561374
0.092760205
-0.083898604
0.05649579
0.49171558
5.306664
-6.4533677
-3.639086
3.25443
0.070123985
-0.9897917
-0.23888727
-0.09872676
-0.014349089
0.9498087
-0.08003113
9.989882
0.023458982
-4.066305
0.031742442
0.432931
0.8977748
0.04047825
-0.9467661
0.030148024
0.029111255
0.084500566
7.6696215
0.6575658
4.5478897
3.6956978
0.94316405
0.22260788
7.5577364
7.6437593
6.923243
0.05900896
-0.085658796
-0.5018056
1.3906149
9.5512495
7.3376007
5.4019637
7.9397097
0.35756254
-0.016760008
-4.676408
-0.048827283
0.036978353
0.06550576
0.0044875965
-5.345323
0.66375715
0.28347287
0.5086605
5.9414997
-0.0991804
-0.054676477
-0.028065005
0.2043063
-0.06180444
0.0809066
0.040973548
9.264595
0.061206244
-0.85652965
-9.278431
-7.9916897
0.0936327
-0.42825946
-0.0779507
7.558758
0.29316637
-0.17327325
-6.7941384
0.18912676
8.665987
0.082457446
-5.0045433
0.16607548
0.019540805
-0.30945832
-0.0185291
-0.5975179
-8.197513
0.5551767
-6.030103
-0.63609284
0.091042586
0.54963285
-0.07633775
0.062963955
7.2440047
-2.2452707
0.062735304
-0.07039266
0.8234546
-0.08229415
0.024731979
-0.6200551
0.43892387
-0.006430015
6.178682
-0.06332542
0.95379376
-0.05453912
-0.08963621
-3.274467
-0.041734863
0.18665312
0.011044632
-0.007870119
-0.34793782
-0.031687506
8.489518
-0.9649434
-0.079013914
-0.7038099
0.4027511
-0.35532746
0.5075959
-0.03278842
-0.046527274
0.09748987
0.083166316
9.682507
0.047190953
-0.06265379
-0.6095952
0.08844162
0.6083758
8.709549
-0.54670185
-0.0029405975
0.06512406
0.96609366
0.4466786
0.18621793
-0.09779631
3.9010658
-0.8360286
-7.8483243
6.3418946
-0.07307219
0.51700896
0.029219726
-0.22801942
-0.23344363
0.9716381
-0.27442524
-0.3345291
0.28665298
-6.261376
0.5373437
-5.338145
0.17199706
-0.00881649
-0.008642985
-0.0024769725
-0.03616544
1.8933034
2.6946218
0.45530117
-0.94113696
7.255223
5.780809
0.055886295
0.89721346
8.40493
-0.56688714
-0.038678654
-0.50320166
-0.07538171
-0.30518958
-0.19163792
-0.009438858
0.09079101
1.8363497
0.054129023
-2.1886773
-0.04240829
-0.82879835
-9.095244
-2.3156018
0.089504085
-0.05422222
2.1955762
-7.710155
0.0037096136
-0.020783264
0.067207806
2.8877451
-0.23337278
0.014861825
0.071423754
-0.0991437
-0.107746825
-8.184692
-0.020495294
-3.9528697
-0.8098915
-0.31506902
3.647274
2.8320217
-0.052888475
-0.31552923
0.05939718
7.397463
0.05757355
-0.9754991
0.24830006
6.195347
-0.18899454
0.76389396
0.08054814
0.074455686
0.005898158
-6.074842
-0.0034268838
0.003176723
-0.0662059
2.2737477
-0.7165473
6.4843707
-0.04844286
2.2312667
9.358967
0.0058043934
8.062441
-0.035331424
-0.08675821
-0.07274813
0.30020857
0.0788969
6.5716267
2.8024974
-0.032764368
0.005482059
0.9227989
0.0377772
0.0065378444
-0.09261973
0.16177578
3.0631838
-0.94602925
0.02716428
0.40881938
-0.031579994
-0.93132627
0.076840624
6.8273163
0.44715974
3.818736
0.3896229
-1.7686148
0.23685582
8.138357
9.470155
0.6744707
-1.2748497
7.433355
-0.37946764
-0.70376366
-0.055365827
0.10229066
0.0022777533
1.3365259
-0.03677797
-0.030485034
-0.104425244
4.4692435
9.748435
-5.7457175
5.3782234
7.022827
0.057136938
6.4317584
-2.0564132
5.577253
0.029515512
-0.022399927
-9.759132
8.317819
0.023079405
0.13815436
0.6532633
-1.6220218
-0.028690312
0.8092835
-0.92212754
-0.24196213
-0.027162883
-0.42291906
0.01188995
0.08050652
-0.03637767
-0.024532916
9.428572
-0.81386083
1.8179768
-0.5808367
0.099992745
-3.2433245
8.984978
1.7131534
-0.7127821
-7.405983
-0.048144378
-0.831515
-0.081162065
-8.816791
-0.90200484
-0.2721451
-3.116349
4.9049177
0.060552787
-4.2688017
-0.6966292
-1.6068784
-4.1745453
-0.57635653
0.34733996
-1.7619805
6.7547536
-5.842472
-0.080331646
0.07375695
-0.09560611
-3.6912167
7.1769342
-5.991907
4.5608406
-0.03614475
-0.54961395
-6.5759826
-6.8838363
0.50246614
0.02142458
0.17975543
-5.65154
-0.98146456
0.08434422
0.2522115
-0.408015
-5.600789
4.305501
7.669571
-5.0859776
-0.0059355027
0.05483901
0.6116605
8.343392
-0.07079283
0.24659988
-0.4973374
0.22145852
-0.85502666
-0.08731227
2.779413
4.904254
0.9562158
4.0419736
3.6304967
-0.033579774
0.099395275
-0.016524993
0.68548536
-0.85010844
0.2008109
-0.91455936
-0.023230711
0.06835676
0.08723773
0.033045698
-0.96331877
-0.29855192
-0.47262207
5.5789385
-0.19302006
-0.050071403
-0.22401036
0.0754274
0.018722042
-0.097734384
-0.06386939
0.028089946
-0.016813457
-0.26135892
0.120119296
-9.375331
-1.0383646
-0.12641355
-0.9605468
-2.5672393
-0.10228466
0.07993878
-4.4081974
0.050637417
0.07674195
-0.081457004
-0.018070865
-5.6776266
-6.730283
-0.013580945
-1.0661854
-6.470014
-7.830801
-0.8683974
-3.894608
-0.90120703
-0.21698764
-0.7719375
0.7970777
-0.683484
-0.57408124
0.0274036
-3.2032318
3.7519262
-0.07008623
0.0056010485
5.492987
-0.9981724
-0.8427419
0.09888335
8.112907
-8.405852
-3.0914032
-0.03540204
0.20817088
-5.3960485
-0.24292155
0.061588578
-0.07577577
0.0013384111
0.73668706
0.067371294
-0.105587564
7.1445513
1.6559298
0.13695799
-3.429616
-0.09132356
-0.0043026004
-9.478501
4.657424
-0.027797217
-0.06156196
-3.838361
3.927174
-0.06563412
-7.024199
-6.373036
7.3654704
0.6087164
-0.26457974
0.42644957
4.877869
-0.042534318
0.21360317
-0.05819762
-0.043323517
4.326214
4.330426
0.018734876
-0.031035334
2.1243546
-0.28198737
0.4741733
0.0073957467
0.006870357
0.52853245
-7.741147
3.9318151
0.041608203
-0.86689615
0.36603218
-0.5846436
-0.005697521
4.9373846
0.09092676
-0.041299984
-0.5799473
0.8325764
0.05034606
0.06483442
3.1457963
0.6512955
-0.46374798
-6.119442
5.1800237
0.07201288
-8.113929
0.035410725
-0.0315638
-0.040342264
0.76715684
8.451669
-0.3648398
-0.06348526
-0.004481062
-0.0017860044
0.027849672
-0.021393863
-0.18795569
-0.21526572
-8.702378
0.0381246
0.5176988
-0.6514679
0.34196517
0.21147011
-0.9925939
0.068032175
-0.035770193
0.27135926
9.694035
-0.03446477
-0.05483112
-0.027396621
7.851892
-0.07937456
-0.09570469
-0.3370226
5.35779
-0.12181315
0.4260115
-3.549383
-0.20080179
0.06925371
0.29650328
-0.5638536
-0.8191212
0.14639343
-0.08035928
-0.9894726
-5.973432
-0.060090512
-9.881709
-0.7370304
-0.049137708
0.0031525677
-4.151357
4.9646997
-2.1073372
-0.024944363
0.02212745
0.026037784
-8.4493
-7.784183
-4.760026
8.547724
-5.196836
0.5636009
-0.019689603
0.08131502
0.027467094
2.7951725
-0.22279076
0.21602285
-1.3493654
0.48864862
-0.16586912
0.05139605
0.8314217
0.61940885
-0.20252313
0.764679
0.0740786
-0.018807115
-0.023152653
8.165222
-0.053708967
-0.5211311
0.94726014
0.6845737
5.8732405
-0.12255728
2.3033786
-7.1117587
-0.18610765
0.44033742
0.099191934
0.17809992
-2.3159523
0.81389433
0.6341062
-0.0892953
0.11947679
0.069430694
-0.015797915
-0.36530337
0.010750632
1.4939716
6.6222773
-0.63857704
-0.2567129
-0.73899597
0.016428657
-0.0117029715
0.9312662
0.7823513
2.7173414
-0.04293946
0.07805325
-0.08873034
-3.7597778
