0.064895734
0.08131014
-2.5308416
-1.9905928
2.3671846
0.07126512
-0.4984
0.07021741
0.8889964
1.4075598
-0.030675631
0.13651253
-0.042001426
0.5317597
-0.9173666
6.2023673
-0.068171404
-0.06834486
0.04135409
0.12777047
-0.08247214
5.66334
0.024647893
0.07130782
0.09041592
-5.4179077
-0.27395752
-0.09228374
-2.5697773
-3.379918
0.96820366
-0.025382066
0.6381842
-9.191017
-6.002201
0.02207378
-7.265657
0.5001395
-0.23516093
0.038545005
0.05898174
-0.43634507
-9.33153
0.41576895
0.069221
0.75910294
0.61605495
0.05601435
-0.28818002
-3.3865125
0.61805236
0.74612784
0.093733184
4.1833873
0.7792175
-0.058164455
0.08115212
-2.195112
-0.069415756
0.075923234
0.9299955
-0.0057366765
6.9279985
0.1788091
0.036913276
-0.504436
0.53478014
0.018462775
0.010700248
1.7344232
9.721492
0.7323967
-0.04613433
-0.3206075
-0.5939012
0.06354994
0.07160999
0.26620656
-0.019384738
0.97426534
-0.1961841
-0.02114083
0.6468839
-0.69387656
0.06110339
-0.9803094
0.9872162
-2.2178257
0.9552564
7.915957
6.6822476
-3.161019
-9.426234
-0.96012205
0.2563792
0.15099458
0.024059117
-0.043832935
0.08067955
-5.745955
-0.31941116
3.380853
-4.6107073
0.034108885
-0.08839753
0.0055370196
-0.053733103
-0.31982622
0.36792383
0.056612022
-0.08841402
7.1683517
-0.63734466
-0.03456264
0.82899725
-0.07888221
0.031459823
6.7401876
-4.7960234
-3.3346493
-0.8337833
0.09656236
-0.010914845
-0.04788092
-0.44929948
4.4739833
0.028774012
-0.80384356
0.051408913
0.65071696
-0.0706261
-8.986106
-0.06910593
-1.8450302
-0.026524937
0.59401083
-0.46174353
0.08039909
0.0079666125
0.13635622
-0.12998582
0.076105095
-0.055833813
0.17503306
-0.5390868
-0.0062848846
-0.10936564
-0.9569772
2.5735486
0.76219
0.03491837
3.969152
0.08966172
0.03158074
-0.08610996
0.08449925
9.980423
-0.049946204
-0.71866995
-0.05851109
0.057021134
-0.08489373
-0.07888255
0.23082282
0.4529205
-8.488936
-0.02697259
-0.5036143
7.116501
-6.0441384
0.05882283
-0.53705984
-6.7634153
-0.28898808
0.60545874
-0.030603377
-0.1496161
-5.9969664
-0.5094538
0.65771425
0.048103422
-3.4687498
0.3507135
0.5257964
6.5871916
-0.024625825
-7.553512
-2.2555826
0.08788821
-7.641672
-0.09639292
-0.048586234
0.75815016
0.9434013
-5.3991013
-4.454452
0.75796723
0.47640213
0.12231376
-0.44116056
-8.742941
0.0010675848
8.029071
-4.303572
-0.93766403
-0.65913016
-0.046401612
0.9620342
7.341652
-0.07243254
0.45946112
0.54852396
0.04986916
1.7501507
-1.2339729
-6.142634
-6.011849
7.1408534
6.5263844
6.0115232
-5.794193
-0.7061161
-0.52069753
4.8023486
-0.27454576
-0.6129575
-0.5085691
0.59342605
-0.06865607
-0.04651801
-0.4276887
0.9830845
-0.40947676
0.12174743
-0.0498683
0.093025945
3.4490502
1.367903
-0.047135085
-0.89974535
0.30254057
-0.7615266
0.034585755
0.08769497
-0.081470415
-0.95936817
-8.280948
1.067577
-3.836923
-1.0305666
-0.095247716
0.047066536
0.26156446
-0.02934345
0.5928016
-8.16513
-2.0664396
-0.80727035
0.81815916
-0.4514177
-0.08338062
-5.1141124
-8.979784
0.025317444
-0.27639583
-0.07073609
-0.045891564
0.08653893
6.473313
0.07673124
-0.09030637
-0.5232532
-9.735646
0.05581252
-6.329721
0.055907916
0.40502173
0.0061539006
-0.8830605
-0.02875122
8.443372
-3.5610669
-0.024415713
0.033793785
-0.41440496
-7.016312
-1.4640931
-0.8977993
6.07579
-0.5187254
0.9031415
-0.07027669
0.045489427
0.26077598
-5.896051
-0.041649576
3.3015718
0.042060107
-1.5053359
0.07042075
0.03256454
7.73926
2.0140378
-0.08103944
-6.8042607
-9.07081
0.08395008
-0.08065205
6.6723294
-0.09124277
0.6367812
0.36509287
0.0016108191
-2.268336
-0.5366412
3.2624702
-0.08777347
-0.964567
5.164506
0.7280198
7.8386045
0.4127934
0.023789227
-0.66665804
0.061552927
0.65960336
-0.87873715
3.7316484
-6.679504
6.7662597
0.022633795
-0.07375953
0.38816655
-0.9772107
3.534169
-0.39027852
0.008581988
0.63231647
-0.9948484
-7.0893574
0.33639914
0.05342769
0.64704037
-0.0058825393
-0.070252955
0.09357815
0.42557445
-6.0392704
0.14298025
-0.7181201
0.029463874
8.059218
0.016903948
0.07357967
0.06252817
0.91376173
-0.038005695
-0.014480676
0.45678154
-0.5600072
0.7563666
0.3547217
-0.38354716
0.009709623
-0.05049721
-0.67912024
0.08611879
-0.93682635
0.03828131
-0.85634923
-1.1597878
-0.19882436
-6.79046
0.34343493
-5.037753
4.2293177
3.711862
-6.0010962
0.06387434
-0.37915382
3.4200091
-1.8678149
0.08763149
-0.0288743
0.05923969
-3.3568943
0.0035509772
0.6930533
-0.4234184
0.96922934
-4.596141
-0.07670924
6.9370813
0.75459385
-0.94973785
-0.0817968
-0.59530663
0.71132666
-0.06099553
-0.6206645
-0.77283204
-0.12742476
0.04127411
-1.187554
-6.029573
-5.0935535
1.814623
0.8905485
7.512942
-0.01074887
8.425867
-0.91615325
-1.937651
-0.9131866
0.014329065
-0.025701659
-0.13590318
1.2778099
-4.9923954
0.02358011
-0.011519052
5.758723
-0.006475301
-0.2605826
-0.042855173
-0.06790136
-0.051814232
-0.004311326
-3.969533
-0.63307875
-0.07789807
0.4030495
-9.4758625
0.08196291
-0.98794466
0.08304989
0.5608043
-0.05072045
0.05698917
-0.8155767
0.16219977
0.5859264
-0.41053247
9.952073
-0.12547134
-0.8974401
-0.83917916
0.97277796
-1.5500418
4.148059
-0.82370025
0.09317464
-1.3555069
-8.863042
-0.99226564
0.91749775
0.83634216
-4.7630367
-0.8279474
-0.039971665
-4.758939
9.964168
0.59183764
-0.072018385
0.033684798
-4.8129396
-0.9757759
-1.9280595
6.7776113
-0.31789047
-0.06386506
-0.05092308
4.3545303
0.39142156
0.14696413
4.752772
-0.66347355
0.44461325
0.17751494
7.825505
3.0272954
0.688175
5.7982316
0.39058828
0.2321236
-4.7823577
0.49179125
0.027627923
0.006608673
-0.10574402
-0.09810339
1.6469539
3.5953488
0.9994373
0.122848235
9.929547
-0.062058717
0.70927197
-2.2043266
8.474838
0.15267466
0.91245794
2.1462076
-0.0561863
-5.8566155
5.009649
-6.4485874
0.6166606
0.04477458
0.87840265
0.3516794
0.10113868
2.9432724
-2.0173
-0.054386236
4.653575
0.00013932317
0.021826718
-0.025879068
-0.54971194
-0.00986003
0.91228825
2.1326365
9.1559105
-0.021043627
0.37543863
-0.03782131
-0.6019193
-2.1646907
0.08155534
9.255583
0.29461703
0.054270085
-0.86107755
0.62240314
-0.34072036
-8.4104185
0.034360614
-0.01161805
-0.031246236
-0.57095265
-0.37165558
-0.102753855
-0.4666021
0.016664559
6.5809875
-0.06141169
-2.26516
-2.36715
1.2946491
-0.091014914
0.051233444
2.6267211
2.7841191
-0.27171263
-9.130483
3.9199927
0.8094901
4.230056
0.58066255
0.05408213
0.0660313
0.05533538
-0.073457055
5.8622556
5.3217273
-8.54167
0.031332977
0.0821256
0.17751567
0.19705515
-0.8524156
0.023632828
3.2241905
-0.092034094
0.56393355
-9.379051
-1.9205711
-0.08233773
0.081482105
0.021255096
0.28116134
6.893284
1.9845006
-0.058174975
-0.30165055
9.285144
3.434387
0.044643573
-0.039522637
1.8364284
-5.457629
-0.08742588
-0.093319505
0.06731465
-0.067005955
4.0436945
0.62824464
-8.863905
0.29343513
-0.72866714
-0.9853179
0.6159577
-0.87251526
0.8053647
-0.848219
-1.7283437
0.051892035
0.5894288
-0.90831316
0.06365096
2.432887
-0.591393
7.9803114
-0.08343334
-0.91192913
-0.8141989
-0.7012113
5.990544
0.020257395
0.9241948
1.9654123
0.9907694
-0.08862906
0.079015665
0.0739721
-9.081915
0.05975332
0.05051062
1.4430445
1.5415925
-4.728088
0.09238654
0.07801446
-0.6600555
-4.8759727
-0.724106
-0.10190672
-9.891829
-7.356416
0.0013446771
4.18504
-0.18354651
0.081293
-0.02515947
-0.067010425
-0.093544096
1.9917792
0.045587506
-2.9928682
0.93941844
0.0018375793
0.2697262
-0.43962163
0.2634125
0.09210638
-0.5958224
-0.052447617
-0.35654014
0.81540996
0.073998734
0.013460823
-0.88153803
-7.225959
-0.051253524
2.7017584
0.045730714
-0.19339338
-4.8961873
0.0051926067
-0.7761452
-9.110038
1.3304744
0.45524347
-0.09790241
-6.035772
-0.3302672
-0.7271733
0.041647166
-0.1808741
-0.0215535
-0.48708904
-0.023086688
2.397578
0.006006499
-0.07098315
0.43843412
-0.062948115
-0.11828903
0.284908
0.047601037
0.51522356
-0.03822629
0.07643402
-0.008954605
0.30663863
0.32225347
5.430002
0.028967006
7.8184724
-7.531038
-0.8566484
-0.3012731
-7.3743668
0.016264133
-0.046179056
-0.09065889
-0.95740306
0.81348735
0.9015035
0.6592675
-0.010408038
-0.09171465
-5.2986226
0.06207716
0.56969756
-9.272702
-0.061688635
9.414292
-0.8695387
-0.03747843
0.5737068
-5.634996
-0.177462
-5.4398284
-1.2684683
-0.010401917
-0.033451937
0.011182996
0.08674938
-0.07804514
-6.195322
-0.66084635
0.2957104
-3.6575522
-1.8803698
-0.42205334
0.41586992
0.025962539
0.26979148
0.00837211
-5.798895
0.2934859
-0.07457047
-0.7197879
-0.8344781
0.0012375879
-6.1054807
-0.8227514
-0.048307825
0.021300586
-6.2709203
1.0054046
-1.6360155
-1.9120775
0.011111853
-0.054362215
0.030039642
-0.16260365
-2.031171
0.92880917
4.922847
2.0834646
-0.2570955
-0.5955842
-2.3468175
-2.6623325
-0.38762096
-5.583762
-0.03892269
0.4442694
-0.05539143
4.4915533
-1.2137318
0.048041813
-7.484704
-1.0811648
0.31986064
0.06882915
-0.0676894
-0.34150746
0.0036571773
0.7186155
-0.0685697
0.07934064
-0.06422668
-0.7823395
-0.76106507
0.40178767
-1.8741786
0.8992182
-0.026927574
-0.054696567
0.04601397
-5.0928993
0.37032205
0.17100611
-4.7906694
-0.017313546
-0.7282979
-0.80800474
-0.013725037
-0.7139383
2.4660926
0.02449123
-0.27255023
-0.8442499
0.7423461
-0.006369128
-5.897187
-0.13394795
-1.5046376
-0.07426007
-9.841979
-0.060288183
-4.9465165
-6.1651473
0.025062118
0.6051063
0.66813433
2.1428027
3.9968264
-0.5128733
0.15158983
6.6494403
0.04857404
0.4423735
1.3125775
0.040903315
-7.7021294
-5.7882123
0.05537863
-2.8214822
0.9385895
8.599749
-0.19386573
-5.3911643
0.81783974
0.65066457
-0.05565736
7.9097247
0.81818897
0.32316193
-7.728928
0.7035545
6.2977743
0.7474234
0.0032047743
0.93160355
7.4128513
-0.041541036
0.75256336
-0.8696911
0.011422145
-0.015682388
0.06203119
0.011287089
3.0260015
-2.4529178
-0.079373136
0.36955073
8.804518
-0.94060177
0.43123755
-5.6160593
-6.732795
0.3921455
5.143421
-0.9744708
0.09811082
-8.984722
0.01219137
-0.3538202
0.94280076
7.68812
6.1412544
-0.098667026
0.685025
0.52147317
0.0661347
-0.016847285
9.984603
0.057199787
-0.21164137
0.071874045
-0.07474327
0.41581303
-0.008907331
-2.8731842
-0.47699744
-0.46210742
0.06777697
4.134277
-0.0014916563
-6.9240885
-7.6748033
-5.6546154
0.06876301
-6.409622
-8.769647
7.203131
-0.8752075
0.41546234
0.086165786
0.056616116
0.8135111
0.66239
-0.66416967
-4.5035515
0.009875917
9.319681
-0.24177857
-0.2782783
0.087459356
4.770471
-0.0077693732
-5.032014
-0.061498065
1.3310992
0.5305424
0.42086837
0.09377948
-0.8006368
0.52299213
-8.483942
-2.8481448
-0.19540758
0.082944214
-0.115957305
0.007374066
0.300682
8.284198
-0.010497647
-0.03491473
0.66246897
-0.09450347
-0.75737214
-0.55559987
0.16672933
0.011635677
-0.06425911
-0.03021468
7.959977
7.973394
-0.38645688
-0.088290684
-1.1499368
-0.080841474
5.4614415
-0.013525555
0.25426894
6.249644
0.612469
-0.8595574
-0.040828224
-0.18776138
0.03061501
0.77319306
0.82149136
2.1374204
0.5710238
5.232006
-0.49822426
0.6734175
0.095690034
-0.06461216
6.697519
-0.31713337
-3.378314
-1.3455303
0.4845026
-0.65819883
-0.716568
0.37143663
0.06158232
0.03128537
-4.779468
1.5786396
0.15478085
-0.017667698
-0.9946249
8.462867
0.088491514
-0.079023
-0.009224866
5.8827176
-9.644983
-3.0338943
-6.0765
0.037044328
-0.00593886
-0.61703736
0.026429536
0.02961126
-0.05584797
-0.03428965
-5.166429
-3.730083
-0.09926166
4.211502
-0.23355202
-0.017533649
2.3299487
0.587873
-2.371347
-8.317412
-9.821144
0.83551
6.9875
-1.0726203
-0.64143556
-6.706667
-0.0008353109
0.013592329
6.9837384
-3.2184258
5.852932
3.4652874
-0.2823939
0.035599362
0.026677374
-8.120958
0.081292644
0.06535113
-0.8230406
-0.039259996
-0.13629505
-0.07155548
-0.07690149
-0.32640684
-0.006571588
-9.1915
0.04487148
0.004089699
0.05531646
0.09059134
0.016014393
7.115262
0.74879706
-3.4803576
-2.758659
-4.2177997
-0.9060821
-0.03443899
0.0009968632
0.30030578
-0.7764053
-6.7558465
-0.9494757
-0.002198014
-0.9318438
-0.889493
0.09014832
-0.0031812303
-3.5136514
-0.02006299
-0.20713192
0.06044183
-0.4166188
-9.842734
0.09245426
0.05598535
0.12800379
0.04211739
-0.306268
1.1594472
0.084123015
0.33675382
-0.13346586
0.67504555
-0.6215407
-0.01608555
-5.718707
-0.09889864
-0.6832106
-0.093638875
0.8867002
0.19594201
0.96387535
-0.012430175
0.056999553
-0.62305695
0.09272513
0.042032607
-0.9488572
-0.0875087
-0.054156873
2.2464993
-0.039506998
-0.15939412
0.013199009
3.3447735
-0.9469602
8.1671505
0.05108851
-0.04981851
-0.30907476
3.1816328
-0.53860253
-5.5005946
0.049610324
0.30127797
0.07533316
0.60783446
-6.8387628
0.000648866
-0.05898492
2.416972
-2.42521
7.894955
-0.009054737
5.271517
0.01262619
-5.6230073
1.117401
0.6078882
-9.256707
0.9112519
0.03217048
5.6638484
-0.020440185
-0.11654649
7.937668
2.6916566
-4.7114625
0.57760376
0.048013963
-0.28832978
-5.552893
-0.08594143
0.043181404
-2.6149225
-0.25123447
0.044400696
-6.6491528
0.06281487
0.3553136
-5.1516666
5.496386
-0.047972295
-0.008717971
0.0876974
-0.048809744
-7.226099
-2.4234965
-1.4606553
-0.037190475
5.2664332
0.026643196
-8.832047
-0.09438412
-4.774829
-0.052411605
-1.8785375
-0.38305822
7.633299
0.027782137
2.4644744
-0.36719066
4.8149953
-0.06762303
-0.7025947
-0.033630352
0.061118484
-0.225926
-6.1272035
-7.622678
-0.6504259
-0.24685444
1.3608794
0.8577445
5.298404
0.9528814
0.054008447
-2.5589297
0.037944056
-0.077251755
-0.017481007
-6.76137
0.885736
0.09948303
-1.5157824
-5.693245
6.2657065
0.650263
0.09420443
0.08759654
7.006811
0.91384715
-0.026268126
0.20336634
0.0978412
2.9937518
7.979567
3.5709908
-0.084268816
-0.57257307
0.19353689
0.28884226
-6.064057
-0.012857861
-0.6845102
-0.65933895
-0.48086733
-0.8390687
-0.031001506
-9.433115
0.056307483
-0.5507726
8.740772
-0.6341776
-0.05664368
0.6965062
0.05597772
2.2587483
0.37666947
0.05443215
-7.4200826
3.7730403
-0.2457801
-0.9599448
-0.06804662
-0.022285078
0.24598199
0.9658662
-0.009477186
-0.07959196
-0.28600535
-0.68652874
-0.015740477
-0.062110506
-0.08027134
0.021250013
3.3511477
0.56309295
0.78864515
-0.5719391
-0.027536102
-0.014176802
0.6076164
6.748224
5.450252
-7.1084275
6.746314
0.3621925
4.034845
0.6183989
1.6671588
6.6568785
0.04701276
0.08137943
-0.25291812
-1.3285402
-0.30261016
0.34567896
0.071707696
0.85969627
-0.0036009937
2.3518496
-7.4770737
-0.28847927
-7.0058694
-0.040713686
-0.02469399
5.369676
-0.023065653
-0.211713
0.058904767
-0.055088345
-0.08908466
0.7058125
-9.817722
-0.687588
-0.0014925906
1.4220533
-0.88086414
-0.38932312
0.0058226977
-0.056718532
0.3668355
-3.0863044
0.02552953
-0.1779671
-0.056094997
-0.9474933
-4.551097
0.025631908
0.9548212
5.4013076
-0.43194368
0.07509682
-0.6268294
-0.04821402
0.20520903
0.0060046148
5.4932075
-0.15976635
-0.021193378
0.031654686
6.279178
0.0615252
2.1818395
-0.90648127
0.9272222
0.04304309
0.4042304
-3.0902658
-4.009459
0.44406158
0.42724553
1.0358369
0.0021519794
0.8571866
0.086628646
-0.84031636
-0.35230514
0.95550764
0.0820087
5.8374276
0.045355167
0.18544786
-0.56984186
-0.034196008
-0.031657662
-0.049232442
-0.7426505
-0.39090392
0.06523558
-8.713122
0.021991745
0.026207475
0.16320634
-0.20153716
0.56719136
2.1052227
-0.016047599
-0.08791217
0.7991743
0.075739205
0.050152585
0.2675437
4.6514344
-6.475715
0.005357392
-0.0056679277
-0.7777195
0.034944605
-0.3018837
-0.96834683
-0.6570432
0.7969069
-0.27484637
-0.01607748
-0.6645146
-0.02730032
-0.055809166
0.9719365
2.671045
-4.7803392
0.09355499
-0.3080892
0.034669552
0.7627165
4.373225
-1.9984031
1.7287834
0.06400509
-0.02268877
0.050809447
0.059616435
-0.46426192
7.3928146
-0.8376585
0.07711203
-0.032654863
-0.027216915
0.06895341
2.0053694
0.011067698
-0.36304897
0.886203
-0.027933942
-0.049316734
0.83300173
-0.8289296
0.0023205224
-0.09982586
-4.0062227
-0.0045240065
0.050204184
-4.562267
-4.6788745
-6.3111424
0.70952857
0.7193419
-0.6377571
0.08928121
0.019402055
-4.0694666
-0.0025921497
-0.8941432
-0.9627334
0.010792925
-6.5687747
0.85019827
-0.07687695
0.65162206
0.9026042
-7.590558
-1.0129428
-0.22175835
-6.70626
0.053145733
0.7886237
0.05648418
-0.020764295
-0.010293109
-0.8818965
-0.36946642
0.90459114
-0.070337705
-0.018500075
-0.6889085
-0.87355566
0.64678365
-9.598931
-0.0016822095
-5.0230527
0.8343216
5.8101854
-4.29135
-6.9010916
-0.023941629
0.8573984
-9.647525
5.5081186
-0.07389722
-0.20436102
-0.54256916
-0.047983132
0.5842758
5.508236
0.0563714
6.6049657
-0.08748905
-3.4100478
0.09707391
0.5290824
0.09753886
0.06991673
0.059481747
0.3981271
-3.2132692
0.9678158
0.39981067
-0.015794318
-0.46482763
6.2031245
-5.7680454
-0.97713965
4.796077
-5.681671
0.020927195
-0.0878704
6.202109
0.099742204
-0.09255039
0.44136077
-0.028900502
3.6758595
-0.98016095
-0.6783741
0.09995021
0.5301746
0.07570802
0.7238113
0.09165717
-0.053154945
0.92276204
-0.42146745
0.23670182
0.46348828
-0.23450574
-0.01908426
-0.32184875
0.0291969
-0.016855445
-0.027543206
0.03210363
-0.073473744
6.1936064
-0.008225478
-0.34877345
-1.6415933
-1.3317041
-0.2515872
-0.88905853
3.6900911
-9.346391
0.055649027
8.444132
-0.05287453
7.829526
2.6760747
-0.07540911
-0.44629827
0.08479213
0.0693798
0.056549255
-0.7473174
0.084059596
-1.8962415
-0.9499597
0.45094758
-0.87428474
-0.0569962
0.6547037
-2.805898
1.9165243
-5.3066545
-8.451693
-8.72469
-4.8063393
0.06833683
-0.009952946
-0.053496394
-0.56517774
-8.030517
0.091912866
6.6967525
-0.7357808
8.775795
7.6234164
0.16510546
0.22415532
-0.054178033
-0.3306933
-0.06058775
-3.2358541
-8.663522
7.3385334
-0.055096913
0.63871026
-0.040190108
0.0125798
-4.590874
-0.026578406
0.08134417
3.4049723
0.9579013
-0.017441852
-0.0815809
0.50828296
0.0072128708
-0.08940025
5.167645
-0.043747857
0.8042588
-0.105041526
-0.061261956
2.9896867
0.034329817
0.07245357
0.018666023
0.44133216
0.45482963
0.3344121
-0.03225021
-0.052305385
-0.09662291
0.043459922
0.8248878
-0.022643097
-0.042226832
0.054281734
-0.051383253
0.20708221
-8.276343
7.2359195
2.1413403
0.0010655923
7.5187817
3.834331
-4.0935836
-0.5798768
-0.77757144
-7.2542634
0.075993575
-0.012133796
-0.63512015
7.0333066
-0.011733631
-0.04711233
-0.026856527
0.08650273
-0.003959421
-0.008130312
-8.574109
-0.07626602
0.024851773
-0.6516453
-2.668787
-3.847037
-0.034222543
-2.6670673
9.503365
5.7671666
8.434706
7.814574
-0.9736058
1.9167715
0.024021324
-0.04055535
-9.851224
-8.904466
1.7518735
-0.09014628
4.3140235
-0.07996147
-7.9612494
-8.560933
4.899788
0.3283451
7.4629483
-0.4636302
0.0018740083
0.41723296
0.89975446
0.07150779
-8.561088
-3.503428
-0.0884742
0.16575503
0.6440517
1.0323699
0.0082055265
0.7625843
0.06930196
9.554067
-0.75224555
0.8057014
-0.92499846
7.21459
-0.1836298
0.906355
-0.72179896
8.625425
-0.4418018
0.09101788
-6.8714137
0.03257462
-9.797396
7.7990212
2.5874002
8.112726
0.584025
-0.20719518
-0.022454184
-0.27979198
-0.62991947
-0.47612014
-0.050196696
-0.07775677
0.562745
-0.098773524
0.042505335
-6.6226826
-0.092569016
-8.114689
-0.001980425
-0.0010937527
-0.018562611
-2.2011487
0.04254407
-9.482941
0.5906556
8.978045
-0.9380215
0.18509263
-4.9039187
-0.7385479
-0.036102697
-0.14873101
0.03323749
-4.488622
-0.37456346
0.9398657
0.9542721
-9.545237
0.028940279
-0.9116034
-0.087846935
0.13351591
-0.83846825
0.16212063
-0.79650414
0.42463225
-6.5576854
-1.7455453
0.0012995541
0.64668494
9.302681
-5.024049
0.00064170355
3.9149175
0.4082992
0.887809
-0.9262686
0.24213976
4.383177
0.8174093
0.037001196
0.21150354
-0.042128015
-0.01916536
6.984202
0.30376807
0.42619377
-0.03811021
-0.8292625
-6.731257
0.055292897
-6.9316688
0.5447901
9.404133
-0.04277248
0.23938516
-0.23146434
0.084463045
-0.5911408
6.0329003
0.7116656
-0.04190149
-0.054221325
-0.9891269
-2.4158916
1.4311062
-0.016222319
0.75870657
0.0108271
6.203708
0.879348
-0.97569853
-0.09823021
0.84585273
0.07478238
0.4630792
0.07893279
-9.363839
0.8430634
-0.0149662895
-0.6716164
-0.8216686
-0.41324413
-0.018499965
0.52047014
-0.6652319
5.1504555
-1.1421798
-0.87179387
8.629151
-7.9595375
-0.19259778
-7.519242
-0.41877636
0.038573828
0.4367267
0.084177285
-0.0980884
-0.08515386
-2.4188702
-0.028090578
-0.02702267
7.744354
0.08713701
6.4751005
0.065227926
-0.16877244
-0.008319827
-2.5431685
0.032160044
0.33536565
8.909958
-4.3146286
-9.1638975
0.9245392
-4.059679
7.4473486
-0.13771245
-0.49071386
0.31849307
-0.084259264
-9.445938
-4.867113
-0.08390302
-3.2035246
-0.08671711
3.079883
-0.14943959
0.21802406
-6.1390324
-0.85191196
0.21689765
-0.09203106
0.03925192
-5.6426425
-0.00028890674
-0.029497845
-0.016931644
0.009125968
0.020567928
0.07813271
0.08813827
0.52890813
0.27043045
-0.034421194
-0.54070747
-8.56098
0.0006865967
0.02533172
-7.0740113
0.48064268
0.6954643
0.4459819
-0.033361986
-0.5896674
-0.58234125
-0.4384901
-0.09673031
8.778683
-1.3873912
-0.08260509
0.27191812
-5.7257648
-0.012188017
0.047944948
0.3308111
-7.328947
-0.74431026
-2.8677783
-6.8309636
-0.0025595229
-6.50561
-0.04056956
0.033656716
0.0554887
-0.05363094
-0.04346814
6.9608455
0.13893168
9.425769
-0.5625638
-0.7053762
-6.4819317
9.767167
-0.37116197
0.019488743
6.904066
-0.91720885
0.051259074
-0.020137878
0.0814334
0.12677135
7.4637403
-0.067212865
-0.024385398
0.119768865
0.0059871534
0.8792641
-0.022300746
-0.010194233
0.87607545
0.64998513
1.8575329
-0.5068363
-0.576317
0.058318716
-0.0806728
-0.0792598
-0.036635067
0.59490144
0.03892924
-9.72518
-0.008546604
0.9286033
-0.65408665
9.3215885
-8.838245
-0.035579808
0.066277705
-0.65363103
-0.45079407
-0.009812004
-0.6012956
-2.7737014
0.9591722
-0.19266212
0.06878706
0.393831
0.21165024
-0.17910406
3.9530435
-7.2973313
0.7990034
0.07891654
8.38589
0.07351419
0.008006928
-4.5211854
-0.96156895
-0.086180374
-0.048210494
-1.3309727
-0.041447308
-7.1672835
-0.092997745
-0.049812254
-0.97922224
3.1282277
0.07437705
-0.22658904
-0.0148013495
0.4770779
4.550787
2.0514078
-0.022662254
0.91812456
-0.9256947
0.010132609
-0.06306622
0.17258275
-0.058132056
-0.0903564
-0.09026806
2.3529718
-0.09956768
-4.4564514
0.02970782
-0.5283101
0.15756494
3.2219512
0.47512788
-0.5819941
-3.9596717
4.1518345
-6.2627993
1.4027144
0.016923605
-0.62839377
0.6307087
1.5377926
-0.24414656
-0.6095189
-7.3579206
1.0983626
8.311715
-0.0342881
0.026322043
-0.8059938
0.09936545
0.0082585085
-7.793732
-0.7261623
0.050344802
-0.5675772
-0.9091939
-7.827533
-0.048429288
0.91650176
0.59603727
0.071312
0.5772894
0.12053219
-0.44477442
-0.04582132
-9.864503
-0.45375547
0.38177562
-0.8555672
0.6432475
-0.08988726
0.028585246
0.7533078
0.089493096
1.2931854
-0.045553047
5.116641
6.0805573
-0.024998434
-0.0721949
-0.52468795
0.07149249
0.007290085
-3.815084
-2.1197824
9.015933
0.46100196
0.8466036
2.6189666
-0.9294843
0.09347117
-5.1582274
0.0154337725
0.027135782
-8.057516
3.5250254
3.3703082
0.36181152
-0.0647015
-0.03833422
0.010728774
0.088707216
-5.104601
8.758961
0.04525963
4.9933295
-3.1900086
-5.0389566
0.3662357
0.059114397
4.8150163
4.113843
-0.09298981
-0.018458936
0.022597339
-3.6211157
2.5007832
0.9076962
0.0052704196
-2.39768
-0.09903732
-0.6472931
-0.6529774
0.03324841
-0.30272913
-0.4768661
0.97278017
-0.0038776076
-6.3377805
0.050490666
0.09876197
-0.5363036
0.7584573
-7.777935
0.0432567
-0.018987184
-0.77741516
-0.06116502
-0.024905562
-0.059219204
-0.047694515
0.098543145
5.4912024
3.627623
-8.422808
5.239529
7.565499
-0.81723845
0.6763121
0.76895857
0.5326066
2.0336561
0.033996154
-0.47517902
0.27063268
0.022842959
0.819441
-0.03866688
-0.02891694
-0.020435603
0.62875044
-0.7607271
-7.2641225
7.360065
0.6120759
-0.08484898
0.8094047
8.200911
0.30446905
-4.5074115
0.9576957
-7.937629
0.019526225
-0.914872
-0.83866686
0.50937515
0.20847844
0.09456644
0.090919316
-0.07436483
-0.72141796
5.5575466
-0.07594848
9.519862
8.981911
-0.05467431
-0.34352043
0.097160116
-0.014942788
-5.591605
-0.095989995
-0.04877022
-6.5889397
-0.7559085
0.07633981
0.032156218
0.01269491
-0.2571129
-0.09955956
-0.06298522
6.7094626
-6.6514997
7.550478
0.07680023
6.0699306
-0.11417161
6.239899
9.513447
-9.903032
0.16617738
-0.16367452
-9.779168
-0.89660925
-9.4102745
0.6240328
-0.72146255
5.4074616
-4.774982
-0.06883929
6.573425
-0.04700721
-6.2678857
0.0355211
-0.20243725
0.5458114
-0.0037497827
0.06940772
-0.487767
-0.08834921
-0.97341084
0.018226722
-0.9896183
0.23737732
0.9221542
-0.791134
0.029487312
-0.02844722
-0.09201355
0.22880258
0.57026964
0.05654483
-0.104706764
0.036457162
0.70595104
8.337495
0.8366348
3.1051943
0.09338779
0.5970679
0.016731864
1.3838968
-5.300126
-7.265925
0.034657776
7.453212
0.525868
0.015539663
-0.74907213
-2.0113335
5.079653
-6.760081
-0.21500179
-0.120768696
-7.155016
-2.5089204
6.3766065
0.2393451
-0.08684082
-0.04404454
4.6854053
-0.19197612
4.7741175
-0.0025967
0.21364863
-0.016006803
2.103807
0.019632634
-2.4873633
-0.074366204
8.82752
0.58789855
-0.9917623
0.0067634094
-0.014190556
-0.13833302
4.541532
-0.9067783
-0.69023144
0.010177047
2.3469796
0.473749
-0.012927619
7.487127
0.0721477
-0.6477521
1.0648816
-0.23585393
0.039087906
0.0007951807
3.6994114
-0.09069599
-0.017713798
-5.2366652
-0.28057957
-0.79635125
-0.17541091
-0.030161977
-0.86082673
-0.086176254
0.05808361
-0.49642625
0.4475921
-0.5953573
-0.058944263
-0.71297634
0.6763072
-0.1811905
-0.0013199918
-0.095109016
-0.041028444
-0.83052313
0.82541096
-6.4408464
7.056127
-7.988097
-0.0012695818
0.062077295
0.04523336
-0.011059925
-6.637502
0.25353634
-0.04430109
-0.7957185
-0.061591193
-0.9594309
-5.192286
0.35436985
2.7205095
4.895937
0.08789149
-8.208429
-3.552315
-4.672309
0.083793625
-0.022369692
0.08966777
0.067599736
-5.1088767
-0.45123744
-0.078531556
-2.3411245
0.07580358
-0.5279453
0.085159354
-0.0932292
4.1565475
0.15405369
-0.18231232
2.995262
-0.014648815
0.13314198
-0.17369685
-1.6073933
-8.567008
-0.08590838
-0.9595708
8.844068
0.3931733
0.07790913
-0.089684926
-0.08014724
0.13437152
-0.018157806
-0.35190162
-0.033001784
-0.0361965
-0.5752313
2.1645305
-0.02029393
3.3358264
-0.059156552
0.56628966
-8.199499
-0.12789507
-0.28904906
-0.07306574
-0.3979522
-0.55786794
-0.9747793
0.05999703
0.022563124
-0.9330564
0.77537066
0.061465364
0.059853453
0.6054518
0.85423344
0.38417083
4.368596
-0.071173705
0.04018413
3.641496
6.3780665
-6.476276
-0.46106094
0.7867179
-0.6376869
0.0065028635
0.07669981
-0.004599266
-0.01147945
0.7715887
0.5215925
5.063176
4.4372807
7.262292
-0.068714775
-2.083433
0.04663178
-4.401593
-0.1902355
0.21700932
0.43137875
-7.495128
0.09211388
0.0015597873
0.08237046
4.9921145
0.009035291
-0.70270866
-0.91009
8.027327
0.0895464
0.028047636
-0.57941353
-0.1899726
0.0042614327
0.74259037
-0.06437509
0.7140546
-0.6457228
0.024389364
-0.85897356
-0.84052074
-5.35402
0.47617403
8.12865
-0.5109751
0.16584006
9.013038
-0.55879617
-0.81974536
2.790641
0.752105
0.27700016
-0.86796826
0.09859701
-0.0563152
0.050290484
0.011447469
0.05187661
-0.032449156
0.39255083
0.5586347
0.016926287
-0.015823111
-0.28838915
-0.9419503
-0.0511833
-7.16859
-0.25948015
0.0036643294
0.8098728
0.014466631
0.013384676
-0.059277024
3.3708363
-6.21611
0.7190506
0.6600737
0.07447541
-0.12180352
0.07135725
-6.986263
0.062040318
-0.81190056
0.8615669
-0.016119035
1.7918742
0.5031836
-0.060081296
-0.105521396
-0.011464852
0.68780077
-0.013581484
1.4225779
-0.012280487
0.07363997
0.93288165
-0.91324073
-0.01064901
-0.01264799
-0.029667227
-3.9482205
0.086358614
-3.086367
-7.1759157
0.01672399
0.18354174
-0.05916225
-0.0015679833
0.53211457
3.4486768
3.1931264
0.282051
0.07046946
0.35229692
-0.032471072
-0.37027293
4.330673
0.55294263
9.507743
-0.23942049
0.05938752
-9.335254
-0.6831636
0.060799006
-0.0071450337
4.4140472
0.78611535
-0.3926965
0.014480471
-0.180772
-0.52628624
0.008380101
-0.5381174
3.858685
0.021089012
-0.65616095
0.89941925
0.20672256
-0.07688816
0.0293165
0.03320181
0.023845779
-0.8935217
6.5542784
0.86009353
0.85940385
-0.4283682
0.063497804
8.437554
0.07076086
0.97485495
-7.716831
-0.78250945
-0.38129494
0.60674477
0.08089118
0.65110207
-6.319755
1.371055
0.09003942
-0.15530379
-9.224488
0.051439177
-0.075034894
2.7255495
4.9177303
-0.06314337
-3.7682495
-0.08597818
0.7072042
-0.07855483
-0.3005025
0.8977571
0.05848604
-0.060597554
8.555105
-0.06589143
1.4503865
8.873878
0.09064222
-0.5999848
-9.353624
0.67955345
0.060029734
-2.7455678
-0.8350223
9.731644
-0.014825588
0.5523407
0.045074742
2.8715768
0.07584332
8.08907
3.5939095
-6.062331
-0.9025172
-0.50965816
0.39271888
6.233671
4.781682
-1.6561519
-5.4681015
-2.841793
0.045282546
0.093244165
0.029941007
-0.013793253
0.024893118
-0.5346343
-0.6702371
8.701633
9.5372095
0.08671653
-0.06281263
0.67314744
2.6867363
0.09479094
0.9089451
0.30538738
0.63068223
-0.01755505
0.38356104
-0.60237825
-0.7871932
0.97663254
-0.042228676
-6.9380403
0.02212359
0.018712329
0.023552233
5.6351705
-5.9546456
0.020879544
9.238023
-3.5454266
0.9713213
-6.333501
0.0029660442
0.6530239
-5.366916
0.30818558
0.061362695
0.03261253
0.107075036
5.134364
-0.059742518
9.516081
2.1306925
5.981829
-0.9761094
0.16107155
-4.8194237
-0.55819637
-0.046709575
0.6152634
0.0646035
-0.06659463
0.012558229
-1.8289932
-5.164249
6.910012
-0.7466016
-0.07562078
0.4513425
0.06722888
0.074977644
1.4126908
-5.175109
6.005335
0.0050144615
0.54964
-0.14498638
0.06338306
0.045157164
0.029590828
2.8554375
0.3498136
0.041993514
8.291776
-0.78915787
8.632251
0.01933182
0.8443694
0.0475641
5.7612576
0.65105414
-0.579105
-0.5992409
-0.0164226
-0.027524358
-0.6158443
0.07386645
0.08932346
0.01153128
-0.08339036
-6.392115
-2.2415168
0.72783697
-4.617229
6.1678033
7.3562765
-0.078122854
-0.062649496
0.031392317
-9.211633
-2.4253824
0.094515674
-2.0773635
-0.07183493
-0.007823918
-1.6843927
-0.027044093
-0.79115325
-0.0318938
-0.09765809
7.1939096
-7.5074873
-3.0126798
-0.06534301
0.6222638
0.9739129
5.444754
0.565268
0.3469697
-0.03070459
0.003990621
8.564773
0.03156267
0.07861235
3.821899
0.008873717
0.05630939
-0.61619264
-0.7374418
0.6016824
0.06420697
-0.053117815
-0.35650218
0.09725454
0.19587241
2.2297406
-0.9058687
0.07505908
0.5354719
0.36000508
0.69753927
-0.093058266
4.6611834
0.14591111
-0.033817507
0.6285828
-0.085135885
0.05789829
0.7338879
-0.16271903
7.1199465
0.03895221
-0.9991476
0.048764728
-0.11979386
-3.4677117
-0.566867
-0.04350815
3.19649
5.3568134
-0.3733175
-0.20455822
0.06171952
-4.6521463
-0.26967865
-3.1027138
4.6569557
3.2379105
-0.04559389
0.0885396
0.7694207
0.085375264
1.6184652
1.8829592
2.3960378
0.96558994
0.14605372
2.466281
-0.060460225
-0.037625436
0.6704596
-0.012864641
-0.024148427
0.035409432
0.06213108
-0.8756861
8.070628
9.664085
-0.6857717
-0.093207784
-4.23483
4.0867863
0.53068566
0.08877341
0.031517535
-6.27039
-0.051857848
8.030793
0.032257076
0.9856241
-0.5157501
-0.030668106
-5.143943
-3.8145044
0.03128797
8.728872
-0.7269408
0.018173788
0.0627461
-8.5740385
0.8380225
0.021917619
-0.18084773
4.974802
-0.9250073
0.44404158
0.015498444
0.5653755
-7.847587
-0.055435557
-1.223503
-0.34980616
-4.140482
-3.9814298
0.041146096
1.820055
0.019002795
-8.664133
7.8912873
0.066149846
8.232736
-0.095021
-0.17768072
0.06685972
0.58154565
0.5622213
0.053834476
0.37423724
-4.8800664
0.041133873
-0.2680904
0.032579705
-0.24598086
2.684576
1.2046537
3.2610726
-0.36955366
-0.17272723
-0.026354121
-2.7508729
-0.29542473
-0.3443702
-5.1951175
7.4069886
-0.8262994
-0.07419185
6.2419367
-0.7559913
-0.3706548
0.30531082
-0.0221909
6.2682548
0.12982784
-9.099959
7.8480997
-3.936596
-7.8627343
-0.7058044
0.007310091
-0.06322849
0.12483036
-1.7227161
-0.3178519
-0.08379487
7.41972
-0.3513989
7.3752694
0.25929326
1.5663928
-0.5632909
-0.07507979
5.023906
-0.053467818
-8.80563
0.011026768
-0.00513643
4.0990353
-0.6605987
0.01397275
-0.043151435
-0.014400977
-0.041754864
-6.7805305
-0.06706433
-0.5787746
5.057908
-0.06464886
-0.008022784
3.2215402
-0.09788453
0.061348427
0.003095116
0.60453326
9.003203
-0.7271214
0.08094443
-3.8711824
0.60600543
-6.181682
-9.305141
-0.049152642
1.6084055
8.713182
7.460231
-0.044486403
-0.046065707
-9.188734
-0.21873152
3.7114296
-1.10578
-0.08289358
-1.7708744
-0.6428474
9.050048
-0.085269876
-0.22723675
0.43826947
0.06450693
0.09583386
8.731213
-9.547544
0.01602676
2.4543734
0.82920694
0.9870805
0.73276126
-0.087526664
-0.029253585
-0.85925007
0.05638353
0.5315568
-0.041941978
7.8825474
3.4423966
-0.39261258
-4.3610797
-0.2661906
-0.7381727
-0.12191424
-0.071277566
1.4187059
0.11891703
-6.3291554
-0.9301594
0.89678943
0.26850244
-0.07827616
-0.40626258
-0.7418117
-0.36553147
-1.2224001
0.04851864
-0.0809562
0.9977679
1.5137794
0.6098226
-0.067358136
-0.7603259
-0.92144537
-0.98033476
4.4189873
-0.65313566
-0.07080765
-0.614175
0.8606186
-0.5177654
0.004129143
-4.798003
4.6458015
9.153591
0.4667078
0.79045427
-0.9877607
-0.05270336
0.061689213
-0.08531672
0.02293625
3.7862544
0.5741916
-5.566137
0.4177535
-0.014150655
0.019009147
0.6266167
-0.08910183
-0.1819195
-0.08530272
-7.293677
0.015285897
8.805171
-0.09584917
0.015602646
-0.09220485
-0.844125
-1.9312894
-1.9276817
3.8763702
3.0989048
0.11656183
0.78455895
0.64036983
-0.008536065
0.7507004
0.036614224
-8.926146
-0.003136554
-0.15758719
6.8118024
0.6101773
-9.247672
-0.096858785
-2.5214827
3.6354291
0.524751
0.06963603
-2.623868
-0.50165933
0.1317752
-0.033427365
-4.263636
1.7021939
-0.06746697
-0.035660267
0.08457431
-0.07226171
5.291357
0.6596183
2.7319875
-2.8774025
4.073487
-0.7139288
0.8086643
3.2376654
-0.043899532
0.45245603
0.978316
0.06358268
5.023343
0.0031058188
0.23824859
0.12442303
-0.0885085
-0.7215206
0.9522741
0.089031376
-0.06540165
-0.045205794
-1.3262515
-0.46819806
-0.025610257
0.77032834
4.434939
-0.009254917
-9.929536
0.46130097
-8.115349
8.45952
2.520532
-0.01658999
-0.21391845
-0.71080244
0.8663906
6.498846
0.40142527
0.20736109
3.6619587
6.7059665
-7.202811
-0.68617105
-1.648384
0.6459685
-8.340311
-4.6761985
-0.034430426
2.2509568
-1.7277528
-0.031515453
0.13675024
0.6497091
0.040284824
0.28717396
-0.021033462
-0.08367025
-0.02971802
-0.021471638
0.018685108
7.994166
-5.0679226
-0.022181362
0.029657325
-0.5123045
6.2557635
0.0016621869
8.074501
0.87975204
0.45487112
0.04927971
7.77059
-0.6462539
0.9343235
-0.021876026
0.7826702
-0.7308709
-0.047691412
-0.024722042
-0.4995848
-7.367762
-0.59237075
-0.1404234
0.044906493
-0.3286928
9.500314
-0.32979226
5.1918836
-0.09724003
-4.5336256
9.987628
0.8896219
0.037591726
-0.37785414
0.68443125
0.030875778
0.0004820644
1.9753568
-7.977005
1.8178483
0.115194276
-0.6732592
-0.019134434
0.2313736
0.24219956
-0.045040492
-2.203818
0.80608135
0.0011382606
0.32761696
0.37526315
4.9047203
-5.7822986
9.030906
-8.22559
0.39389503
-7.660628
0.050403886
5.949484
-4.538567
8.855701
0.33039227
-9.494544
-0.08926764
2.8581169
0.6307967
-0.06615745
6.479705
-0.045608424
-5.7716317
0.09053536
-6.5476675
-0.49492922
0.95380205
4.8338156
3.5261824
-2.5767126
-0.09900079
2.7192678
0.7765246
-5.0341654
5.2898073
0.03206776
-3.0132
1.8705064
7.092034
-3.5567803
2.7027168
8.366828
-0.026945876
0.0485848
0.7432272
0.20981906
0.09880989
-4.778159
-0.91857177
0.06118468
0.8564331
-0.9542391
0.27422893
0.1694363
5.7643104
4.7481923
-4.7770653
0.032384355
0.07237796
-4.577968
-4.419192
-5.986237
0.8206182
0.013317259
-0.01987612
0.35269275
0.035067856
0.0031000176
-0.06522554
-0.70040524
0.4873334
-0.07071646
-0.009772066
9.593391
-0.08559693
0.058251455
0.052403715
-0.72222066
9.252093
-0.9335315
7.2874727
0.03285339
-0.6103546
-0.0979798
0.01521877
-0.015760165
0.6684383
0.036165144
-5.9740386
-0.05643236
-1.7088588
-7.561885
-0.022873152
-0.47936082
0.08069996
-8.32395
-0.25155327
-0.055457283
4.309115
0.3016299
0.98732305
0.16477743
0.9330104
-7.1654153
-3.2668016
0.3756898
0.08652517
0.17495461
-0.6626793
-0.045092966
1.7487868
-3.4428527
0.093905695
-0.032211944
-0.023691086
-0.3697533
0.053549178
-0.048613656
0.57818395
-0.037956595
-0.49010924
0.083179675
-0.92343086
-0.7778616
0.037513882
-0.0018481918
0.07065536
-0.95559615
-0.30401224
8.737893
-4.4856076
-0.035706148
-0.08455459
0.13128671
-0.080347374
-7.4543076
-0.07977954
7.748658
0.09467677
-0.04330554
-0.074456826
0.4339805
-0.07730951
-0.043089014
0.021764483
5.48315
-0.08166402
-1.1376637
-0.2876854
0.0047898674
-0.6023112
9.916444
-8.7342005
-0.062503226
0.073852606
0.9023169
0.0073398426
-0.08948357
0.18285714
4.902711
-3.7152717
-0.08198022
0.469874
-0.07856026
0.06690532
-0.68578726
9.291761
-0.90477926
-2.086107
-0.08922193
0.065428406
0.34582233
0.8240376
0.0120067885
0.7755918
0.25337943
0.03193412
0.058735564
2.9380085
5.646209
0.06921359
9.999648
-0.7703549
-0.098390594
0.577424
0.08284454
0.04665992
0.25031328
3.243696
-2.0200596
0.07493172
0.08239202
0.04211339
0.53331816
-0.08138472
0.03743777
3.8595953
-5.6557302
-8.586057
-0.08284425
-0.07217008
-0.6979014
-0.06785055
-0.05936352
-0.076361746
0.023517832
4.906246
0.19533457
-8.591412
0.004710591
-0.8016813
-8.118766
5.6342196
-0.4645527
-0.22976492
0.014281917
0.092266954
0.09909546
0.031651538
-0.030114273
0.29259127
-0.06645962
-4.3081837
-0.022844212
0.63489026
-0.8853463
0.45249084
3.1858096
2.828571
-0.4603598
-0.067730494
-0.031994656
-2.3653162
0.041653942
0.18010491
0.9985251
0.09194804
1.0886331
0.4263613
0.4029488
0.99078995
-0.028577661
0.19785455
0.013148347
-0.23801556
-0.011588443
7.496197
5.218449
-0.3357589
-0.3475902
0.15478063
2.5445805
0.026044508
-2.803809
0.07836759
-2.7848651
0.33439967
0.11990571
-0.7438693
0.058975685
0.094306946
0.06974623
-0.056931246
-1.1804934
7.2259674
-8.490168
0.3324377
5.6190667
2.8852348
0.21081267
0.01747676
0.82314193
-9.241608
0.22474179
-7.1458335
-0.12172779
-0.65960836
-0.00345683
-0.07894095
0.89094406
0.08163244
-0.8690925
-0.09851404
0.016222198
-0.1251093
8.734232
-0.726481
-0.081273325
-7.5631404
0.06645832
8.201946
0.37385303
-0.02488414
0.04466383
0.022787882
0.21097367
0.063575976
-0.07499521
-0.19441831
9.623058e-05
-5.1084843
0.06337909
-0.13311422
-0.06774456
0.34359476
-5.9841356
7.3364663
0.077822834
-0.512121
-0.985347
-0.58227175
-0.044885717
0.058971524
-5.672453
-0.094275825
0.08279172
-4.4498196
0.05149391
-0.17536423
9.735003
-1.953405
-2.8172176
0.08706695
0.76705354
-0.32980704
-1.2474874
0.6547721
6.921765
-9.822657
0.92282605
-0.1636625
-0.0012151834
-0.49793485
0.051414907
-0.058625776
4.325555
-0.26263773
0.008443514
-6.4777336
0.4512724
1.1331006
-3.787928
5.376132
0.5139273
0.57050276
-0.7874982
2.0406506
-0.05869723
-0.7715497
-0.040943813
0.084641956
-0.86827976
-0.07942511
5.8455815
-0.90288806
0.08121598
-0.8141695
-7.864613
-0.08151025
-5.5392747
0.8940786
9.544886
-0.86407983
-0.29772198
0.05545364
-0.047430083
0.00032604698
-0.025993058
5.001649
-0.44622424
0.07685813
0.047089603
-0.07668635
-6.5770807
3.5629022
-0.7158864
0.44268638
-5.781547
-0.25004372
0.055972494
0.4272082
0.022586973
-4.0758743
0.12520371
0.66107243
9.558188
0.03976591
0.95728016
-0.016131477
0.42850992
9.754126
-0.021416036
-5.3840795
-0.06716503
0.22389153
-2.2538774
0.053606335
0.49197894
3.8474495
-1.9057026
9.066749
-0.098306604
-0.6061516
6.651845
-0.05008507
0.6663694
0.06690485
-4.8934555
-8.090508
0.78577346
-0.48667386
1.8363785
0.02330471
-0.37050492
-0.08572532
-0.32339737
-0.682498
0.797104
6.13235
0.080551445
8.042053
0.09150658
0.30514288
0.4561406
0.7395866
-0.7548902
-0.07660017
-0.0012252786
8.029698
-0.17891212
6.162762
0.04902874
0.054371584
1.4280691
2.829601
-0.10211933
-0.5746248
-0.86716455
0.7750889
-0.0072338916
-0.72343135
-5.7107067
0.121456556
-0.28864574
5.159632
-0.008066323
-0.9100276
-0.054888133
-0.06860716
0.5440275
-0.03248859
-2.0080228
0.28025132
0.2382372
-4.946139
-0.6694221
0.03450187
0.077935986
-0.013836127
-0.029454041
-0.6394574
0.74305207
0.076045424
-0.09691059
-1.2767688
5.394783
0.15203188
-0.22515522
-0.583002
-9.588838
4.751539
-6.9365854
-0.005731165
-0.00042740465
9.247033
0.54952145
1.7476374
0.55298114
-1.4155354
-5.8422275
-2.0214703
-0.36466783
0.5487513
0.77935046
0.6701078
-0.91846603
-0.45628685
0.07586668
0.044666454
-0.0040216446
2.7886736
0.7240825
-0.06728236
-0.06900584
0.048153065
-0.281029
0.04419242
0.086551495
-0.0624065
-0.5336591
9.293493
-0.07793012
0.89493865
-0.09995255
0.5460046
-9.117936
-4.581905
-5.947766
0.99328595
-0.08828173
-7.0935526
0.08423663
2.8549976
-0.032530226
-0.43008542
-0.40696588
-0.0719219
4.455227
-0.022250464
-0.062335618
-7.3981533
-0.1424147
-0.32284677
0.3944729
-0.14440505
0.6823731
7.7014008
0.061779458
-0.097451605
-0.45641539
-0.7035882
-2.8611963
0.7249142
0.45257115
-3.8219757
0.073717244
0.051944356
0.048505414
6.0466046
-6.282515
-6.927609
-0.32549554
0.2404798
0.46058485
0.06935381
0.0894501
0.019502131
0.08796994
0.02133177
-7.281068
-0.07323745
-2.2518206
0.29275015
-0.18963991
0.3249203
-0.08744671
-0.065493174
-0.43837693
-0.38971004
0.31777465
2.8477669
0.09541256
0.08381425
-3.7083142
2.4147127
-0.09588018
0.08847827
0.031109728
-0.080105714
-0.07690484
0.11672481
0.01921215
0.9460273
0.7426519
0.068644114
-7.9892993
5.0217443
-9.172647
-0.002827546
7.9017224
-0.05916583
6.7394223
-0.0091504855
-6.2187204
-0.038691502
-0.4052799
0.027256101
0.3620512
-0.012626352
0.07875849
0.9258146
0.03658036
-0.004296073
-0.054848127
-0.019037347
0.6435195
0.0037013607
-0.019964518
-0.09042249
0.59257746
0.77755976
8.87865
7.0242243
8.021357
-4.5823836
-0.4651426
-0.14233877
-0.6263418
0.89161086
0.99918526
-0.0139444405
0.3845284
4.642661
0.6738574
-0.40921077
0.72326016
9.215044
-6.157585
4.098177
-0.07815005
-5.1980505
2.9763653
0.03207414
-0.05726426
9.711446
0.8563549
-9.404926
-0.0037700583
4.6392183
-0.030659232
0.082412936
-0.2801469
0.58775455
0.026575647
0.09653453
-0.9797758
-0.4155606
-0.0525507
-0.09707717
-0.9658302
-0.9472333
-0.26433587
-0.03601581
0.27932566
2.4535544
-0.44458428
0.2900948
-0.61429113
-0.03536531
1.238894
-0.9880979
-0.00225752
0.82303977
-4.9842124
0.5898089
-0.022268042
0.046550836
-0.59894395
0.01290298
-6.497443
-0.25283125
-0.09456765
0.81359917
0.3203715
-0.6182016
2.8050797
9.663838
-2.9472191
-0.006925273
-0.015728794
1.3971815
-6.3874373
-0.39563182
4.3666325
0.79215723
-0.059060395
3.6383362
0.22942072
-9.727774
0.37272826
0.041236524
-0.06784325
-0.61249655
-0.011628353
-8.610706
0.24542473
0.05784678
0.45481613
4.9885716
-0.25035664
0.32898036
0.32692283
-0.042203438
-0.07079924
0.86877924
-0.5317501
0.15883805
7.4414907
-0.081928246
0.4235045
-7.424061
-0.27283692
-4.526378
-8.140367
0.022196136
0.6664082
0.021000814
-0.5645128
5.950254
0.06855753
-0.0042430693
4.208234
0.009937303
-0.06703062
3.6908822
-0.07217571
-0.083653115
5.872921
-2.4301934
-0.08045787
0.5709965
0.19983037
0.008695672
0.87563545
-0.040621128
0.043507088
7.9050937
0.03798252
-5.789745
0.059141703
-0.040233094
0.9330819
-0.042346813
-0.05285699
0.673939
-1.8765275
-0.7768773
0.3941102
-6.794921
0.6097433
-6.231307
-0.0027998444
0.083500385
-0.083349325
-0.8605546
-8.265296
-0.17759818
-2.9972823
0.9382556
-0.06389952
1.4599667
-0.4090314
-4.4738965
-0.07729381
0.7775114
6.7589574
-3.6089926
0.04188002
0.46094763
-0.026962442
-0.07338705
-0.45166135
-0.07793087
0.41321948
0.0070844595
0.013823909
0.2635615
6.1230454
-0.026970198
0.046135273
-0.9049003
0.32307804
0.6808578
-0.0061848424
-8.6912
0.08774448
-0.082400225
-0.034951765
0.15629049
-6.7728753
-0.40508142
0.65129656
-3.5951061
-3.438868
-1.0688308
0.012899282
-0.7283363
7.4441
-0.7757596
7.943448
9.167695
-0.051285293
0.8032812
-0.99066794
-2.18069
0.5468564
0.015761174
1.851458
0.069455385
0.09226207
0.045732502
8.217934
-0.070313625
-0.037707612
-1.5530449
-0.7437317
-0.0010123915
0.6153554
0.56243837
-0.6971802
6.141417
0.015298856
0.08398174
-0.02715392
6.6432366
-0.92581654
0.42489508
7.1043735
-0.040913608
0.01019495
-5.084674
0.025035318
-0.01834149
2.6796014
0.32452634
9.982762
-2.174307
0.8462751
-0.07017636
0.008473362
-0.0005045345
-0.25792918
-0.050361156
-6.146275
0.44144312
0.0720365
6.2798944
-0.23949917
-0.5145457
0.82581186
0.08769769
-0.025836328
-6.170157
-0.3894612
-0.015238037
-0.7539555
-0.64058065
0.72524273
-7.8304873
-5.4602327
5.734031
9.301537
0.17899288
0.031078821
0.9310563
-0.412536
-6.716318
5.25772
0.84182435
9.678017
-0.06718339
0.07812334
0.02343651
-0.019295713
9.350156
-0.38180518
0.50381434
-0.050684314
3.8401775
-0.41782925
6.737777
-0.53591573
-0.8725667
0.07444649
0.2794139
-0.49077755
-0.44711968
-8.351849
0.24863623
0.0775368
0.46383074
-0.01910332
-9.551105
-0.5269443
7.407772
0.098267585
8.895556
-0.7996726
7.923031
-1.736635
-0.06989847
0.03663808
-0.7870099
8.3964815
-0.03944076
-8.977803
-0.055387378
-0.9508954
-6.681474
-0.37704036
7.331924
-0.77639824
0.3112271
0.3714191
-3.6869261
-0.6998785
-0.116652966
-0.6425155
-0.37792632
6.0281253
-0.85951793
0.13437943
5.5970764
0.9054483
-1.04713
-0.006749195
-3.857789
-0.07295604
0.39978325
7.923074
-0.7528984
0.46473402
-0.05053824
0.08751005
0.8829528
2.8293402
-0.054614775
3.7865376
0.01807046
0.9815634
-0.047578923
-1.3878769
-0.07245461
0.048381235
0.026518049
0.926185
-0.13905485
0.036288396
1.7035596
-8.124453
0.24127774
-0.05767112
-0.42971748
8.64002
-0.476318
-0.86079067
8.733049
-0.02406479
-9.786222
-1.0346493
-7.1429834
8.934417
-0.34266165
3.554831
0.17106993
-0.015225084
0.034026437
-0.074272774
-2.7652087
6.068521
-3.6670885
0.023181919
0.038427234
7.776369
0.07856066
-0.53615624
0.05497307
-3.2842104
0.016529826
-0.8295044
-0.52017677
-0.48147622
0.87294364
0.6055562
-0.011712772
-0.55940616
-0.738834
0.058312178
-0.3665705
-0.90988004
-0.066652335
-0.500633
0.7321546
-0.9607252
0.087905735
-0.07298663
-0.05453471
0.5665912
0.0014719202
-6.72564
0.5642477
-0.082573354
-0.024985446
7.4204893
0.43992558
-0.011292258
0.06974675
0.0038542384
6.022866
-3.0666418
-0.9596674
4.8886933
0.4279968
2.023837
0.9522665
0.03980498
-0.044188283
4.1480737
-0.098164886
4.9334083
0.65922153
-0.23808002
-0.03005758
-0.41186044
0.0719065
0.01996312
0.7627598
6.647015
-0.051153284
-0.043828074
-0.04906845
0.46209988
-0.03987044
-0.62697643
-9.057555
-0.84948146
-8.602682
8.700229
0.01731585
-2.6651514
-0.9098026
-3.0857131
4.897993
0.13241993
-0.08800771
-0.41383478
-0.087443866
-0.63475126
-8.789275
0.64413345
-0.99938345
-0.76595855
-0.6981544
0.230382
-0.35224095
-0.08683638
0.7382039
3.2646801
-0.37119532
-8.411106
-4.386722
-0.6291408
-4.5821204
0.06342563
0.06274863
-0.001341124
-0.8309451
0.9934079
0.28314793
-0.07440612
0.07410428
-3.203088
6.0028386
9.746824
0.055409312
-5.907031
-0.91213685
-0.038569063
-0.054321133
0.06796584
7.9963546
-0.9247857
-0.31694543
0.68564254
-0.91962105
-1.3194132
-0.6231698
0.07389004
7.3328347
0.036489464
0.9629201
0.7857665
6.89094
0.031206662
0.03481842
0.37329018
9.262134
0.01071648
-0.37452534
0.7400449
-0.15435955
0.028567744
-8.625669
-0.059761915
-0.6758156
-8.403256
-0.06591246
5.104197
0.8856397
0.6920228
5.9312162
-0.07730739
-1.3117818
0.93271905
1.108507
-0.99052197
-0.083574854
-0.07455525
-9.649108
4.112564
-0.023393901
0.027033288
-0.017871898
9.14863
-0.8508225
-0.02585798
3.911323
1.5440694
9.67366
0.1145349
0.07139125
0.08864821
-0.0035406367
0.040789243
4.909721
-0.077052794
-0.070947625
-8.410531
-0.04148126
-3.166359
-8.645551
2.5247755
0.8033796
-0.37794253
-1.8491944
6.031667
0.06149264
2.5798206
-0.95285517
-0.3138769
0.085288435
-0.043963917
-6.2148376
0.9012942
-0.07615251
0.048401218
0.09774972
0.1528351
0.75233555
-7.451093
-0.05684675
6.522434
-0.066630654
-0.011002214
0.7496699
-0.55984896
-0.031104594
0.71627915
0.100215025
-0.023826236
1.1157812
0.04690901
-0.090321116
5.5132337
0.5197288
-0.32663408
-0.0030191487
0.029372077
0.04099407
-0.11501448
-0.057347585
-8.482293
0.32990634
-0.07399836
0.045814913
2.632875
-0.6592412
0.32173884
-3.823326
0.07968267
-0.313902
-9.1284485
-0.08060571
0.00023501349
-0.05588628
-0.039044056
0.084899426
-0.03478112
-0.054599114
0.39779976
-0.9767084
0.0658203
0.09270481
-0.75907284
0.014384847
0.43562168
-0.08890469
0.47359166
-3.2523503
0.008653945
-0.06489135
-0.11085865
0.06988259
0.03980042
-0.06061253
6.8936386
-3.5545926
0.02800928
-0.67839575
0.4275522
0.032112774
8.0580285e-06
-2.3862782
-0.07941274
-9.764608
-0.7034108
0.09221322
0.053702753
-2.7837331
4.6289935
0.56524444
-0.86495584
0.5343802
0.36311206
-4.9222856
-3.1318796
-0.46100292
0.087166734
-0.06451464
-0.2125797
0.048119184
0.5485362
0.6418842
0.08344281
0.24380632
0.7412414
0.43617657
-0.03341527
0.91091067
0.08901993
0.0364923
0.0758621
2.2337415
0.059108865
-0.55125594
-0.01838395
-0.77278364
0.6657909
3.5957685
0.09136509
-0.59201884
-0.073087715
0.88660824
0.5835954
-0.14115459
0.72020525
0.022210902
0.9054351
-0.532162
1.9182985
-0.029378649
0.089513175
1.4675533
2.0629613
-0.45707166
-0.03770248
0.066924706
-9.223353
-8.532188
6.616228
-0.71896833
9.023038
-0.05835401
-0.75413555
5.8149643
0.07077771
-0.0112681715
8.999055
-0.44459745
0.097490035
-0.041104823
-3.631925
0.5144844
0.3183059
-3.2454786
-8.841695
-0.004043387
0.36403432
0.039779715
-4.168129
-0.09086544
-0.08809172
-0.39600715
0.09517707
-0.54960907
0.14945714
-0.08821858
0.19597258
8.280902
0.08116672
0.19574028
-0.68017757
-0.78053886
0.11213944
0.24848808
0.08339198
0.30938724
-0.4940108
0.99009377
-0.47916356
-0.6356483
0.80015445
-0.27993953
-7.128046
0.4021184
0.5939868
0.09196671
-7.1868634
0.23553929
0.99669003
8.058948
0.082878344
-0.48915493
-0.014821602
9.97136
-0.9039237
-0.10741298
0.13288616
0.033869114
-0.16409314
0.0030414395
7.885092
1.6492354
-0.8567267
2.8585281
0.09877382
-1.2667698
6.259417
0.033417318
0.4188508
0.38159886
-0.019587332
0.31020015
0.09995384
8.481025
-0.012710734
-8.28
-0.37848005
-4.9606624
-0.42872077
0.5796152
0.66858625
-0.0553786
0.019181846
0.104554884
8.998516
0.066575915
-0.013825619
-0.010148594
-2.2336879
0.0126178395
0.6670031
0.27747297
4.4555173
2.3659127
-7.3921037
-0.021433482
1.580653
0.402613
0.095833085
0.90933007
0.43281832
0.049045436
-0.97754264
-0.81721836
0.41330996
0.21050893
9.026848
-8.55706
0.8468611
0.3382537
0.060323283
-0.41312635
0.1921852
-0.74251604
-5.384541
0.30711058
2.5010197
3.390066
3.538539
0.30195332
-0.054954592
0.04746745
0.112091415
-2.8426433
-5.466537
0.8079892
-0.7037946
-0.27463722
-5.431493
0.21035469
0.53392994
-0.989223
0.76121163
4.1047974
-0.060148183
0.075493515
0.06269943
0.2519297
-0.07560046
0.5669724
0.058450777
-0.62845635
-0.47865775
0.45333916
0.3592803
4.6413746
8.531019
-0.064058594
-6.710463
0.46260157
-0.0778344
0.08918084
0.29649472
6.268716
0.18303727
0.035743788
6.3757877
0.252294
0.009611844
-0.42966124
-0.049852014
-0.06387648
0.7416477
2.3615017
-0.33241755
-0.0019591374
9.578523
-0.06560056
-0.42554042
0.063902125
0.073549315
0.4463798
-0.39219645
0.114663094
-9.380346
-0.06272167
-0.062223118
0.9930431
-0.005763967
-0.49073088
0.2985515
-0.08522162
-0.8800253
-3.0825505
-0.5944352
0.04145522
-9.173543
0.18562032
0.33780697
5.528771
-0.034578945
-0.073154055
3.5005436
-0.75539744
0.024244267
-3.3319328
0.050778095
8.045174
-1.1285996
9.408654
-0.35383877
-0.012331115
-0.44928837
-0.3191528
-9.862671
-0.097244024
0.41135663
-0.05128122
5.263334
-4.387385
-0.043978944
-0.75860274
0.31764513
5.9904375
-6.3779974
0.65376544
-8.068505
-0.18827058
-5.395395
0.20127201
-4.3090334
0.4543238
-7.573816
1.5629388
-0.058274433
-7.3618693
0.1519519
0.91197747
0.043398578
0.06973246
-0.07035295
-3.9723735
0.07735192
0.20565072
0.062274586
-1.4916077
-0.5669149
-1.5680639
0.823035
0.08108347
-9.864507
-0.038622487
0.06957495
3.6622272
0.08394232
0.026378423
-5.8365664
-0.4114086
0.035111144
-5.8716373
-0.08606182
0.5539897
-0.620069
0.08203371
-0.051183898
0.061014444
8.744046
-0.5440529
0.1262456
-0.019641384
-0.23512244
-0.002007505
0.06249111
4.5057473
6.582597
-0.07843724
-0.07647184
-1.9745911
0.023216104
-0.9590507
0.37999755
7.962336
-5.021241
-7.588294
0.027776286
2.5966191
0.99803495
-0.05094465
7.600842
-8.48095
5.2023816
-0.511717
0.0049888776
5.0448227
-0.4003954
-0.09785894
0.67361784
7.382764
-0.067742094
-0.027645772
-4.693148
-9.977273
-3.3236308
0.016552461
0.0074950582
-0.24459389
-0.014574727
8.932463
0.35400215
-0.025642933
1.582337
-0.0019933835
-0.057857417
-0.050141923
6.897163
1.8546513
9.765495
-0.27892074
-6.6999574
0.1339056
6.9899507
-0.75926673
-0.07237493
-0.24654193
0.63873726
0.04218139
-7.784946
0.020091522
2.3513432
-6.2159667
1.4060483
-7.8727455
0.043275476
0.69721
-5.310078
0.96528596
-0.030735886
-0.027233133
0.7779143
-4.7627687
0.097759105
-0.3868047
0.028572515
6.207432
0.68668
0.0414444
0.04378783
0.10219911
0.012689677
0.085042626
0.70333946
-0.8571784
-0.46108106
0.7055593
-2.903393
-7.563443
-0.6003735
0.05659795
7.418297
-0.011885799
0.023411324
-4.4739733
-9.176566
0.4594224
0.0737806
0.094727986
0.0053139706
-0.8586991
0.044397656
-0.05191884
-0.13191612
0.05123371
0.011064958
0.7639428
-0.058867145
0.7027904
7.797364
3.3177428
-1.2551
-5.5224843
4.6574993
-0.041802716
-0.84406173
-4.829145
5.18577
0.37988973
0.08363038
9.208496
-5.429129
0.06312234
0.89914703
-0.061134532
-0.004782798
-0.36671498
0.96951586
0.063083135
-0.017000547
0.60231143
-0.72622347
-0.06009307
-4.3082104
2.13659
-0.056460552
-3.5302417
0.8864911
-0.68263084
-0.04749998
-3.791073
-5.0917187
-0.035803862
0.78479785
-0.31434155
-0.0030538286
0.091405734
0.0642912
9.219977
0.56622165
-0.8590929
-1.0139668
-0.9660687
-0.48770648
9.514286
-0.8543906
0.045323845
-0.07841957
-0.44082886
0.018620515
0.71002483
0.67498463
-0.03479724
-0.89334154
5.509025
-0.6986076
-0.64539224
-3.3388975
-9.237546
-0.0965406
-0.05020186
-0.020263676
0.012153599
-0.07813995
0.090603106
0.087688155
-2.5243428
0.55585754
0.19243497
0.01899104
3.4004345
5.9499216
-5.47455
-0.68983525
-4.563013
0.05291102
-0.07576037
-8.601582
0.031304546
-0.2724025
0.02822158
0.076328255
-0.7852351
0.6110086
-0.06669282
-1.0864338
0.58804995
-0.5192782
0.6770159
-4.2337995
1.315599
-0.22536305
-0.69702
-0.3064619
-0.07611577
-9.707931
0.014037897
0.5903589
-0.049654383
5.1042304
3.6532845
0.057082456
-0.3957619
0.57395536
-0.0116789155
0.10799164
0.09771768
0.68513185
-0.021446593
-0.26368827
0.00077280396
6.22258
-0.026932476
-0.037316207
-0.01861855
-2.1855836
0.22563161
-0.06748371
-0.29760993
-2.2695117
-0.07347322
9.708997
1.6485814
-0.810781
-0.06489986
-0.08753812
-0.042618163
0.8455533
-3.9360058
-0.069770366
-0.728271
-4.9801407
-0.117242895
-0.04298875
-0.065978
-0.88181496
-0.5057448
-0.017403454
2.8206878
-0.18157166
-8.794831
0.03535774
-1.780708
0.3483062
-0.9147214
0.5382837
0.32831877
-0.018456353
-0.058836207
-0.04073053
-8.986026
-0.7789389
1.3360139
-3.544165
0.9358422
0.073827714
0.389372
0.08834469
-0.08534083
2.4450212
-0.82713515
-0.0041957432
-0.84810805
-0.07451358
-6.2199183
0.058374114
0.058433365
-0.0008842715
-0.13428128
-0.9143466
4.4847517
-7.670193
0.4250582
-0.6377774
-0.23804031
-0.02994592
-5.4272614
-9.069995
7.4621615
0.70105344
0.32783297
0.16699651
-0.081905715
0.6297587
-0.70304865
0.923745
8.607514
4.8994884
-0.01817723
-0.5595482
-0.5352487
-0.25209093
8.790029
0.2981696
0.97981113
-0.08206135
-0.2380283
6.0038323
1.4386325
0.049795203
-8.836502
-2.5230286
0.32953203
0.66881293
-0.039210342
0.6254089
-0.57648134
-0.13290732
0.08843005
-0.119500436
7.4633503
0.034269404
-0.9151366
-1.4655652
-8.196342
8.997703
0.029386103
0.28122076
7.81085
3.8965483
-0.93427026
5.425061
6.470701
0.6878525
0.479688
-3.4445472
5.2244015
-0.0065276735
-0.00678224
0.008491624
0.05170999
-2.0048544
0.089807376
-0.05181459
-0.26302168
0.7815511
5.108146
-0.23599377
0.06418847
-4.5074553
5.115147
9.682706
8.89542
0.76414347
-0.08953868
-0.061421115
-8.568365
2.7263906
-1.9045208
0.6399292
-9.035848
1.402496
-0.6710262
-0.49982312
0.06196404
0.03494933
-0.5970574
-0.056909006
0.036222983
0.8308672
0.09158856
-0.08669178
2.2030797
-0.07092447
-0.45274362
-0.08118796
0.6707832
-0.03209625
0.47661644
-0.5194168
-0.03942275
2.3655772
0.027077274
0.7644853
-0.45953232
-0.78865105
-0.56976676
-0.03854923
0.0317231
-0.0101016555
-0.66802937
-0.61899847
-1.7177843
2.851833
-4.5613394
7.3612547
0.71893394
-0.04170781
-3.5800562
-1.3571762
-4.7671714
-0.9019198
-0.34463304
0.97762364
-0.050681703
0.69983166
-0.33973333
-0.39909974
-0.5243064
-3.739774
2.5163233
4.140909
0.086158365
0.5690553
-0.638492
5.9421625
-0.9750927
0.059259888
8.901825
7.4016137
0.37463096
-0.08787874
-0.09004491
-0.19510534
0.47759202
-7.552485
0.015500646
-0.09849859
0.5479098
0.008243025
6.9523916
0.0835551
-6.607294
-6.2460766
0.024047395
0.0054277484
-0.8810722
0.02072585
-5.680002
-0.033521045
0.4534832
-0.46556172
0.005461952
0.07739753
5.981545
0.078544036
0.094500326
0.81207633
-3.1478655
-0.34155184
0.03775308
6.812094
-0.9004544
-0.43179646
8.819981
0.0731616
0.42024276
0.044995304
-0.0129110245
-0.8557197
-0.1487511
-0.06345867
2.8800719
-0.09374492
-0.015191463
0.25670984
3.7980275
-0.5344396
-0.7488134
-6.81813
0.09054414
0.079240896
0.03395527
-0.091758534
4.7491465
5.2483773
-3.6108906
0.09911227
-6.4238605
-6.490736
-0.080750585
-0.5366994
0.031174747
-0.02229268
-6.4094567
-4.3126793
-0.048543878
0.073140465
0.08089919
-0.00880091
-0.24161316
1.9611981
0.8270892
0.3415034
0.2873197
0.59126145
-0.022626719
-0.011598174
-0.068918996
0.41531903
-0.08533371
-0.41369948
0.6248664
-0.021197272
0.79493654
5.470239
-0.06570797
-0.027007265
2.0449035
0.8274545
0.057079356
4.343646
-5.1863375
-0.03490599
-0.405622
9.116983
0.07895894
9.423905
-0.24503832
0.22872148
-3.3934917
-0.051457863
0.31389675
-0.07665146
0.23768374
0.3469884
1.152576
-0.03385839
0.0833274
0.27092582
0.8973509
-0.2192208
0.9192446
3.8633385
-0.8911894
0.094920084
-0.9518275
9.503102
-0.015078395
-0.65846485
9.248488
5.3950706
-1.0946358
-4.4802647
-0.07610372
0.05799501
-9.109092
0.8830568
1.4422458
-0.4816603
0.013490054
6.286331
-0.06812858
-0.061409466
0.6299958
4.3677955
-0.5313593
0.6232141
0.00029326088
-0.038298603
-0.19170402
9.382315
3.8944979
-0.8082662
-0.20959221
-0.3380046
7.013233
0.9019926
-0.8408207
-0.07294344
-7.828211
4.79993
0.09256403
0.038652595
-0.07694036
5.748939
0.08235655
0.7547774
-0.012799603
-0.04298079
-0.29941297
-0.09047636
0.045766573
0.098503955
-0.034630835
-0.26529935
9.751495
0.11131638
-0.51876104
-0.035928924
-0.49675113
-7.5889606
0.85183805
0.9782617
-8.996638
-5.7973537
-0.09348128
0.040823694
0.06063833
0.047597297
-0.0062741786
2.6382308
-3.6398392
0.03779513
-4.7563815
0.04570929
7.712101
-0.03440249
1.4322869
-0.726436
8.162189
0.090542376
2.0596488
0.0834307
-1.5419419
-0.016676748
0.05572438
-8.233149
-0.019796176
7.827591
0.04397468
4.6583366
0.08942701
3.033966
3.1016572
-0.020069052
7.2802243
0.060981188
-0.5453306
0.09873469
-1.1570239
-2.1248174
0.849485
8.293825
0.59808666
0.49886197
-0.7788433
-0.30073145
0.0382431
0.08807198
-0.12747414
-0.095228575
0.8242436
0.18773231
-0.9119299
-0.005717327
-0.08756856
-2.293636
0.114103466
0.049841564
1.5292083
0.06449497
-0.06348439
0.06325211
-9.494571
-0.030666627
-0.033963922
-0.6157472
0.61278117
0.114872366
-0.032339577
0.034480453
0.38562134
-0.81007874
0.044278346
-0.06614227
-0.08186176
0.07995234
0.16609623
9.580262
0.71848553
0.060473274
0.74761474
7.28377
0.06586729
-0.93198335
-8.117834
-1.4531995
-0.48480862
0.9990595
0.28760746
-0.083372116
0.053327266
0.002163189
-0.0047618365
-0.17983547
4.542216
0.1068796
-0.03297084
0.04178274
0.049397063
-6.1510873
5.2797675
-2.744876
-0.1807136
0.08992481
-1.8323529
0.052156147
-0.009279018
-0.6588532
-0.80215544
0.055827208
-0.6051619
-0.32245922
3.7711895
5.2344127
0.015367234
0.06418571
0.033248458
-0.9142994
-0.056108654
0.76618135
0.73357767
0.07658097
0.025032118
-0.59350586
-0.18107778
0.016970772
0.086532645
9.2339735
-0.09720345
-4.984103
0.0061425404
-6.9508047
-0.89812005
0.03214808
0.2310765
0.06290018
0.07921834
0.95392245
-7.2638044
0.05625607
0.62641007
0.024540884
0.3736005
-7.0593104
0.6678234
-1.6601727
0.063726865
-8.23045
-0.040748797
-0.0326003
0.6656831
-2.333375
0.67579824
-5.1908364
1.4327029
-0.075145334
0.0940719
-0.383529
0.028723804
0.52825075
-0.05373855
0.54086375
0.3333546
0.0923523
-0.0063206553
-0.74319816
-0.03553999
0.28255725
5.3884254
0.46086356
0.80243313
0.06893665
0.060653407
-0.7319474
-8.411138
0.007959265
-3.6100154
0.6831023
-0.6749942
2.056493
2.043574
0.52190095
9.981753
-0.0443665
0.46453172
0.08621641
-3.453527
0.07302248
0.8723519
-0.26745495
0.3487062
0.73460233
0.74182266
0.05500357
8.228834
-0.65599567
-0.088810876
0.99649006
-0.6983855
-0.07508009
4.444269
-5.4175143
6.4103312
-6.4694304
0.95004493
-0.028414369
-0.02714025
4.7919636
0.044316724
-0.27456984
-8.265842
-0.045437984
0.023884842
-0.014522501
0.004090403
0.061036143
5.8424187
6.0406957
0.5688625
-0.52458435
-6.6989765
0.08993239
9.6295805
0.082603075
-0.06427766
9.601461
-0.08736306
-1.4837261
-8.373235
-0.92454004
0.9940146
0.05410881
0.03724803
-0.05404239
-4.8703027
-9.093163
-0.6115948
-4.500694
0.268152
0.06731158
0.65105563
6.6788144
0.5744499
-5.74974
0.099613495
-0.019084826
-0.9490256
-0.79586595
0.34986657
-0.019614168
1.2840469
-0.29934546
6.922828
-0.062290076
-0.34677306
-0.095654555
0.6909764
-0.350911
-6.508903
0.035396826
-3.4019554
0.010004491
-7.102219
-5.2858276
3.5845344
-0.83049977
8.801583
-8.070179
-0.045012534
-0.049726874
-0.84002316
0.7628235
-0.4953966
0.2591765
0.09745032
-0.09202651
-0.9732721
-0.16733511
-0.045233052
3.3308313
0.39845908
5.5988593
-0.35210934
7.328951
0.09203034
-0.23025922
-6.861107
0.5475476
-0.043402944
0.05101576
-7.918325
-0.0032901585
0.4705178
8.573396
0.027016804
0.03694241
0.007586512
0.04983655
-0.01452833
1.1632974
8.339314
0.5050299
-0.55539894
-0.08172285
-0.33689788
0.09757203
0.17748967
-3.8161576
9.285654
-5.7996483
-1.819426
-0.08390887
0.0922277
0.6482247
0.8237632
0.010701069
-7.175346
3.6651587
-0.29710537
0.74458295
-0.062097073
-0.02857464
-0.94249386
-3.072237
-7.768395
1.8149607
0.7012674
-0.6162797
-6.257089
-0.09366296
5.4359207
0.8324453
0.053816844
-8.106461
-0.65960217
6.011574
0.07039153
-0.6899464
-0.014014985
0.52149504
-0.027091032
-6.5055323
0.04404324
0.03971177
4.7447157
0.46437588
0.8824952
0.7126285
0.028890407
0.039534077
-0.6604372
8.090904
0.5259618
-1.0278251
2.7236292
0.18936852
0.01911846
4.6798363
0.049043838
-0.2682036
7.2823443
3.0363517
-0.08835738
-0.86287344
0.62336224
0.018545896
-4.8207293
-0.665856
-0.037053145
-8.670903
2.5544865
-6.410455
3.1415503
0.7010499
-0.86062133
0.2792077
0.26419067
1.9855547
-7.2751493
-0.7861872
0.8014395
-9.656818
-0.07993755
-2.7929626
0.055057462
0.23681599
8.685955
-0.7279732
-5.216557
-0.083562315
0.09636754
-6.821848
0.8419448
6.1059675
-0.8259237
7.803995
0.9293112
-0.43543944
0.10578753
-0.30758816
-2.9854581
1.9081736
-0.026253644
3.4225986
-8.804149
-0.063652866
-2.035425
0.028571734
-1.4727298
-0.034154944
5.075915
0.026208678
-0.00039139725
0.042965006
-0.042541537
-4.4388676
0.03818626
-7.335614
-0.84855384
-0.018801313
7.138943
-7.4515176
-0.48000047
-7.774298
-0.8469499
0.044207774
0.053217743
-0.35012457
0.025954973
-1.85325
-0.84418786
0.07221076
0.5366297
0.042308312
-0.72049505
-0.01006236
5.96346
-0.088126525
0.061787788
0.0583735
-6.2819977
-9.435061
8.047883
7.944143
0.01811454
-4.3303986
5.2478967
-6.112064
0.8341547
-3.849219
-9.640594
5.4528255
-0.038141336
-0.08000366
0.0141169615
4.5191326
-0.011919368
4.4375296
0.7880791
-0.055845503
-9.731702
-0.047864158
-4.0013256
-0.5348851
-0.030022016
9.039989
0.90121883
-0.044876177
-0.059033286
-1.1205904
0.90144557
-9.5976095
-6.8528795
0.003018766
-0.03067599
-0.2714378
9.685159
0.9640558
0.82037836
0.8545568
4.55822
-0.62268305
0.061858263
6.827358
-0.073415466
-0.07120651
2.4563231
-0.033422712
-0.020307986
-0.16459215
-0.5178771
-0.09319592
-9.464939
0.09712141
1.8882004
6.62943
6.001485
-4.511793
-0.13010073
6.77452
0.033278324
-0.05625873
-0.50750184
9.832246
0.0005307146
-6.710809
-5.773117
-0.09965527
1.509951
3.283157
-2.0951514
-0.01768453
-0.091588356
-0.36420998
-0.78270274
8.670704
-0.7040872
-0.05092269
-0.059245802
3.7445009
4.5031595
-0.90914166
-0.019578936
7.12721
0.08092478
0.063995
0.058679156
-0.08715356
-0.8537382
6.3262763
-0.43557113
0.4096855
4.1695457
-0.06746609
8.798577
8.498549
0.04721639
0.73526955
-0.07166862
-0.015355822
0.60973656
0.07591864
-0.05106743
6.3909864
-4.658724
-0.45150974
0.6915732
-6.784122
0.013766496
-0.00021837492
-0.5608267
4.029295
-0.041901425
-0.33773866
1.1622051
-5.289021
-0.228015
-2.4030533
0.075420775
-1.6019777
0.027818248
3.9025912
0.3428725
-0.051906437
0.7440748
6.5653467
0.7474309
-8.565716
-8.687867
-0.68916875
5.958436
-0.05116501
-4.9046917
0.907887
0.8923471
-0.03648398
-0.0012971724
-0.01179254
-0.62634337
0.06005435
0.083031334
0.74905294
-0.9865146
-0.075334914
0.02741013
-0.07169443
-0.7716802
0.16976045
0.04075463
-2.4854074
-0.07091141
-0.053385254
-0.084057115
-0.011155194
-0.023427028
-0.09452347
0.7389605
-0.0006318128
0.08789716
-1.0559175
-1.1763748
-0.4973253
-0.012799428
-0.6052841
0.03618126
-0.08528462
0.3975624
4.3149114
-0.60198516
0.043561075
-0.97567755
-0.20944867
2.4544964
-0.4273967
-0.08762452
-5.352045
0.04319582
0.09964933
0.9123833
-4.382594
-2.4259937
0.3664423
2.3111699
-0.005923775
0.09978117
0.00018530966
9.245833
7.08933
0.51108295
0.079665974
3.3193552
-0.3103916
-0.02566754
0.048769392
8.128618
-0.21240734
-7.55735
-8.025931
0.09269092
0.007503987
-7.586273
-3.6693819
-0.7533891
-0.42082423
-0.5604292
-0.0145759545
-0.07589888
-4.72731
2.9462044
3.919359
0.09132999
0.58212405
-7.9244046
0.069123715
-0.06336061
0.96177
0.9945648
-1.7577682
-0.32072362
-0.08421801
0.08031328
0.098256215
0.03382247
-0.46173993
-9.670657
-0.54614455
0.67736924
-0.31405538
-0.5955008
0.029042229
-3.592136
-0.11408812
-0.48380876
-0.09468275
0.4641159
8.633014
5.6418123
0.7316007
1.4618168
0.17457864
-0.17612603
0.07035889
-1.3354473
0.27023754
-0.5027899
-0.113927074
0.035343975
-0.09582472
-0.5271177
-0.14442089
-1.3039854
0.031434957
-0.07336196
-0.55245864
-6.572415
-4.6839514
0.04960512
-6.7442493
0.069927484
-0.014758209
-2.2961903
-0.9784144
0.2879842
2.8770084
-0.046170007
-0.054292366
-1.9320561
0.015327156
-6.2040167
-0.05765513
-0.046474
0.5412387
-0.5489843
-0.16103503
-0.666794
-0.27690694
0.09702957
-0.035422787
0.9796079
-0.036202807
-8.505277
-0.064673185
-0.027566055
0.8248665
0.9565268
0.051872358
-7.979002
-0.061492644
-0.016126337
4.688477
-0.03638232
0.05484072
-0.11923436
-0.0445987
0.07190686
0.3649917
0.9745418
-0.5522559
-0.038299985
4.8438706
0.7859311
-0.99056965
0.08979893
-0.48495153
-3.9224846
0.8966444
7.31478
0.39147374
-0.019886177
-0.076531745
-0.20371465
-9.246135
0.04078977
-0.8438253
-0.09067286
-0.81486017
-0.053401075
-9.524875
-0.014567551
-0.060233157
0.6972564
0.05691569
4.1431785
-0.28791687
0.07608584
-0.40583792
-0.06743106
-7.9573607
-0.87281084
-0.15730378
-0.03084571
0.066895515
4.4067297
0.2616294
0.019087488
-9.943073
0.42361563
0.73152256
-0.022365069
8.068241
-0.7121535
0.21688555
-0.09014142
0.09272629
-0.69622856
-0.07796569
-0.14651003
7.2326517
8.991939
0.016843151
1.4805163
-0.42910537
-0.8885178
0.033990074
0.056115475
-0.06403242
0.057589043
0.083588935
-5.545116
0.07816494
0.097364396
0.009542732
0.1513498
-0.07428765
0.90011686
-6.9196362
0.038692925
6.411832
-0.008275679
0.50921303
-8.889361
-2.326107
0.051810022
-0.081053
-8.291025
-0.07493804
-0.81715804
2.7950802
-0.34568736
3.5836136
0.055069175
0.089265905
-0.17720026
0.42392522
-0.51870656
-8.918705
0.02107526
1.0390496
0.2080281
0.017966764
0.37172526
0.21750133
-0.50469047
0.9259164
-0.22965416
-6.3119874
0.08239667
0.02554732
0.043555826
-0.08756427
-0.0014271087
4.4745383
-0.052147735
-5.708872
0.6842315
-0.032321382
6.8629866
0.13570279
-5.727991
-6.8278737
0.0390846
-0.06769823
-0.08449412
-3.0340993
5.575009
-0.12364177
4.959502
2.0653837
-0.51072484
4.7455225
0.065928854
-2.24246
-5.156205
-0.02181254
1.8810723
-0.93430144
0.081963204
-0.08180059
0.51521707
-7.322539
-0.04173292
7.768556
-8.255553
0.017273504
-0.63331056
-1.1282624
-7.6536655
0.058917798
0.9031967
0.60223484
-3.0822258
-3.361641
4.5133295
-0.9487264
-0.06623747
3.4350283
-3.8419375
1.932425
-0.004481486
-0.58241504
-0.0037508274
-0.0694902
6.954877
-0.9816161
-0.4930167
8.404291
0.040357053
0.07554555
-0.019430296
0.5288781
0.03635071
-0.5086726
-0.07288135
-0.915922
0.25755802
0.99547887
-0.023378272
-6.504563
0.026243059
-0.60610986
0.0058969045
0.07161013
0.095889404
0.012936223
-0.6312781
0.31698954
-0.08316174
-9.376158
6.2915983
0.023241522
0.06867819
-2.8421466
0.003040462
0.07511428
-0.055339992
0.3981148
-2.0153842
1.3466594
1.1895232
0.05262309
4.306838
-0.07260713
0.022889622
0.70049727
-0.26463485
-0.38055605
-2.6049538
-1.558777
-2.1183043
0.8946685
-0.8405596
0.09298551
-3.770978
6.4031005
0.7060472
0.1388985
0.6156778
0.047945634
-0.0225118
-0.051306047
0.0016730096
-0.35327938
-0.09762655
0.07595945
-0.058499515
8.431175
-0.021926755
-0.3317697
-0.06988063
0.2501313
0.07873439
-0.037554365
-0.5128946
-0.58471125
-1.5562929
-0.00047608098
0.4287889
0.07255718
0.08244383
-0.04913849
0.22095077
0.34295866
-0.04972723
-3.7359216
0.6055703
0.09482579
-0.040339265
-1.9017143
-0.6180818
-0.57817507
0.06419197
-0.844766
0.1960317
-0.51743513
0.51936877
4.319389
-0.9615715
-1.4562836
-0.88020164
-0.3141299
0.04704183
-9.486042
0.80859154
0.013694626
-0.2928059
0.17609137
0.50290453
9.684453
0.42136884
6.868216
-0.9694215
-0.4841373
0.013193751
-7.036994
0.091457866
-0.07986222
9.128086
-0.33422685
0.97580457
-0.8181293
0.6159684
-8.357778
5.974994
-0.158235
0.8346383
0.07933772
-0.07476605
5.5186653
-0.019627037
-0.71666336
-0.008419524
-0.03907744
-8.830902
7.5872374
-0.36456358
0.009206159
0.07464391
0.60418934
5.535208
-2.5565243
0.5319171
-2.5820951
0.06304994
-0.021737274
-0.3518415
0.2391392
-0.8583578
0.8825596
-0.031516816
0.050123997
0.046338968
0.0728115
0.01041446
-0.056706313
0.07323575
0.30379447
-5.946653
0.5533853
0.097410165
7.661349
0.07745338
0.7874726
2.2383935
-4.4579997
-0.067886904
4.234453
0.41528514
-0.21651024
0.07926381
-7.5061765
0.036816206
-0.09971803
0.7987212
-0.50042915
-0.07734545
-0.91977495
-0.6284192
0.22011726
0.81007665
-0.056292187
-8.174109
-8.852601
-0.69266784
6.8570786
-2.2922702
0.8837585
0.15728436
0.09517704
0.002550196
0.30018634
-0.44614336
0.019307455
-8.9105425
-0.13137838
2.857373
-0.00052162877
9.603948
-9.40254
1.976946
0.18382385
-0.7060528
-4.1898265
-2.3622515
-0.70677507
-0.06845932
0.07283894
8.286898
0.06825572
-3.4769328
-6.574246
-0.064907864
-0.07112842
0.056836206
6.494585
8.13068
-0.96796536
-0.9548172
-0.6891814
1.7065287
3.0433607
0.084838495
0.06196919
-9.256176
-0.11015626
0.06722697
-3.5133247
4.1541944
-7.4043264
-5.9653926
0.16837694
-0.0014374472
-8.675694
-9.918941
0.036760658
-0.404739
-0.03697371
-0.005797959
-0.009193501
-5.8430505
-8.017529
-9.504556
-2.8272696
-6.012049
-0.23699409
0.07840513
-0.57159096
-0.004514257
-0.19823697
0.090697855
3.6841917
5.6330233
0.043258693
8.286925
-0.03690034
-0.15156592
5.298372
-0.38711506
-0.30316794
-0.083018325
0.009232742
0.043256976
-0.6978788
7.760165
-0.044796586
-0.12953442
-0.0987378
-0.47650883
9.92594
0.0939694
1.6396201
-5.5624166
-0.6955333
9.068069
0.20027304
-8.773894
-3.6764803
0.33370197
0.07313301
-7.5913496
0.040622212
-2.4061906
0.21036276
-0.03088207
-0.054288447
-0.8162569
0.47190434
-4.9582467
0.32783917
0.17818479
1.4646264
-0.0730604
4.26494
0.3967707
-0.019233696
0.008711027
7.101402
-9.649203
-0.059904262
0.28943092
-0.055087157
-0.0013635005
-0.26453936
6.9167843
-0.026328227
-0.48990208
-5.4575796
0.867147
0.72842336
0.3831163
-0.09665837
0.7321061
-0.48299983
-1.8904976e-06
-3.2346883
0.09550477
-0.04071449
0.010131215
-0.024508117
0.060947567
0.009804676
0.024473412
0.87180465
0.07811363
0.030722482
-0.95327824
0.09970806
0.08082576
-0.02929383
0.028923757
-0.5063789
0.27251217
-0.59481007
5.452721
0.89334273
0.09904831
0.09212357
0.66285735
7.5860806
-0.6054368
8.902731
-0.41262436
0.63286805
8.15518
0.016660452
-0.04555276
-7.3927894
6.600957
0.72765
-3.3652651
3.86534
-0.77323484
-0.76390284
-0.34712625
0.009340442
0.43114597
0.08957381
4.893357
0.57020956
-5.81729
-8.219801
-0.09386214
-2.1251051
-0.3202015
8.568634
-5.6023097
-0.08048926
-0.0003524768
0.026483387
-0.05481046
-2.5906804
0.06938424
0.3340828
-0.047654826
-7.614912
-0.04713683
-0.044325065
2.5313165
1.6563797
-4.477813
4.472126
-0.09976995
-0.8055338
0.31389195
-7.121657
0.3285196
0.07394952
-0.062593535
0.1144002
0.014692566
-0.054166626
-9.612136
6.8866687
-9.076732
3.7705636
-7.527122
-0.8690845
0.006572144
-0.3050319
-0.1730493
8.12702
-0.052894983
4.080728
5.0792937
0.812368
-0.65025586
0.048212763
0.060451683
4.1119742
0.7914962
0.013690171
0.9648187
-0.052997123
-0.6412438
2.783226
-0.040992763
-0.21058688
-0.92792493
0.70040643
5.8580246
-0.06837934
0.11203353
-0.3651791
0.48630458
-0.19938621
-0.003727619
-0.06976903
0.09061586
-1.3851372
-0.09268601
-0.07734831
-0.09531329
6.0106893
-0.09105797
-0.65623343
0.0042780824
0.018964173
-0.03460295
0.098746575
0.24118452
-0.039281886
-0.59565705
0.07839118
5.638395
-0.700609
-0.43949035
0.11559201
-6.0110145
-0.09120079
6.29376
-0.02428698
0.22712067
7.443348
-2.7097495
-0.071168795
-0.09263334
-0.06554559
-0.06371095
-0.87707186
0.048138164
-0.0913534
-0.0038179152
0.010038179
-0.9827488
-0.06791715
0.73641264
-5.563923
-0.016890699
-0.049168695
-0.02932627
-0.1773989
0.99053603
0.6972489
-7.3175235
-3.0693247
-4.7787
0.076600336
0.31836802
-8.285545
-5.470479
-0.15289603
-0.68785876
2.6834407
0.04008458
-0.06541021
-0.039197315
-0.32710788
9.494985
-0.5786643
0.051891107
0.07234836
-0.009870833
0.060125474
-0.97622454
6.617745
-0.026123267
-0.4619952
-0.026964083
4.6104183
-3.1785026
-0.075979345
7.480649
-1.4600285
7.0007286
0.27265456
0.07278537
-9.96096
-0.08878992
-0.0879955
0.08243075
0.37430966
0.031337406
0.6856735
0.33013058
4.970468
-0.6839034
1.5139025
-0.38307354
9.132656
2.821294
0.8404902
-0.015246545
0.0778175
-0.035621904
-0.19590166
9.068981
0.06890784
-0.0067364625
0.0047934353
-0.041745413
5.035039
-0.014604812
0.08739505
-0.073248565
3.2106094
-0.6388801
0.9986303
0.17531884
-9.288507
-0.57402116
-0.23557921
0.81723684
-0.9400385
-6.8529253
0.9855457
0.06869263
-0.010284746
-0.18289751
-3.764548
-0.8510539
-0.08622842
5.0281477
-7.193512
-0.075481296
0.16017391
-0.061916173
0.058633428
7.1608987
0.0009794054
0.040798955
8.904639
7.946955
-3.260893
0.14651614
0.017490136
-7.9737496
-0.23637265
-7.824475
-0.62629914
-0.041093364
-0.084997974
-6.5017953
0.0153938485
-0.096684635
-9.673124
-0.046776522
-0.78918976
-0.010712989
-0.057076275
-0.063390546
-2.3561356
0.006351105
4.251791
6.535966
0.09413031
-0.058526963
-0.07042649
0.069592044
-0.5114741
-0.047178425
-0.8697651
-0.09191819
-1.6716071
-8.908951
0.06171475
-0.57925975
0.49744508
9.573125
4.1710815
-0.08714457
8.59435
9.48324
-0.18089873
0.6227413
-0.05758611
-0.06857112
-0.08598345
-1.6870035
-0.42267838
0.023634935
-0.7980954
0.89722985
0.73101526
-9.646955
0.067134656
-0.8981478
-0.13423832
-3.8482556
-0.6872846
-0.1738821
0.06673269
-9.48868
-0.15512888
-0.52682924
-0.2459607
0.2668904
0.04481229
8.2385645
0.53594816
-5.4835134
-0.96959114
-0.36454204
0.12952204
2.039791
-7.8648057
-0.026327584
-0.6782364
0.078183025
-1.8152856
-0.9912063
0.86340755
-0.060604073
-0.15824506
-0.8482615
0.047885325
1.5720707
-6.0626683
1.4114499
0.0944507
0.06490322
9.132614
0.70804065
0.08981269
0.026349364
0.849999
8.447098
-0.044081103
-0.21926323
0.087304085
0.061960865
6.6163807
-0.54588217
0.05343242
0.24837475
0.044791277
0.38225928
-7.1342134
-0.028825764
-0.42593282
0.10775215
-0.31741765
-0.7028796
-8.978155
0.21604373
0.06126484
6.572254
0.15020663
-0.03672479
-0.37495098
2.880161
0.035288077
0.087982275
0.002928732
-0.061006945
-0.0052357293
-0.46461523
0.96582246
4.85082
6.8135924
0.053645074
-0.025003487
0.98594475
0.06885555
-0.5432037
-0.9567998
-6.085976
3.1919105
7.353725
0.07389253
0.35371643
0.08966458
8.0954075
2.5635881
4.7644267
-0.013123147
-6.155043
0.06129682
-0.07151423
-0.089272104
-6.2529917
-4.866134
0.08447627
1.8883424
0.4441261
0.797472
0.67948306
-5.285399
2.119124
6.842847
0.007300577
0.5624811
-0.24072894
-2.9380224
-0.0060329204
-0.0003756273
-0.7050736
8.508347
-0.09259788
-9.357621
-5.4033213
-0.049628954
-4.019104
-0.77909434
0.0591106
-4.4937477
0.4728474
-0.034630917
0.9501998
5.3631325
8.380737
-0.06735961
-0.68047047
0.5054433
-0.9110324
-0.068642676
-0.677633
0.32772565
-0.7999824
-9.704951
-8.808626
0.6039087
-0.3355658
-0.020631587
4.629446
0.06266813
0.0045332457
0.0992044
6.4944105
-0.05245253
-0.0497723
0.026449213
-0.9096411
-0.67132455
0.2835453
9.286279
0.05377621
0.34097606
-0.9728732
0.050001957
0.024483392
0.59385675
-5.942361
2.7038422
0.5484871
0.08047722
-0.03350668
-4.782553
0.97646606
-0.6931526
-0.77302295
0.7849912
2.683868
-0.7829884
-0.09202516
-0.95890576
0.03725683
6.9703116
0.11843307
0.84768
-7.3384695
3.3694112
-0.11622705
-0.022865536
-0.008936944
0.44715044
0.81480134
0.5486849
0.04576872
-7.1570845
-0.031283922
0.17979375
-6.735113
-0.06245833
-0.027140351
0.00928998
-0.09193174
9.648458
-7.745094
-0.24747206
0.73406976
5.3868623
-0.14815736
-6.617684
-8.363657
-8.650922
-7.5674667
0.048743524
0.009768899
-0.43215737
-3.986557
0.054394137
0.051613063
-0.76492727
0.91483825
0.8232625
-2.9466853
0.08234199
-0.9551382
0.12911649
6.856424
-3.65661
0.7189549
0.8215648
5.939353
0.49261847
0.031272046
0.08900386
0.026471209
-0.043603975
0.30646664
4.7046537
0.64000726
0.08127434
-0.002156816
0.064317636
0.0056219427
4.8825617
0.09481853
-0.07203302
-7.178369
0.048235644
0.58816093
-5.244332
0.03402197
-0.049720995
1.818879
0.00081512786
0.0013869427
-8.2558155
0.2918844
-0.016620059
5.876515
-0.09596461
-0.64162475
-2.639712
-8.479911
0.34695852
-0.9863499
-0.04472567
0.70857966
0.21448372
-5.8623514
-4.1822786
-7.1552596
-0.060433406
-0.037797708
-6.5943203
-3.1101809
0.014165811
-5.3696413
0.3060904
-0.066128574
0.36447656
4.0368896
7.557417
-0.09923767
-0.17997047
-0.8691963
2.0219417
0.9759202
0.12491587
3.3361497
0.7475536
-1.4655923
-0.7573265
8.027819
-1.2149726
0.09314058
-0.012269556
2.2006066
-0.011445498
2.3767018
1.981361
0.50800073
0.8135698
-0.02530014
-0.5738626
4.664494
0.32002342
6.210834
-0.18488356
0.05162316
-6.3750916
-0.21758012
-0.07853509
0.03514913
3.652682
0.33799914
0.02789142
0.13379572
-0.41952592
-3.6849997
0.08960891
-0.9945619
-0.05736195
-0.4578057
0.048723623
5.9632
-0.075240426
-0.12021723
-6.378537
-0.05133765
0.42696798
-7.536982
-0.006208364
0.33600387
9.604422
-0.08457465
-0.046033025
0.9945666
-0.017180337
0.021955984
-0.32543823
-0.8427468
2.8597038
5.478768
0.81154007
3.3813736
-0.6880386
-2.1461475
8.848274
-0.029937914
2.215263
-5.2145495
0.48078516
0.019566344
0.82964
-0.024163969
9.571485
0.84794116
-0.32168916
0.41468966
0.61963713
-0.04674797
-0.0022230379
4.1515393
0.023065802
-1.4203345
-0.93250287
-9.827894
0.05323828
-0.44499916
-4.782347
8.934508
0.3371798
-0.4368869
0.8990807
-9.202166
0.048951697
-0.018042456
-0.26204664
-5.4752674
-0.00024652088
6.230087
0.6994891
0.6122792
5.0397654
-0.089978166
8.00186
0.039523974
0.33935347
-0.06178992
-0.069891796
-0.28861588
-0.07612741
-0.8083035
-0.95609736
7.9183645
-3.835135
-0.29400134
3.1330385
-0.079280905
0.42253485
0.5341979
-6.2910604
-0.2532331
-0.03646453
0.045683134
-0.55630547
-9.346402
-0.17592758
-5.1125755
-0.09277813
0.5680583
0.02959988
-3.2635603
0.054606058
0.12165718
-4.8913827
-0.05346773
-0.06986562
-0.064970024
-0.39332205
-0.041198798
-0.072354965
-0.033671007
-0.23571645
0.42650566
-5.61595
0.66541356
6.452873
-5.718062
-0.5000295
-0.56575114
-0.08481669
-6.4494853
-0.942214
0.5458293
-1.3533643
-0.059602574
-0.30214489
-1.0128874
0.14288107
4.9402556
-0.010395169
0.064864226
0.5195756
0.29753342
-0.4717331
-2.3452837
0.102313764
9.019017
0.784846
-0.3371211
0.63363606
5.3841634
0.5452776
-0.017154044
-0.9027778
6.6775594
6.134161
7.6258426
-0.050508108
-0.018365078
-0.027267842
0.50269204
0.08288048
-0.019085577
0.024366824
-0.025574837
0.014120285
0.89264596
8.168911
-4.4282813
0.81281507
4.7574897
-0.077858955
-0.4641839
-6.2889395
-0.08446487
-7.4901195
-0.044003483
-9.563603
-0.3008203
0.16913441
3.0462554
6.196737
0.07250269
0.036635213
-0.39002994
-0.1108668
0.06248155
3.067811
0.4079462
-0.04936742
0.32959604
0.046098202
-0.0017361494
1.1196219
0.5593327
0.50627685
-0.07522043
-5.9302006
5.345269
-0.82450897
-0.088278785
-0.043027997
-0.46339867
-0.062864706
1.8551537
-0.027310342
-0.16564561
-2.0673745
-0.0069449455
-0.07427809
-2.9033968
-2.985525
0.04099713
-0.010774388
0.8215097
-0.06579259
-0.073862106
0.70114106
0.1025762
-0.07593702
0.0015353475
0.50667185
-0.07686616
-0.7601013
1.9307314
-1.9178861
-0.6927274
1.359576
7.2738953
-6.7419777
0.0098686945
4.2046595
2.9448245
-6.2990417
-0.45366147
1.1109506
2.9330585
-0.07983619
0.09141554
-0.01591213
6.4806833
-8.894823
0.46173868
9.110355
-5.726502
0.0034043558
0.61119366
-9.737421
0.0784432
0.9119644
-0.047252975
0.014233672
-2.2683313
-0.039727326
-5.641176
-7.8952355
-0.032346442
-3.0105243
2.781975
0.0256871
-0.003126775
0.18085696
0.78357714
-5.1515207
-0.0679764
0.009777107
4.0649514
7.798547
0.054395832
0.085339144
0.06828504
0.0015898035
0.08271516
-2.8256629
-1.038537
8.870954
0.09312623
-0.335109
0.48832858
9.644178
0.09863477
0.08604991
7.2931676
-8.443155
-0.58183163
-4.3499956
-5.7970667
0.076984346
0.5508929
0.075715505
-0.084389694
3.2228045
0.037954323
0.3779579
0.7574029
2.3446946
-0.046588693
-0.029671613
0.06844768
0.017653652
1.7542164
-2.9040515
0.2552796
0.044722524
0.4659495
-0.098658286
2.324856
0.05394592
-0.023599416
-2.7374313
-0.1604135
4.3108025
-0.17975433
-6.622428
0.78953195
-2.948377
8.366553
0.084933095
-8.055808
8.192327
-0.92027587
-0.09928777
-0.079218894
-9.213453
-0.009704162
0.12690566
-9.929868
0.061438493
0.26499566
-0.023654602
0.01965471
-0.5882569
0.07595783
-6.656268
0.42582086
-7.428743
-0.06745654
-0.8224532
0.14852484
-5.447893
0.9046533
-9.145838
-0.0995241
-8.416142
0.51900667
0.74580777
0.094344184
-0.29561758
-0.7682999
0.07852794
0.055648036
0.040046427
-9.44064
-0.36660245
-0.01066453
0.06844418
-0.054768246
-0.9216222
-6.131661
0.85901445
-0.07397025
-9.357198
4.8319516
-9.783105
-3.6370363
-7.6164894
-0.9429218
-9.35497
-6.2161703
-0.16513695
-0.04814027
9.625104
-0.07952405
-0.2464251
-0.06455443
0.08374758
-0.004115486
-0.4358065
0.2767471
9.645264
0.08460052
0.095936984
0.03846763
0.020848064
0.2833737
-0.08616064
0.06538614
5.0163083
-0.03828565
0.016149435
-2.973125
-0.23224953
8.474857
-7.701533
3.5969577
0.25652984
-3.6112754
-5.748354
-0.09258406
6.611493
-0.0068943356
-0.111961864
0.2260444
-0.39232686
0.6260726
-7.1003776
-0.08692874
-7.848768
-0.14193703
-1.1540658
-4.807788
-0.3127672
-0.061985627
0.5135544
-0.48414296
0.08167505
-0.80476665
6.3275533
0.0993054
-0.22874166
-0.8589313
-0.905142
-5.80218
-0.0993844
0.009614847
-0.13475855
8.798662
-0.17140509
0.07055871
0.96023667
-0.95010686
8.606669
-0.08434179
-0.42008287
0.41545153
-0.95089924
0.6957758
-1.2781148
-7.2325106
0.87599313
0.08636791
0.014191498
0.0785387
-8.865924
-0.8008092
-0.054548297
-0.017839044
-3.0226734
0.023977863
0.77826864
0.5645376
-0.08874057
1.4091376
-0.44454888
2.246763
0.2581124
0.87365365
-5.105116
0.034293525
-0.46205452
-0.028947907
0.92886204
-0.062336605
-0.48261935
6.2904325
-0.019990036
-0.4570633
5.927172
8.06385
0.036248293
0.82608616
-8.792368
-0.01841526
0.008686262
0.08413671
9.722054
-8.900848
-0.6911443
-0.08786111
0.04633129
-1.9932041
-0.3765041
0.9196095
0.027296446
0.5931832
0.78130853
0.047791574
-0.54000485
0.8253726
0.075426236
0.07570873
-0.8133844
-6.293033
-0.07874332
7.9075
-8.896027
0.4846771
-2.761717
-0.008675959
-0.9522072
-0.740665
-0.094416074
-7.1291437
-9.814893
0.018060679
-4.374466
0.030585121
-0.06912048
-0.95422524
2.0687196
5.505855
0.4174929
-0.049642637
-1.6922035
0.035307202
-0.6406472
0.0052256
-0.31128418
8.039673
9.042795
8.614545
-0.016704034
-5.1320033
6.474001
0.9565913
0.9892323
-0.044283155
-0.008877339
-0.7054293
0.040287063
-0.74516886
-7.7826395
-0.01812874
-2.5405343
0.25799808
6.735536
0.43447635
-0.59026927
-0.59797025
-0.019439083
3.7767496
0.17804831
0.6247918
-0.12651381
0.06371144
0.0889745
-0.6738272
0.056817774
-0.09507244
0.9546555
-7.5768
-0.5734821
-0.090645336
-4.3167377
-1.9826617
-0.04598522
0.5286771
0.045688886
-2.8673024
-0.11829197
-0.092109576
5.5392785
0.04618794
0.62743676
0.06728705
-0.08312426
-0.017741205
0.9971046
-0.02038785
-0.04529594
0.18815988
0.063990116
-0.0055261427
5.566507
0.8872269
-0.094054736
0.8205481
-6.866137
0.9310462
-1.4888823
-0.056056216
0.01879695
-0.5828039
-0.059760932
-9.979558
0.088729076
-0.8812377
-0.040726934
-0.054360215
-0.93160254
0.070294626
-0.09567907
0.0049668797
-0.04866215
0.01267266
0.44004968
-0.76140505
-2.3181837
5.68893
-0.07023188
0.44381762
-0.067371026
0.198742
0.68880767
-3.6050513
-7.613614
-0.68147236
-2.4241755
-0.85935205
0.067872226
0.4298201
0.04983192
-0.0718897
-0.066128835
-9.906742
0.6754071
-0.006428798
0.31555092
8.043594
-0.099584766
0.06815542
-5.0306044
-0.6459132
-0.2773018
-3.1100764
0.050251413
-0.048766885
7.9435344
-0.93828905
0.5597783
-0.6144026
-5.065003
-0.009260489
1.4736662
0.6959575
0.020027598
0.094251364
-9.335365
0.39503887
0.18264504
8.266778
-7.987613
-0.06021098
-0.06844948
0.8977685
-0.09074059
-6.7513814
-0.064276695
-5.9681935
-3.8578062
-4.884156
-0.060365424
-1.68415
-0.029061906
-0.6443976
0.08867699
-2.2773163
-0.016807495
-9.646608
0.71631247
9.418126
-0.066131115
-9.824174
-0.07698787
-0.96562743
-0.62320656
8.234899
0.09233768
9.709714
-0.0054647136
-0.013914578
-0.34781653
0.8435588
-0.37470356
0.013225928
0.5791818
6.136654
-0.09132694
-0.06590196
-0.62569344
-8.076515
-0.70616525
-0.020710269
0.06155964
8.585396
-0.60732853
0.14065763
-0.35505748
-0.036631297
-0.69691944
-0.022888632
-0.4705386
-0.00726134
-0.0873195
0.9946028
-0.3885071
-0.084287345
8.10906
-0.88187027
0.039347064
2.6637259
-0.39010888
-0.049856815
-0.5897241
7.8352637
-0.77645516
-8.392577
-0.090496466
-0.44808322
-7.2348657
-0.02851105
6.9567714
-0.19131331
-0.059803586
-0.9170953
-9.45777
0.098176934
-0.03690621
0.074355066
6.138316
-0.3476134
-0.51146615
9.357963
0.31107664
0.084994875
-0.040505785
-0.03473736
-9.309069
0.19323209
0.16174503
-0.049591053
1.8003659
-6.070481
0.5911168
-3.589786
0.06386913
5.789787
-0.073885754
0.1572598
-0.7168655
5.927963
3.5020144
-3.695535
-0.9765817
-0.3485549
-0.809766
-0.020588098
0.064976245
-0.03163986
-0.3850664
-0.8808966
5.70889
0.70705676
-0.012059344
-0.07757775
-0.01644752
2.192668
-0.93470305
3.1443782
-2.279175
0.82488227
-8.983949
0.09024942
0.93073684
0.03300925
-0.43379927
0.685892
-6.6860642
8.871177
-0.7233236
-0.48217723
0.023860088
0.07974323
0.17167024
-0.07201457
0.88672006
0.124078445
0.26161522
-0.058016937
-9.490772
5.803382
-0.0954412
0.29396847
-0.00877903
1.6409457
0.054048948
0.44242868
0.1419578
-5.9940057
0.7845154
-0.4669212
-0.18083636
-0.012194977
0.43839985
-2.8886218
-0.34471744
-3.5300827
0.07245416
-9.129456
4.8309894
0.15857626
0.010003368
-0.1822204
0.09339893
-0.07564564
-0.9655103
0.31665665
0.33232555
0.054908466
-2.588119
0.00079922745
0.05630282
0.6942582
-0.040993318
1.6304402
-0.805452
-0.30971143
-0.99981827
0.021895045
-0.3569318
0.7999839
-6.1436214
-0.006353234
0.0010601417
-0.14147092
-0.44049954
-0.8927395
-0.01889296
5.866181
0.010718828
-0.050964896
1.3756143
0.5258417
5.232025
0.77415186
0.27619687
0.21013558
5.0659533
0.0028953524
-0.13261612
1.9627885
0.028422987
-0.41566727
8.8829565
9.086381
-0.04336818
0.047791783
-8.652343
0.4160088
-0.07987808
0.2231637
-2.4825344
0.08764947
0.28402677
-7.159841
-0.07798436
-0.9208388
-7.0657706
3.48209
0.26086184
9.558482
-2.2338548
0.0045698537
-0.5506494
0.07706504
5.249588
-0.03842139
0.044138744
8.913708
0.52154046
-0.030493148
4.8663845
0.31826997
-0.15478314
-0.995168
-6.6678553
0.7627502
-0.08151699
0.08586157
-5.587431
-6.3380694
9.667168
-0.7177641
-0.17527944
-0.054548632
3.4858527
-0.02778855
0.788069
0.574074
-0.4215791
-6.009842
4.1739545
-6.6047306
0.047124714
2.28177
0.030680008
0.9194298
-9.5198965
0.56276166
-0.03726962
6.0776925
0.54773813
8.961924
0.04855182
0.84706354
0.026579952
-4.4747887
0.015220247
-0.05470014
-0.3353573
-0.6229138
-0.28995726
0.90056074
-0.40878275
9.84963
-0.024031602
-9.720937
0.47537017
6.375281
-0.048476957
0.065936245
-0.25144708
0.89930475
5.07259
0.08460547
-0.010154335
0.06785922
0.08419363
0.7336515
-0.072986744
0.40005213
0.0018714712
-0.8282138
0.45194888
-0.0011949907
-0.03149874
4.2984114
-0.59546834
-0.40897346
7.8470125
0.0905595
0.013550493
0.5364057
6.533625
0.54142886
0.040455915
8.452749
-0.04352418
-0.3764865
0.03655931
0.016089415
0.7604364
0.03315079
-0.035577048
-0.06726952
-0.017334111
0.9260965
-0.6130175
-0.75436234
0.9395753
1.5928811
-5.7700896
-0.065612115
-1.3568242
-0.59009373
-0.08651082
0.4287546
-9.193768
0.0075997515
-0.6929353
9.8441105
-0.6461645
-0.92381334
0.33399543
4.7665977
-0.98268056
0.046189595
-0.03423087
0.024436705
-0.2610127
5.9953527
-0.74513966
0.8189071
-7.080071
8.937383
-0.023284128
-0.06850946
-1.3124074
0.049838506
-0.009166335
0.09302604
-9.761825
-4.3854513
-0.8147418
-0.094814785
2.542648
-6.6274667
0.62712187
8.026258
0.05193842
0.77229524
-5.3673
-8.945251
0.05415533
-0.089891754
0.71903825
-0.83634365
-0.008601731
0.057984423
0.0679881
0.92300993
1.0334843
0.016584653
7.5913897
-0.8493052
-0.74851406
0.0059375037
0.7088218
-0.18318251
2.799328
6.1076007
-0.72472894
9.889785
-0.08355185
0.031190936
-0.031554382
0.9734123
0.021058587
0.027414694
0.13586459
0.36027133
8.076395
0.26373932
-0.60399103
8.959262
0.022551615
0.28389344
-8.681822
0.66472745
-0.05104387
-1.5899562
-0.4445497
3.7520077
-0.06040157
0.96509284
-0.019506304
0.69339204
-0.031381804
0.07532635
-0.34198308
4.7790103
-0.89187694
5.1558533
0.0874558
-0.008897029
3.9122515
-0.9193044
-0.047876555
-0.08834173
-0.022262977
-2.0732572
0.8017121
-9.792148
-0.28139633
6.953356
-0.84603995
-0.38298538
0.033465225
-2.077098
4.9114685
-0.1759479
7.7752967
0.36258325
8.866222
-0.0115148835
-0.034185093
-5.5651417
0.03501944
0.2831607
-0.95178735
-2.9760735
6.266358
0.06258596
0.3819539
0.95378774
-0.040635236
5.438913
-0.42669445
8.32185
0.17241779
-0.0025796604
0.06624441
-0.036525186
0.050304044
-0.090155646
-3.2382457
1.7277942
-9.561189
0.0787524
-0.0069086393
3.8175542
-2.6256142
0.07775805
-0.08425793
-0.43962464
-3.1160223
-0.0888697
-0.40152377
-6.5596175
-0.4778936
0.57613486
0.640417
-0.026529418
-0.03584534
-0.37859902
0.051731415
0.6312587
-0.40080926
-1.5783553
0.030446641
-7.0897694
-0.76668274
-0.09412899
-0.4350635
4.142398
7.84667
-5.2652206
0.3509126
0.0945275
-0.08053452
0.2716123
-0.059734244
0.24414791
-2.4149485
-9.336662
-0.04495338
0.41680858
-3.9728675
0.048075203
0.05430396
7.112401
6.156026
0.040024094
-9.820896
0.09326403
3.2827013
0.015915778
3.6146646
0.20621245
-3.2148561
-0.07142948
0.058258172
-0.5634297
-0.052790932
-0.00021640875
-0.11858141
-0.042533305
-5.634096
0.059164368
-0.5223113
0.07155403
-0.09976028
-0.3873902
-0.9646028
0.74892944
0.87154603
-0.20080516
-0.053399228
0.09616081
-0.015612024
-0.72863144
-8.343418
0.09193546
-0.55239403
7.2966866
0.060325503
-0.27775463
-3.4745762
-0.24048415
-8.631227
0.6721431
3.0875008
0.77495396
0.057007685
0.9151297
-0.024335548
1.1513865
-0.04549622
-0.3311784
0.37685367
-0.05514841
-0.7865635
-0.5855881
-4.6635323
0.59065276
-0.054676563
-0.90281194
-7.1143527
1.0664954
-5.7708154
-0.0226439
0.32531613
-7.449004
-5.4761763
-7.9035616
-2.4650004
-0.52989095
7.6872478
-0.7597606
0.08661164
9.9808855
-0.0408026
8.124384
0.23254652
-0.006448439
-0.31891093
0.03391241
0.08345945
0.09111592
8.565059
0.07311065
2.455399
-0.706009
-4.2797904
-1.4453666
9.486139
-7.2857656
0.60624576
-0.47771266
-0.09864691
5.7354393
3.9479954
-0.25516468
0.8139651
-0.089163356
0.054200925
0.07695216
0.03248482
-0.9966654
0.09499612
0.056296743
-0.4989052
0.02597823
-0.9344616
8.091112
-9.661076
0.17089756
-6.8675795
6.150717
-0.03404698
-0.0971006
-8.532957
0.00078935147
-0.18248217
8.009093
-0.56262064
-0.06861789
0.9851147
0.42718014
0.030791268
0.03940201
-0.5806932
-0.010143977
0.34955078
0.06839541
-0.2254614
-0.21819232
-0.07632484
-0.51384956
0.09269488
0.004853384
-0.6908688
-0.068008035
0.07943803
-6.3132167
-0.010335287
-0.26466557
-0.07071138
-0.09548155
0.5016199
-0.58341044
-0.057759944
2.8453333
0.034211986
-2.5549245
0.07452674
-0.097027905
-0.14509673
-0.0020340825
-0.57890254
-0.862937
6.3845387
-0.012753992
-0.04431838
-0.0912601
