2.333583
-0.04416691
-0.07486489
-0.36870492
0.9938005
-1.5381389
-7.750341
9.634604
0.043999292
0.21708639
-0.7207595
4.8626404
9.435631
-6.4200764
-1.4011531
8.395297
-0.031331856
-0.022154089
-0.9427618
4.947089
-0.069764495
0.3299712
0.7427931
3.6286922
0.9849935
0.30502623
0.4953294
-0.09567859
-0.015522893
0.030594755
0.016390549
2.904241
0.11832855
-0.04510004
0.023106027
-0.07963011
-0.486333
0.08851794
0.07844438
0.0067438246
-0.9972513
-0.8109535
-0.0033310154
-6.0732245
-0.8159478
-0.07722535
-4.930058
-0.9513658
-0.060968842
-7.7671256
-0.4426187
-0.0030532228
-0.005795654
-0.011997921
0.89002216
-0.03516913
-9.087693
0.8862599
-0.5588386
9.052481
-7.419504
0.99075377
0.271498
-0.9805608
0.019419337
1.4452759
0.08898683
0.09129124
0.40201223
0.56614304
-1.235471
-0.23227417
0.8210261
0.044294417
-0.5021416
0.020210158
0.9246905
0.11630225
5.393338
0.022517314
-2.7424726
-0.017164342
-0.3949946
0.38094538
-0.0455058
8.7410345
-0.008798682
0.87229687
-0.3281309
-5.289977
-0.15211388
0.8840487
0.05222546
0.014792124
7.801995
0.27872875
-0.02621336
0.070123084
0.0558325
-0.23990911
0.0929075
-0.0840855
0.09648317
-0.01678292
-0.097263105
-0.53333867
0.79559743
3.1245704
-0.07669598
0.017445205
-0.02087686
-0.25414896
-0.5030596
-0.1883296
-0.8061215
0.022135032
-0.045685306
7.517704
8.590281
-6.2389665
-0.7249958
7.719323
-9.527296
-0.067026995
-0.06587162
-0.07253187
-4.1333175
-0.011505516
-0.8615677
8.741304
0.918873
0.113416836
-7.2316465
-0.915777
0.42643058
0.01602946
-0.19026287
-0.6296703
0.27950397
7.129153
-9.871413
6.801569
0.022285288
0.45958465
0.61664265
-0.79466707
0.08856826
-0.32052857
-0.013494775
2.96049
7.841179
-0.7529096
0.05059695
-4.8837214
-4.085447
-8.9929905
-0.018385347
0.66241395
-0.06378672
7.624648
-6.096167
0.31334397
-5.560401
-4.8461046
0.0023923097
-9.528627
-0.838674
0.06848329
0.02174798
0.33754447
-9.885178
0.094557665
0.0040144986
-2.0731666
-7.0610523
0.7530671
-3.7947319
2.6607351
-0.0135239065
-2.8213902
0.37896788
2.0164733
0.061674815
5.3414655
0.85865813
-0.9930449
5.444179
-1.0867783
-0.64541286
-1.5217508
-6.3371015
-5.079335
6.3915844
0.2585786
9.547885
-0.22612242
-0.94417447
0.06405625
-7.334174
0.12035117
4.7405567
-0.9505076
0.5204024
8.0784
4.268951
0.48549056
-0.044309016
0.28474396
-0.619418
-0.08158449
-4.07245
-0.9148255
0.421708
0.31907853
-0.09221189
0.021823037
-0.055958692
-0.06772142
-0.0026124606
-4.191043
-8.194006
-7.80432
-9.010227
0.01650026
-0.09240362
0.06787791
-8.911592
-0.3397193
-0.90916145
0.08588731
-1.1834143
0.011947572
0.016090589
0.6605597
9.594782
0.0851803
0.07107977
-0.9224753
-0.066535175
0.027600337
-0.71362525
-0.4926154
3.6188776
-0.95453954
-0.41637707
4.2124677
2.331483
7.836757
0.6354535
7.0867186
-0.052105837
8.51217
0.18069708
0.059420437
-7.2721057
0.39636245
-0.85191226
-0.12757869
0.20628686
3.2813594
-0.3974216
8.108479
0.0029031697
0.4475043
-0.07463412
0.02289654
-0.015778048
-0.08197604
0.043772396
1.8420304
-0.20144798
-0.01096646
-0.09521138
-0.09285024
-8.038126
-0.0683032
-0.018327698
0.5871201
0.03354816
-0.016842732
5.360004
-7.8390455
3.400783
6.5867243
9.823451
0.046178564
0.086514935
0.352092
-0.019823683
0.04772545
0.15077409
0.04405889
0.38800415
-0.8917166
0.043416716
-0.5300229
0.06356777
0.8119843
8.307606
-0.05024105
0.08353771
-0.72797847
-0.064289615
-3.6398547
-7.8536434
-0.787354
6.714184
-0.079105236
4.027799
2.2195897
0.03374484
0.062955484
0.53172654
7.083121
0.04220909
0.09314805
-7.5597286
0.02587894
8.665665
-1.2273605
7.35896
0.09180769
6.091404
-0.0931456
0.4227034
0.8885899
0.91896796
-0.028057558
0.0430813
2.8206594
5.7183204
0.24811128
5.5399394
0.039773323
8.248072
-6.2801056
0.2605714
4.702911
-9.777789
0.00018421757
-0.5048893
0.028567908
-0.8762486
7.428229
-3.1193774
-0.3741839
0.0214998
-0.018453343
0.43095672
-3.3556778
-0.21365084
7.211555
0.046751235
-0.40902156
-0.89533794
-1.606466
3.2838144
-4.5224433
-0.7037436
-0.015495516
9.8974085
-0.68868273
0.081107974
-2.833267
-0.38556272
0.6519888
-6.1893716
-0.036669277
3.9157846
0.2847509
0.057367917
0.36567897
-8.289102
0.01001491
7.1098924
-0.01958688
0.7806762
0.7446189
-0.65654296
-0.0045747343
8.932439
-5.308582
-1.1160675
3.6372209
0.30938256
0.97628254
-0.08074354
0.68758714
-5.958733
-6.7200537
6.422794
-0.89347094
-9.034011
0.5862574
-0.40440288
0.08663302
0.04426246
-5.7736735
-0.43263325
-1.8952119
2.506392
-0.23259172
0.50445235
-6.550165
-0.7194746
0.050421167
0.846841
-0.5514505
0.05274189
-0.58835053
-0.33469105
-9.994137
0.068779945
0.63737917
-0.0065803765
1.8040073
0.04861357
-0.05151722
5.9903975
-0.051921494
2.3282714
-0.024298253
-4.5386686
7.2763042
-0.40258908
0.7296257
-7.106068
-0.051300883
1.778537
-0.034686368
0.09326685
4.774256
-1.98679
2.9115934
0.07449141
-0.3779849
-0.0069736424
3.9382675
0.10708865
-0.040850278
8.833362
0.8479509
9.364765
0.04280228
-0.049009755
1.3893045
4.0273304
-0.03340761
0.36891
-0.05803005
-3.7705588
6.453741
0.0012491421
2.0815644
8.416672
1.3522998
0.7503003
-0.06723963
-0.6463185
1.9952549
0.47395134
0.5049246
6.2588425
0.048534647
0.051547218
0.22777788
-0.340729
-6.195456
1.256539
0.07514815
3.1633618
0.032484766
-5.2267714
9.3167
0.0414058
-0.4080659
-0.014104896
0.08052099
-0.012525874
-0.24239966
-8.372146
-0.44998226
-0.7536634
-0.066516146
0.67070764
0.096283965
2.2833977
4.471182
0.15942898
0.085510015
-0.028347205
0.81868625
-4.4015846
-0.9817286
0.008730262
-2.058639
0.032075766
0.5480737
3.356334
0.46319133
-0.03377036
0.044793203
2.0402322
0.7639766
-0.825477
-0.08243339
0.57600564
-0.03045499
2.0848212
-2.2971003
0.08847571
-0.034307238
-0.5575362
-0.057607554
8.465628
-0.04867758
0.246799
0.78629225
0.75063205
0.09343286
-0.42401996
0.040051095
-2.2314503
0.03873008
-0.5474555
-0.23431182
0.40561947
-4.72064
0.27758357
0.017710159
-0.11026412
-0.036797386
-0.5417229
-0.43730843
5.07084
0.084559366
0.04472881
0.049358685
0.09537675
-0.01051216
0.085166484
-7.11114
0.017628483
-0.45114946
0.082094625
1.1552414
0.08366834
9.359606
0.059122883
0.055315457
0.09268931
0.08745625
-0.14734909
-0.046971872
0.032832574
0.031934828
-4.0718603
-6.986696
-9.831388
-0.7344672
0.71300197
0.07394217
0.020503376
-0.112352625
-0.03282897
-0.54364616
-0.07036969
-9.162028
-2.1676958
0.034024537
-4.949149
-0.4168429
0.09988509
-0.20844844
-5.1441183
-0.69824135
-0.50764346
-0.09196319
-0.009011256
-0.46045002
-0.7620586
0.38157913
-4.2666097
0.19789512
-0.04082375
6.90579
-0.66545016
0.08708988
-0.08670248
-7.715303
-0.081915125
0.6370536
-0.08721286
-0.3383225
-0.061965894
3.0764964
2.645288
-5.112109
0.015900481
0.04798962
-3.443521
0.628079
0.104425065
0.20601256
6.131814
0.002751951
3.8574429
0.0716171
0.8425518
-0.029855551
-0.011245107
0.46458015
-0.6549069
0.8214621
-4.6246347
-0.09344866
-5.212621
-0.3692835
1.9319277
0.30013558
-0.14659521
7.0157614
-0.049586277
8.758919
-7.640334
0.9735144
0.05890353
6.0276847
0.9585217
0.42746884
-0.05107618
-0.5002431
-3.33325
0.6839389
-0.2277386
0.7271742
0.011375776
-1.889613
-0.2690899
0.07414429
-9.8697815
-0.049087442
-0.6940003
0.7751124
1.038957
5.350979
0.006227354
1.2746676
0.036738865
-0.0095019825
0.058501925
-0.8176007
-0.093792394
0.73922765
3.40894
-0.09146127
6.9860106
-4.292359
-0.79418516
-0.04588154
-0.5149782
6.741183
-0.38572186
0.9316228
0.07356801
9.973368
-0.29830328
0.7153543
-0.057365507
-0.06916059
-5.550973
-3.0221806
-0.026446896
-0.6287641
0.9960884
0.056277312
-0.25556278
-5.5061483
0.09981674
-0.55549175
-0.14734775
0.08098926
0.5255373
-0.070529066
0.8102464
0.0030054548
-6.534329
0.0100238845
-0.28256345
0.29497877
-0.015552282
0.040751353
1.8589541
-0.056150004
-5.756216
-0.37128893
-0.0889254
-0.36853293
0.025186524
-0.08057428
0.44528908
0.47500092
-0.5012826
0.08674228
8.225957
0.66879255
-0.7705748
0.16063866
-9.289491
3.8029537
-2.48746
0.01799278
-0.07489182
-1.873401
7.231582
4.4999747
-0.08709876
-0.81724006
-0.057614543
0.018190648
0.21505865
0.8285069
-3.210385
-5.688826
0.27648237
1.9606982
8.488093
0.098827735
-0.71146333
0.15220302
0.09188763
0.69211507
-5.801084
2.440016
-0.03062515
-0.16222322
-9.379204
6.387159
5.041197
0.00023988832
-0.38177776
-0.31003758
-0.07598753
5.7008266
5.3381963
-0.08181065
0.014067169
0.07475156
-0.67190075
-4.347715
0.06913439
-0.869768
2.226966
0.90907663
-0.61098343
-0.3522059
0.039376
0.02973455
0.82245946
0.39132112
0.06580389
-0.02300066
0.05204985
-0.077846944
3.4050806
-0.08754104
0.020329705
0.45260885
0.06582845
0.6935269
0.022123296
0.5126328
-0.02718188
6.2421803
0.12375261
0.060063444
-3.7420273
0.7943737
-4.9944158
-0.9688639
0.08411935
-6.984698
0.049623728
-0.8679092
-0.019218843
3.8157883
-0.054877833
-0.025738766
-0.6249416
-8.401376
0.6068899
0.05212005
-0.09156096
0.019600632
-0.07382786
0.99196297
-0.010998723
0.00065043836
-0.09487436
0.09678111
0.38995552
-0.02116247
0.19896328
0.059276957
0.29895356
8.042358
0.5878199
-5.0586624
-0.21262197
0.05322177
-0.55757844
0.06343623
0.008939087
-0.011536932
0.88740003
0.06121092
0.04856401
-1.2689251
-0.43525654
0.5664401
-0.05627429
0.09130317
-0.036607187
0.08189245
0.06721398
0.025271062
-0.08259948
0.90528756
-6.93634
0.7593748
0.065026894
-0.010048281
-0.50237226
0.07701384
0.71316415
-0.46082085
-0.63236374
-6.1280003
8.5245905
-0.813716
-0.078052625
-7.43752
0.07858265
-6.108707
0.08274662
-0.7968523
0.008445004
4.839968
-0.08970715
-0.48336518
0.0067871097
7.185141
4.9621053
-0.09503715
0.019616092
-0.08680547
0.701949
-0.0955693
-0.6970771
-0.15372093
-4.3318534
0.052716974
-0.08278295
0.07593281
8.455879
-0.2741419
-0.8527091
-0.01450575
0.021371126
-0.47744605
-0.03104648
5.7054157
3.9729245
-2.793412
-0.12963623
0.025222432
0.055740207
-0.3390053
8.067635
0.0257476
-0.09512506
0.8393424
-5.197576
-0.2484607
0.60885805
7.4147396
-0.083319604
-7.8770266
-0.038309116
0.3694594
0.82293206
-0.09915876
0.011996388
0.07891825
5.8953176
0.09552687
0.070753835
-5.748919
-0.8627138
-0.060300406
0.022849651
-0.09580236
-3.2572916
0.040118396
-0.40491033
3.7170782
-0.09066478
0.021090537
0.05111306
-0.046827536
-0.047296043
0.41791788
0.730846
5.0304794
-0.26209313
-0.08572925
-0.4108442
-0.008511389
-8.503161
2.7123137
0.16563202
-0.91556615
0.033385277
-2.8284118
-0.020585055
5.9971557
6.445351
-2.3936045
-6.970594
-0.9774891
6.9060855
-0.7011922
5.05158
7.3603706
-0.9787637
0.0023889027
-0.09417578
0.04662021
-0.050555922
0.544388
-9.735871
0.08983601
-0.013490397
0.80719906
0.67825556
-0.043088034
-0.093377374
-6.05765
0.9168941
0.20258431
2.374226
-0.09328752
-0.8832793
0.41564918
-5.567223
-8.259724
-7.5349283
-0.47201166
0.030076317
0.094491966
-0.0008056157
-2.7702112
5.9185543
-3.6136281
-6.266344
-0.8246685
0.39394033
-6.96047
-6.1321917
0.35216773
0.9770071
0.31653586
0.747426
0.037755463
-0.019425342
-0.9699855
8.255878
6.602544
7.256697
5.436822
-0.0019284592
-0.03748646
0.6322055
-0.084539175
-0.9272671
3.3557057
-3.1729872
-0.79993516
0.7862491
-0.08326961
0.4935253
7.439936
-0.013969797
-0.014397818
-0.6839979
0.073354304
-0.096872516
0.20834774
-6.1468945
0.06425392
0.04437446
0.46305615
-2.3440917
-0.085075304
1.5059936
0.20851478
-0.69685155
0.7131133
-7.6068025
-0.9059804
0.59209096
-4.050374
-0.03975289
-0.025955906
0.9330878
5.47713
-9.453521
-6.4020343
-6.0123873
6.604129
5.6869755
-0.070749454
-0.22689377
-0.1581955
6.3663993
0.9726583
9.716848
0.3869013
4.2331376
0.99396783
-6.0059686
-8.70953
0.67752165
-0.027345646
7.3576217
2.6834733
0.071634404
0.033996496
-4.1520176
-9.137723
-0.97119445
-0.62409127
0.59339523
1.7261248
-0.6584079
7.590763
0.040373124
0.017882051
-2.0177262
7.6126413
0.32645154
-0.044317625
0.70557815
-4.209513
-0.03932978
-0.18499333
0.06367913
0.0034597032
0.03249329
0.7367831
-0.0018909222
-0.6359356
0.7618976
-5.696281
0.6884345
-0.24800825
-2.983988
5.2561946
3.7959938
-0.08618816
0.56841284
0.06350383
-0.62682664
0.02278333
6.286191
-0.27541885
-0.39892656
3.4773655
7.20286
-2.7194703
0.49855235
0.019340526
-0.552145
-0.21678613
0.09677591
7.8187366
-5.5383115
-0.8931792
0.6569402
-0.5861108
0.6121813
0.6492456
0.5200725
0.6283866
0.018445905
-0.039491
0.5407707
-0.024511661
-0.018289892
6.8021
-0.2919578
-0.54667085
0.0988704
1.4589324
-0.8982165
-2.1621485
-0.8650172
1.9192442
0.72236836
-0.64487594
0.94265586
0.9868764
0.26257965
0.28914478
-0.76376647
0.34534004
0.100072965
2.3380868
9.889483
0.26326513
-0.26834497
-0.0030951921
6.279211
-0.06650623
9.224696
-9.186893
8.190471
3.1245093
0.54509175
-1.0054693
-0.06974622
0.5787648
0.60328174
5.293409
-0.36558926
0.6095349
-0.3754775
0.04341021
-4.059852
-0.083493456
0.5485675
-0.5143051
-9.028787
-2.7598128
-4.8756084
0.6898359
-0.4370888
0.048661526
-2.270734
9.055356
-6.632776
-0.033603348
0.08598516
-0.5454332
7.8954825
0.2812604
0.16220608
0.059529435
0.4204191
-0.011860387
0.18362118
0.8786016
5.4743433
0.061022054
-1.8127913
-6.7782044
-0.054348994
-0.96466285
8.073585
4.094741
9.9796
0.62390196
-0.5819111
8.916553
-0.08771275
-0.09038839
-0.37531912
-0.08795644
-0.04366406
-0.057070907
0.0339868
-5.6012135
0.012417562
-0.7688025
1.0018792
-0.48904055
0.022120507
-0.69738775
0.04208937
-0.06978308
0.029599696
0.13467759
-0.04689604
7.3993573
4.015654
4.652621
-0.2871025
0.017232157
7.3040915
-0.09608721
-0.09142809
-7.673048
0.8395815
-2.0883284
0.5565855
0.25062042
-0.08508941
0.52751386
-0.022954356
-0.95916235
-1.6190529
0.01767006
0.02326954
-7.128421
0.8062827
-4.2502313
-0.8020483
-0.049476683
-0.06558023
-0.9198664
-0.13736989
0.03697834
-0.14009506
0.008849091
-0.092559464
0.61891633
0.77429324
0.85018027
-0.14768378
-7.9375343
-0.012031918
-1.0701076
-6.7654004
0.06138608
-8.351587
0.8534267
-0.055371687
0.0757586
-7.85142
-0.011841469
0.03422728
-3.8279457
-0.08708454
-1.3288566
-0.007213132
-0.078087546
-0.89585596
0.041413635
0.0032952388
-0.5043474
-4.842367
7.0265217
-0.06540105
-0.06338781
-0.05343763
0.23678134
0.94912976
0.07050728
-0.09196071
-0.060583707
-0.0731295
-0.035823844
-7.28915
4.525165
-0.6838203
-0.080729514
2.6966324
0.040584758
-1.1676519
-0.6278722
0.07305824
0.21657504
0.81688666
-3.9386594
0.016823145
-0.020722019
0.9865273
-0.009069502
-0.082044676
0.14590164
0.0014213857
-7.949752
0.3037777
0.038280968
0.57793176
-1.483975
0.90441376
0.37389454
-0.8888726
-9.298394
-5.120883
0.37222376
-5.905504
-6.180571
-0.03691964
0.07998822
0.825391
3.9070597
-1.8688858
-6.5314145
-0.08095098
0.5195397
5.89976
0.007240384
3.0959866
0.52709126
-2.433606
0.18353297
-7.57471
-0.06971754
-0.37990576
-5.631642
-0.27135795
0.7597379
6.2010665
-0.03706607
-0.046823
-0.044862933
-1.7191503
0.01694376
-6.6123214
0.28502566
0.06467729
1.1621321
0.07663825
-6.2774267
0.1634663
-1.5403843
0.83007216
-0.9688561
-0.08126222
-1.1300037
-3.8912492
-3.069615
-0.081814796
0.6964655
-0.09741382
-0.015683668
-7.283581
8.1937895
-0.27542493
-7.120615
0.052358534
-2.2464795
-0.084736094
-1.73868
0.3258373
-0.31837535
2.60949
0.04443573
-0.64186126
0.0005795559
0.1708234
-6.105786
0.84691656
0.87519115
-0.8123169
-0.022562891
7.746618
-1.5477486
-0.97973895
-0.03464202
-0.06526186
-0.7167104
-0.039620265
-0.50822365
-4.626665
0.04203042
8.078491
0.087403454
-9.062426
0.029218422
0.019682517
-0.05465609
-0.81393576
0.8883911
-0.67480814
0.8407831
0.8058148
3.0456922
-0.20611161
-7.468955
2.0931938
-0.022684144
-0.65924466
2.3773987
0.069691435
-2.0723243
-3.480505
-3.545649
0.05355367
7.050782
-3.1639845
0.06687001
-5.195723
-8.923961
0.09586483
-0.06915635
-0.061141185
-0.11806769
-0.011505541
-0.059417635
0.07815951
0.017009495
0.54887676
-0.02479294
-0.77103484
0.17810187
0.03619004
-0.7776877
1.8209697
-5.6431913
-5.559873
0.042483516
-0.13576907
-0.013393255
0.26816884
-0.8258133
-8.652037
-0.09794165
0.052070193
0.1562988
-0.039970603
-0.050280366
0.18681476
2.0545268
3.9911404
0.03860902
-0.058092564
-0.014976534
-0.06568817
-3.9503217
4.705767
0.06241732
-9.393441
-0.3316343
0.059632666
0.70675355
0.0738819
-6.0220313
0.085476816
-9.725277
-0.006414456
-0.104335256
-0.067055404
2.0880742
0.0065402337
0.096430846
-6.434663
1.9891733
0.055369325
7.9038544
-0.44431794
0.89969957
0.6787935
-0.014503911
1.1909833
-0.09972476
9.090019
-0.412028
0.56019783
0.88215107
0.0617711
-6.2212124
0.08960676
0.020912664
0.08247544
-0.050006315
-0.07316572
0.0524358
8.419367
0.71017265
-6.6626906
0.104824714
0.015755938
-0.10540477
0.004321431
-0.31363833
0.018371072
0.09182991
0.60038316
-6.6680694
-0.09139326
0.0016589345
-7.9714146
7.6411524
6.0082254
0.99607486
-0.01545316
4.7548747
0.05149163
6.998484
-6.842722
-0.09976785
7.981533
-0.047883525
-0.080795825
2.7869983
-2.1647506
4.430822
-0.33711576
-1.9963325
-0.47050744
0.2631894
0.44784406
-0.010720332
-8.239813
0.61281216
0.4740823
0.17309357
-7.7770314
-0.2766811
0.29185188
0.89361566
0.007832433
0.68362576
4.959811
9.091733
7.6074486
-0.038399223
0.0077618607
-0.0367179
0.13444656
4.7438455
-8.491556
4.1135793
3.200828
-0.004846171
-8.378467
-0.086544625
-0.09018461
-1.33225
-0.06848748
0.09620659
9.666295
8.338942
0.040790375
0.03562205
0.8850695
-0.822006
-3.6066937
0.094184905
8.087176
-8.72496
-0.05893687
-1.2212278
6.905864
0.063257664
0.59579766
-4.3272543
-0.89666414
0.046502527
-6.737633
0.62708116
-0.64054036
5.0110106
1.8943784
-6.606339
-5.6792254
-0.32855195
-8.534172
-0.03121366
2.7891533
0.47349647
-4.311505
9.176364
0.08788157
2.257309
0.025990857
4.5946946
7.951675
4.9930186
-0.052158784
-6.6701584
-0.3599818
0.85177565
1.6591364
-1.4193928
2.888474
-0.04991933
0.52903855
-0.4886379
-7.5664496
-0.038960114
7.7250037
0.09116329
5.043926
-0.023036804
0.23507617
0.08662203
-0.025823878
0.013809015
0.028860107
-0.041721836
0.028519379
0.2648622
-0.010970127
0.019050857
0.7777318
-0.07034085
0.8421039
-0.023698814
-6.336465
0.05091187
-0.86047554
0.8187307
0.5118953
-9.740186
0.91390514
-0.8207347
-0.039048165
7.622418
0.32142133
0.22343582
-3.2684047
-0.070606634
0.78261125
-0.045902595
-0.011726933
0.23360817
0.007609462
-3.0718203
-0.42678395
0.029855905
9.29942
-0.030754587
0.22894558
-0.3025913
0.025608638
-0.77060217
-0.31852683
2.867404
0.6054816
0.5047933
3.1828175
-0.5562667
2.8810914
-0.030247606
0.055645466
0.7529055
0.048582796
-8.657578
0.69614494
-6.599464
-0.18352288
-0.84122866
-0.7703653
2.2111375
-9.983719
-0.83783746
-0.094535105
-0.0041917693
-0.8109785
0.7877977
-9.849118
-0.5282036
-4.131524
0.4567155
0.07931933
0.38983512
7.7781157
0.032149803
-0.018738173
-0.0073321545
0.5464788
-0.02054974
7.171155
-8.374044
0.15094267
0.71344167
0.17197113
-0.06743641
-0.8539799
-6.9038887
-0.003747467
-0.085253485
0.6081944
-0.03895971
8.51937
-0.029745523
0.51974666
0.32423416
-0.08894021
-5.160641
-0.013100624
0.05290236
-0.007704298
0.35741395
-0.39195246
0.33492634
-0.97925204
-5.338396
0.6852849
0.95861435
-0.34197274
0.0150148785
-0.06487445
-0.019448405
0.036313538
0.10120338
9.854492
0.45201787
2.0371978
-6.5002832
6.932799
6.2897477
0.88441175
0.06030329
0.7700966
-0.6304334
-2.4859097
0.028879954
-8.942956
0.6904268
-0.20362456
8.495542
-0.6916601
0.3463737
-0.76031625
0.65852225
-2.3698413
1.1492437
6.6211667
0.36985376
-0.0829194
0.86496246
-0.3332446
-1.1205835
7.4145007
0.97316885
-0.21078934
3.4359953
8.104045
0.032156844
0.50909305
-0.054036938
8.620637
0.6679655
-0.020022701
-6.711953
5.003738
0.039334543
-0.015037578
-0.4721098
6.2196574
-9.904068
4.9584355
-0.082110785
-3.7864213
-3.932327
2.3356497
1.3084233
0.27806872
0.76706976
-0.024066327
-0.36726415
-0.09854168
-0.06565078
-0.81258124
-4.5312486
-4.7808
-1.1803356
2.5362713
-0.06641199
-0.025134293
-0.072041325
-0.03552717
0.052026793
0.9415185
0.026544532
-5.0340652
9.8517685
-0.14036687
-0.09964188
0.033286165
0.60172856
0.09337039
-0.03469177
-0.07904903
0.5069451
0.8048867
0.38672045
0.099578716
0.497095
0.13617228
-6.0782866
0.9182634
4.243992
-0.09770369
-0.41855192
-0.06936227
0.6815289
0.3872195
-0.051280327
0.09695442
-0.053928588
0.29920638
5.096236
-0.30460334
-0.09591509
-0.09011637
0.095631026
5.842411
0.01291205
0.062505215
0.123478875
-0.23588687
7.155276
-0.5631314
-0.041699152
-0.04106016
0.08494733
0.09490927
-0.89275753
-3.2379134
0.011946499
0.34520206
-0.6122493
0.69394636
-1.9194353
-0.49067295
0.020853857
0.06502393
-0.0057260827
0.06875821
7.498313
-0.087357596
-0.031545572
-0.3140658
-0.375719
-0.045102064
0.94551766
0.040444627
-0.014222406
-0.25882024
0.0017610367
2.4064612
-0.07170314
-0.0049327547
-0.0993576
-3.8072338
-0.085677065
4.439356
-0.078593746
0.06840333
-0.6747869
6.1852527
-0.076634854
0.06674474
-9.101635
0.59748065
-4.3480843e-05
-9.128775
-9.963239
-0.06587329
-0.84864646
-0.0044993027
-0.09837067
-0.33594164
0.0726549
-0.07775635
-0.06427424
-0.07771817
-0.015432683
6.1545496
4.2035446
8.887004
-0.29565153
0.63528246
-0.88523453
1.3168385
1.5717189
0.14230268
-0.44092846
-0.06126155
0.47295
-0.27971464
0.05190863
-7.8166595
-9.926992
-0.059835672
0.08781492
-3.6001318
-0.08208614
0.45701128
0.7318147
0.19676717
-0.57424194
-1.1615695
-0.32177526
0.086373486
-0.32550162
6.6980815
-0.17310545
-0.04688144
-0.79482305
0.88458866
0.35778865
-0.45626077
0.2691755
-0.07682198
0.8418434
0.026677927
-0.018731106
3.2276847
7.3540463
-4.661783
-0.3526257
9.4222
-0.6655843
-8.4526005
0.06705799
0.053418387
-8.916164
-7.577339
-0.5505484
-0.9295056
0.073335044
-0.3463215
-0.072238036
-7.5282335
-3.2269237
-0.08483234
0.22454989
0.830736
0.09120742
0.35289153
-3.3115277
0.086060576
0.8840115
0.8646872
-0.89435285
0.047952294
-9.696031
1.3375902
-0.080994576
-0.70034474
-0.95049167
-0.095850766
1.0640144
0.6873126
-0.20345564
-0.7737729
3.16971
-0.49736425
-0.013247609
0.19777295
-0.019513391
-0.0020797658
6.5106864
-0.08061366
-8.883569
0.0890302
-0.02347512
1.8588784
0.73766726
-2.6050282
0.34305915
-3.6059668
0.68387175
0.54179025
0.09731666
-0.024010338
0.12876758
0.093800366
-0.053926937
0.004319889
0.6962405
0.06949732
-4.5111284
-0.83650815
-0.518991
-8.4641905
-9.618227
-6.692498
-0.0040710466
0.23685701
0.24118805
3.2220232
-0.06490578
0.09175422
0.012289541
0.056902498
-0.81682014
0.052922156
-0.82704896
-0.80239713
-0.95014155
5.6825166
0.06537254
2.7100644
-9.968366
-5.4958906
0.038422726
0.00031777294
-5.950825
-0.44140983
-0.74097615
0.031053066
3.2388747
0.3889086
-0.91662127
0.0072814296
-9.696877
-0.60381734
-9.213465
-0.02011955
9.00533
-2.4271147
0.7515217
4.7985764
-6.2692237
0.018382613
3.9360862
3.3943286
-0.5855204
-0.022797538
9.414356
-0.031111246
-0.3465619
-0.96868616
-0.09448443
-0.08000763
-0.455261
0.34461042
-0.048439156
-0.03423236
-0.007010032
4.360732
-0.08982326
-6.2590613
0.9280725
-0.5185961
0.08525838
8.323345
0.92752
5.564643
0.07589143
0.051561207
-7.7963243
-0.055984892
0.04152033
-0.0049435254
0.044344526
0.44367373
0.8010495
-0.9709572
0.817638
-0.7471317
-0.031870313
-0.07912703
-0.6999294
1.908653
0.07593959
1.0499473
5.4003296
-0.07882564
-0.8421489
5.4283895
-0.37452227
-0.3397739
2.1147645
-7.001086
0.029500566
-0.23216335
-9.421843
-0.81696594
0.8198034
-0.038051993
-0.50186735
-9.550969
-5.4083495
0.1662561
-0.08495838
0.22795953
0.08923127
0.15984629
0.046940908
-0.7835844
0.33805466
3.33322
-1.9039497
-0.09657616
0.004530581
9.687365
-0.069362074
-0.68298846
-2.0033162
0.62550133
0.72210747
4.4337654
0.45946163
0.6796382
-3.72626
1.3220316
0.06897041
-0.2819871
-8.259135
0.87678665
-0.3250422
6.4995413
-0.082523204
0.97123724
4.401968
0.010874129
0.97116727
-0.0004491786
-0.79076713
-0.72619355
7.9818645
-7.6355877
-1.3593733
0.5699446
0.028748136
-0.05039031
-0.14143175
0.70787764
0.7408173
-0.9179369
-0.23561543
0.76619774
-0.09812212
-0.016444493
0.5984626
0.130509
0.08452718
9.045125
-0.88494974
-0.038705956
1.650474
8.392528
-0.008128932
0.08092464
0.051676814
-0.4888414
-0.7962849
0.9522381
-0.8090467
0.011782331
0.36529094
-3.8031113
-0.0015628407
-0.49544007
0.27452025
2.7219067
-0.018264955
0.024055986
-0.067526884
-0.25119352
0.084455416
-0.03757355
0.3630869
2.547478
0.09241287
-0.019254416
0.14561914
-8.197376
5.298319
8.613261
0.97517174
-0.79849267
-0.3135169
-0.46433163
-5.5501084
0.05250115
-0.52745956
-0.3345088
-0.021904293
-0.82774764
0.3394514
-0.60117733
0.5999235
0.043530572
-0.1606535
-0.24189168
-0.655218
-0.09375985
0.2752411
0.3080408
-7.0964193
-2.4745889
-0.075588785
0.59858745
-8.040753
-0.031712618
-0.9198095
-6.465868
-0.094726
-9.235016
0.061280247
-0.50155926
0.037440944
0.12675098
0.004110957
0.30504644
0.33492038
-0.38832477
0.7341215
3.9616034
0.054055184
-0.06460294
-0.030430403
9.652071
-0.9557328
0.5657655
0.60207164
9.095081
0.29623693
-0.31503472
0.75334376
0.7383419
-0.20208561
0.06713991
0.08918324
-0.03918128
-0.07847801
-0.040161543
0.8535229
0.64839524
-0.44306952
-7.671487
-0.06209281
0.9318599
0.57567257
-0.2040201
-9.77461
-0.01695015
-0.06771981
0.70580375
9.355629
0.35210901
-0.32711855
-0.42297357
-2.1178226
-0.19582327
0.58637995
9.02312
7.9324164
-0.024631713
-8.140151
8.706545
-0.023954513
0.9431662
-0.8181992
-0.016264198
-7.590727
6.5335393
-0.008385626
-8.923059
4.689487
0.010765468
0.07186627
-0.0014575666
-0.09831839
-0.0897451
0.76297784
0.002387374
-0.057049766
-0.18274714
0.08697429
-0.8041876
0.00974295
-0.082417466
0.61639196
0.031980075
-1.0677575
6.526963
0.4388269
-0.37871018
0.7191006
-0.100559495
0.809066
0.032159835
3.0224261
-0.095572576
-0.03414298
0.068883896
-0.17571174
2.0103602
0.50581276
0.23593688
0.6191624
-1.6698129
9.022805
-0.1524116
-6.316058
0.035431445
4.4539146
-0.0640979
-0.48403284
7.670861
-8.734475
-9.733137
0.05969371
0.07780477
-5.1602225
0.18383212
-1.1923393
-0.04586262
0.06975357
7.2644277
-2.4905777
-0.84592324
-6.9281235
-0.8348904
0.1295724
0.6318652
-0.36078954
0.47301853
-0.25024804
-0.04875423
-0.046504784
0.066980615
0.07997827
-0.54893076
0.18047236
-0.65712184
0.03954302
-0.3509362
5.939723
-0.17503439
-3.1513007
0.5021376
-0.053042375
0.028134484
0.60906005
-0.6983568
0.8660265
3.6200812
1.4729084
-0.038845036
-4.2692213
4.974808
-0.07985414
-0.06665182
-0.67105854
-4.0643477
0.09225071
0.57748723
-0.051341247
-0.027893776
0.06141247
0.09426064
-0.6192425
0.47281715
0.03635806
-8.239744
-0.32698613
0.9162986
0.04826491
-0.88769346
-0.73056525
-0.07548901
0.8581721
-0.39629465
0.027169248
-0.025971858
-0.14510526
0.12738912
0.8585924
6.2174606
-0.03413038
-0.08462462
-0.052371815
8.835216
7.948018
-0.8720528
-0.034733713
4.622962
0.96921146
-0.08749113
1.0127879
-0.03039504
0.23568927
0.06265046
-7.757629
-2.1004841
-0.08110644
0.07426086
-0.035341945
0.7089744
-0.48572588
0.26002592
0.054898936
0.8695038
4.502044
-0.2678719
0.78839475
0.5236979
9.207201
6.597724
-0.052514117
0.025406256
0.08993668
-3.2849746
9.269899
-0.27992
-0.25750503
-3.5656314
0.023506021
0.9280674
2.4781647
0.620505
-0.7267642
6.0889926
0.9574379
0.09959063
5.5011063
-0.020743243
6.7310405
0.030343184
0.13830657
9.949939
-0.9312535
0.9905748
0.32165432
0.37410143
0.043121837
0.75997496
0.09588912
-0.08560953
3.6925998
0.026400248
4.966028
7.8225226
0.06753799
-0.09131718
-0.004013724
-9.663311
8.002937
-3.9135702
5.5349846
-0.096865736
-0.07120959
-1.4581549
-0.26068422
-0.01581684
3.9990044
-3.726968
0.85399866
0.3226872
-0.7968695
0.14579554
-0.39025512
0.0067135235
-0.79258907
0.011348195
7.518066
-0.8564559
-0.035237204
-0.09750026
6.4701447
0.02297352
0.07040833
-2.7441273
0.98562396
0.2388407
9.271114
-0.6223683
-0.4836641
-9.5643
0.34280226
0.04456508
0.4033035
-0.09578836
0.079094134
-9.383174
0.916974
0.07704151
-1.9343733
0.06841203
0.29366678
0.051079083
-6.8301706
-3.8913922
-0.0006612857
-0.17033419
-0.38299882
-0.055421274
-3.7373483
4.539509
-0.0062167835
2.1113799
-0.2823797
0.002805636
-0.66949475
-0.28446737
-0.041986477
-0.3010002
-9.43494
0.6330549
-0.075875
3.9555588
0.06777226
0.06407824
1.3992318
0.013982242
-7.559155
0.33566695
-0.04919222
0.3802172
-0.0308842
-7.1337442
-0.450614
0.009874413
9.871869
-4.862935
-0.085685335
-0.24104288
-0.85462075
-5.3541226
1.7651325
-3.3148782
-0.7182198
-0.53508484
8.107644
0.026272792
-3.9911067
-0.15040836
-8.935018
0.015714344
-0.557732
-0.91287404
0.7616092
-0.057003893
6.1011515
-0.033007927
0.5333192
-0.008144924
0.55272156
-0.096038185
-0.7205186
-0.08003534
-2.5183897
-4.8442554
0.8687518
-0.08522498
-2.0409794
-0.050499436
0.021818237
5.595451
0.62348336
1.7530135
-0.23131911
0.080379054
0.37342906
-0.029673792
-0.44350824
5.768036
-0.09026757
-6.778419
0.5457693
7.0660257
-0.0037382923
7.9169207
-0.96391153
-0.06180194
3.1018462
-6.723685
0.09935257
-0.35386473
-0.050061543
0.04266102
-9.93321
-0.4736819
-0.74714285
-0.09911815
0.9447638
-2.1500528
0.009703947
1.5412486
7.3849545
0.44957533
0.034485437
-0.021014968
0.061670743
-0.002510204
0.099481076
9.164677
-6.9702516
5.570556
9.229658
0.2178406
-0.71486765
5.338205
0.007342486
0.85885984
2.6804516
-4.0181184
-0.78629255
0.03627992
-3.8321846
-0.09681674
0.19142723
-0.08911782
0.07215889
0.087019525
-0.060266815
-0.61832434
-0.83939576
-9.878164
5.120727
-0.6449998
6.3762684
-4.406116
-0.09747006
-0.044217955
-0.010142114
0.73923826
-6.310333
0.04537478
-0.4909789
-0.6669602
-0.28739175
0.0013994888
0.6686517
0.0628527
4.5253997
0.28036976
-0.055457454
9.782515
0.060845688
-6.8091035
0.923909
-0.002028629
0.09688267
0.41084337
-0.0037275353
-0.09145613
9.958458
0.094197445
0.3862955
-0.08230669
0.037232205
-0.046186905
1.8021171
0.8766752
-0.059448835
0.07041634
0.08932754
-0.022342928
-3.8615909
0.9124834
0.040635753
-8.12041
-0.41680816
-0.22644156
0.01655638
0.2871874
-0.74816537
-1.9338677
4.4249296
-4.986884
0.29310888
-7.7684436
-0.0049591074
0.07112611
0.58580977
9.080875
-0.3607771
-0.09473459
0.08881372
-0.7142114
-6.3051257
9.754185
0.5636835
-5.9467196
7.6342764
-0.64183956
0.41781735
0.07062442
-5.896945
-7.9869246
-0.9947313
-0.055509742
0.6052701
1.1193947
-4.87118
-7.3916545
3.2846732
0.028395835
1.230049
-0.06434958
0.25835094
-0.09709626
-0.082771
8.68585
-0.033120826
-0.06939211
1.2603052
0.09026002
-0.70119286
0.98845845
-3.862211
0.07594723
0.47219816
-0.5093877
-3.3064046
0.16542691
-0.040852923
-0.088666946
9.66094
-0.10452253
9.965397
0.04084129
-0.07435511
-0.06270301
0.057895057
-0.04282902
7.0791764
0.8902446
-5.133129
0.619449
-0.07700585
-4.2453794
6.6638923
-0.411598
-6.969732
0.00037255828
0.023390576
0.41979253
-3.9602072
-5.3309746
-0.69704235
-0.639883
0.7420109
0.5316517
4.6781073
-0.03349692
-0.03805518
-0.09028437
8.508371
0.02416964
0.47825494
-0.6801392
-0.8472988
0.051961154
-0.0778968
6.468856
8.276237
-0.8847935
-0.73785895
-0.8811359
-0.044900786
0.09655435
3.1812649
-0.024065413
0.99743235
8.571582
-0.27237064
0.9304934
-0.33772275
0.06616856
8.267945
-3.5018039
0.08256663
0.04893759
0.06263704
0.0050961864
-0.81693023
-3.7459757
-3.4256728
-0.7928195
-0.63898647
-0.030298064
3.2594903
0.08952256
-5.726911
-0.048212398
-0.5070032
0.34563425
0.0526769
0.109422125
-0.015703099
8.322114
0.023209862
7.2602262
-5.07465
0.025804974
5.0765505
8.841345
-0.052273683
0.13131271
-0.43798682
0.7870307
0.0041462895
-0.091082506
-0.14700437
-4.1476717
0.017646158
-9.9352255
0.43667635
-0.09824763
7.9024253
-7.0877786
-0.53258425
0.004630614
0.3160204
-0.37216076
-0.079600155
-0.013681123
0.8474997
4.995588
0.013670919
0.054413073
0.9032785
2.8637505
-0.7745395
-0.04416586
-9.499734
0.07137015
5.5192566
4.6533856
-3.0656853
-0.96834874
3.3563526
2.1791003
-0.040771298
-5.730194
-0.8043244
-0.062277626
-5.2227817
-0.07971319
-0.8053374
0.00056792883
0.010143589
-0.3393811
-0.030104168
0.8757845
0.0147765
0.052836925
-0.20112798
-0.079967916
-0.12249409
-0.013627786
0.09172033
7.9139123
-0.82385194
0.3982168
-1.244967
-0.29076737
9.158188
-6.6456923
-0.34000215
-0.17624258
-0.058158573
-0.09941404
8.029912
0.5520352
0.06449164
-0.3702229
0.45058486
-0.05957094
7.7450895
-0.016332505
-0.36125064
-0.39571676
-1.0682093
3.130012
0.0015604886
3.5635026
-0.5142193
1.5198168
-4.509999
0.047611583
-5.4500637
-7.92336
0.22484438
0.9248466
-0.17809252
0.077352636
-0.159051
8.966237
-0.052159693
-0.06301256
-0.27485904
-0.0714256
0.038167316
-0.084785804
-0.13109535
-0.9530207
-0.016415391
-3.4467094
0.7497288
0.006772462
-2.5789304
-0.027175426
-8.600085
0.047825392
7.040176
-0.038793813
2.1733356
8.548975
-0.07975838
-1.7410971
-3.2409751
-5.406797
-5.719785
0.47999525
0.8876259
0.025567692
0.18585736
-0.041720856
-0.52492917
-0.28851497
-9.824867
0.19782345
-1.5299841
0.70837367
0.010193765
-0.052452214
0.45984057
0.014007717
-0.4570758
-9.915182
-0.9752797
-8.697553
0.021043211
-1.5666386
0.011601358
0.7609578
0.072545744
-3.4871035
-7.8878837
0.020010265
0.048535626
-0.019316448
0.6238942
0.65307224
0.078598194
0.076546036
-0.052534077
0.0072491695
-5.1330414
0.456229
-7.3893123
0.00647965
-0.09532488
-6.9719205
0.2798039
2.6037064
0.99338967
0.007949899
5.9975853
-0.069351315
-0.017773405
-3.0916123
-3.8619528
-1.6443361
0.037010666
1.4257565
0.81688994
-3.876829
-6.3119936
9.941251
-7.269934
-0.9054348
-0.08159726
0.6878065
-0.19376518
0.12170218
-0.06701573
3.3698716
-0.65661746
0.018833553
0.09559651
-0.035866033
0.8773844
8.196779
0.046586625
0.93368363
1.9596082
-0.06943523
4.5566654
0.64041656
0.037365347
-0.07770972
-0.26353058
0.0833522
0.891734
3.1060355
0.20810045
-0.045203503
0.92086977
-0.57895917
-6.8593087
-0.014450179
0.8331591
-9.170607
-0.50688255
2.8267355
-0.0007531996
-8.125461
0.588574
-0.02765836
-0.79819036
-0.024680376
8.622041
0.080613144
0.012189457
0.0836913
-0.95238817
0.004805713
-2.529025
0.9364373
0.057230867
0.0072723697
0.66854215
0.6386226
6.395651
-0.09898806
-6.497754
-0.087915756
-0.85140675
0.3932205
0.9147959
0.030236993
0.68003184
-0.4912394
-0.12929334
0.66870207
0.016984994
-0.27321935
6.905597
0.0075906985
-8.299426
1.1142002
0.96164703
0.72698075
-5.349348
-0.044708002
4.5475736
-0.052517895
-8.706636
-0.001597122
-3.8293653
0.051470913
8.293413
0.25190678
0.85615665
0.037137248
0.085105784
0.03297154
-0.8354089
-1.5256563
9.782364
-0.49965048
0.095176965
-0.23154859
-0.05225638
0.031331964
-6.103031
0.4864421
-0.20035422
-0.02069077
6.7622423
0.9286264
-0.032713823
-0.9799658
-0.040285114
-6.549241
-0.04861941
8.028031
-0.00712304
-0.095081754
-6.278072
0.023021426
4.112262
-0.08929308
-0.09902401
0.08776411
0.0332907
0.087909535
1.7360512
7.264745
0.9254649
-6.857275
0.075717084
0.0009793658
0.059760723
2.1508193
-0.07902275
-0.095533006
0.010773908
-3.1672413
-0.054022223
7.911168
0.044171214
0.049117252
0.60103774
-0.7572405
-0.32807484
-0.08002739
0.03806432
-0.011960944
-0.10642531
8.4421015
2.3815606
7.529195
0.112022646
2.5740712
7.3970704
-0.13692802
-1.0741209
0.0069496543
0.021647686
-0.087045275
-0.13544665
-0.61425847
-0.3605978
-0.029038627
-0.93610585
-0.28131506
0.9405531
-0.8418794
0.0062150294
-0.5997799
1.384489
8.259463
-7.5358834
0.96768665
-0.096980184
-0.09193147
-9.978279
0.87819463
-0.3913803
-0.918261
-0.16422914
6.718387
2.95227
-0.009565972
0.91599673
-0.77149224
0.054756366
-0.046858124
-0.92979896
6.5756874
0.017111031
0.04526464
-2.35927
-2.584479
-9.117053
0.8981432
-0.79705983
0.6943399
-0.32428917
-0.020973835
2.5394669
-0.33586723
-0.61000186
0.6909527
-0.021429203
6.264989
-1.3931074
-8.606717
-0.06612787
-0.01858109
-0.06452157
-8.379629
-2.4035625
-3.7974484
-0.833611
5.153443
-5.648648
0.39291263
-2.3062549
-8.20152
0.08237662
-0.053031906
7.706399
-0.031100987
0.67409056
0.9204422
-0.09606128
0.08656312
-0.52428985
0.9694496
1.0693794
8.951332
-0.9269876
0.736707
-5.700876
-5.71749
0.16416776
0.08172725
-5.804096
-5.626828
-7.300444
0.8545516
-0.5057424
0.7005125
-6.2490115
-0.9347491
-0.23226123
-0.06426176
-0.67957157
0.036652792
-0.1326606
0.034235913
-7.762833
-0.024522977
0.5930911
-0.94033176
0.46708116
0.7593731
-1.3981515
0.074488066
0.9705445
8.698681
-5.4515934
0.07617662
0.8955823
0.09067779
6.2619877
0.20778437
0.40628287
-6.6947203
1.7807524
-0.009735542
0.5926112
-0.0049762893
0.007372993
-0.03987004
-0.21136825
-0.42871237
-2.001828
7.4983997
0.09813468
0.02235373
0.05178245
0.02613764
0.41428167
0.025838755
-0.70573884
-0.022551585
-0.31399196
-4.0577083
-0.04743278
0.020145418
0.9095241
-5.0144196
-0.0944748
-4.0128927
0.5759008
-5.8487277
0.7407368
0.778101
0.068413846
6.9974837
0.07290222
-6.375606
-0.9398888
0.06531764
0.42075175
-0.026885152
5.399442
-9.255315
0.44781843
0.7575218
-0.22408019
-0.39413095
0.09481696
-0.097562015
-4.6667876
-1.2508435
-9.73533
3.9664354
-0.64068335
0.29056194
-0.033542383
-0.41316003
-0.053948566
7.198237
-0.083728336
6.353058
-6.056595
-0.118319444
0.023258278
8.114426
0.087638825
-0.0193811
-2.686885
-0.08154298
0.69949955
0.542699
1.9118004
-9.1723175
-2.2513545
0.42335147
-9.344119
0.033306714
-0.5207213
0.052002337
0.39573747
-5.263923
0.7536101
-0.58701146
-0.5580109
0.04939035
0.5656673
-0.091490336
-0.003525172
-0.13911389
-2.22704
-0.36661857
-9.59916
-0.46171796
0.63276744
1.5735186
-0.29423797
-0.04560216
-0.023064854
-0.3657982
-0.57756644
0.6746411
0.5213942
-0.00813656
0.0071850233
0.0704184
1.9170632
-0.63202274
-0.25975952
1.7833515
3.143629
0.028836507
-0.09894161
0.15613878
-1.3050003
0.004962833
0.058999505
3.18484
0.035681598
0.50603336
0.096873574
-0.0034860284
-6.9250846
7.011845
-6.9441276
0.007983086
0.20489247
0.45116258
-5.5458274
-0.06753271
-0.23785697
0.98286545
0.056447063
-8.128432
0.639802
-0.8619061
0.060348645
-1.1434587
0.020401858
-8.039632
-3.4737158
4.925694
-0.04024445
0.07580132
4.9558897
0.4581043
-0.067433596
7.599478
6.455413
0.21629263
-5.6958613
0.21926759
0.008392603
-0.083198026
0.12015068
1.2870791
-0.077793
-5.2843146
-5.873212
-0.08353109
-0.18576473
6.836527
-0.014074583
-0.070738345
0.7864279
-0.017270954
-0.19198477
5.853441
-0.07845538
4.5265503
0.71135473
1.7278788
-0.45186317
0.016353149
3.9896543
0.9378505
-0.73468244
0.06325666
-0.021450654
0.14618258
0.5278622
0.034611803
0.031383984
0.016580893
0.05557535
0.0064619295
-0.6815297
-0.3629793
0.033306643
-0.9257813
-0.07467973
-0.7336282
-9.2269945
0.6592896
0.13349424
0.19600205
-8.934773
1.5696896
0.34265733
0.03621431
-0.084222265
-0.07926341
-2.6482236
-9.662295
-0.43017295
0.3127446
0.07656146
-0.20757426
0.19925308
-3.0877616
-5.582948
-0.991608
-0.8976637
-0.5586568
0.48506686
-0.07820883
-0.037653096
-7.8815246
-0.046950575
0.07567605
-0.593881
-0.8414352
0.046917353
4.2002764
-0.95484483
0.054613575
3.8263059
-7.593822
-0.093818784
0.7082407
-6.6852255
-0.4420564
-9.060223
0.002481343
2.484091
-0.0012676693
0.07014893
-2.038494
0.6836534
0.5224221
0.95039964
0.30729458
3.7181363
-0.8338856
-0.03156627
0.07227618
-0.10576897
0.97440094
-0.2950524
0.24788316
-4.8941336
-0.10737258
1.7722241
-6.2192574
-1.4453716
-5.4732456
4.3800797
7.0316777
0.4858854
-0.9077003
-0.027549988
-1.0386399
-0.07675564
0.42639536
0.8768928
-0.78056216
-0.3923467
9.29978
-7.7797127
0.08325719
-0.31283063
-6.340214
5.378905
5.202389
0.59934664
2.394439
-0.06880113
-0.059914514
0.023143353
-2.7564406
-0.03407969
0.20186204
0.0511973
-0.7293508
0.0023086749
-0.1930996
0.7714574
0.92961013
-0.19606811
-0.53950304
0.3349502
-0.052021317
-0.4035956
-4.08882
-0.073975995
0.08659525
0.0066970675
-9.452216
-0.45521513
-0.008559288
-3.2903388
-8.237765
0.96833444
0.3060195
-0.5686554
0.74124676
0.7491935
-2.0213716
-0.1729241
0.084410176
9.731175
-0.081887305
-8.401087
-0.51993996
-0.49297792
-0.039305292
0.044801153
0.014586285
0.16255148
0.051024567
-0.64171636
-0.092058904
6.163082
0.06926674
0.069140725
-0.058583092
-0.07648674
-0.9669858
-0.45942625
-3.5093427
0.036261886
-0.12039718
0.5541291
-0.023141606
-0.02829393
-0.085852005
0.4593172
0.07979525
-8.436635
0.85561794
9.261123
-0.89828986
0.94975984
-1.4026613
0.9090562
0.581915
-0.026713701
-0.81259114
0.01779254
-0.92016053
-0.59946626
-0.91441476
0.38927227
-0.56774944
6.627494
-0.21976009
-0.79027605
-0.6164494
0.8473245
-0.04220889
-6.324471
-0.012926763
7.721034
0.35621557
0.06382863
-3.782005
0.061698277
8.032963
-0.63541704
-0.099023946
-0.30309078
0.45320818
-2.8376415
6.1100783
0.07918176
1.7382668
-4.769541
-0.039272442
0.90945566
8.89485
-7.06778
-6.0413737
0.9159802
0.07012458
-1.3853093
-0.30823326
-0.75097305
-0.8991925
-6.5571866
-0.8186438
-0.03258428
-7.681405
-2.2049673
0.571915
-0.03482861
-9.441496
0.08365479
-0.6530786
-0.042860057
1.0371073
0.04785732
-2.3642452
-0.10398396
0.062376518
7.8459644
0.099020526
0.08175263
-0.016862331
-6.425359
0.062221307
0.11875223
-0.08468822
-0.8923956
8.2932415
-0.079811685
0.046698537
-0.06916071
0.7814491
-5.5481167
-0.17495641
-0.079282194
6.970655
-4.5164323
-0.5895779
-0.049935784
-8.718592
0.5426188
-0.06258508
0.9829064
-0.033147566
-1.9925784
-3.29761
-0.053320993
0.08317486
0.034873474
-0.8330956
-0.17353651
1.4033074
-3.638828
0.19734594
0.058910232
-0.0030013497
0.56275433
-0.029552912
4.7042384
0.5228632
-0.09893467
0.87808883
-0.77672523
-0.4956548
7.3121824
0.5920186
0.05543857
-0.021223998
5.09797
0.33717695
7.569694
0.018631766
0.69400597
0.63793737
0.9285324
-0.39141575
3.181766
-1.3206204
4.451444
8.683852
0.70970106
4.508098
-8.705787
-0.090351865
0.007409341
-0.303175
-0.91245556
-0.094509006
0.048261017
0.019536888
8.08479
-0.71564275
-0.98868805
-0.1876352
5.293215
-0.2754292
-0.023936588
5.3970566
-0.045504246
-0.06878351
-1.1811464
2.0899847
-1.4809593
0.020117536
-0.91611415
-9.308804
3.6248832
6.590363
-3.7335413
-0.29506722
-0.5869585
0.0031872825
0.006012955
-3.5760531
-0.054950967
0.2957283
-0.97568333
0.032677066
0.97967523
-0.013543398
0.8467037
0.58750844
-4.758234
0.56034255
-0.00032229436
-0.12719147
-0.67144114
0.61916727
0.884785
-1.7602903
0.08285772
8.060946
9.170494
-0.00954567
-0.07929964
-0.096724175
-0.081265405
6.3685393
0.013086274
-0.0027125645
0.59923786
-0.041568644
-5.222772
-5.354647
0.62929785
-0.8120714
0.07076654
-0.0047507514
-0.061038103
6.3955216
-0.0073947376
0.68902165
-0.05811822
-6.6884284
6.8867197
-0.054293416
0.018708523
0.079093754
0.14665619
0.05430546
-1.806328
-0.0035799067
0.21607532
9.555313
0.7873779
-1.246918
-0.05051558
0.025253184
0.038069893
-0.032247245
-0.5968148
-0.7423923
-0.0672471
-0.9682845
0.8079933
0.9307889
-0.98265886
-9.410253
0.018858513
-2.9724143
-0.8366541
4.7021565
0.062273383
0.028996315
0.7041267
0.05987386
2.8720481
8.419166
0.5857078
0.9533259
0.79551864
-0.7084852
0.5966485
0.30820078
0.9465996
0.045368932
-0.8503887
-0.09005973
-7.2486234
-0.9122564
0.032947283
0.9355121
0.09720009
4.587308
-0.00041810982
-0.038001124
-9.561885
-3.418526
0.385571
0.09379186
4.407275
0.16055311
2.7310956
0.025500992
0.6752112
-0.98873585
-5.3322864
-0.02204608
-0.09280514
-0.5852668
-5.478088
-0.0007811173
0.07259399
-0.075662225
9.435131
0.05056296
6.442948
0.4047804
0.09464452
0.6112488
0.15748657
0.9177975
-7.377232
0.09521435
-0.09326337
-3.3981671
-0.84557456
-0.010639217
0.0694807
-0.21999459
0.9329604
0.41059673
-0.22053306
-0.8454959
-0.557884
0.07589975
-8.510369
-0.02752675
-8.724135
-0.18169285
9.869021
0.026938722
-0.024034623
-0.45462638
-0.86089814
0.22052023
0.0092133405
-0.07385572
-0.0461749
1.4910623
-8.034203
-0.0026192262
-0.07363927
0.07631178
-3.1843145
-0.095449194
0.70747006
-3.3175063
-2.269364
0.17888533
3.475791
0.024575477
0.049855977
5.626585
-0.088879764
-5.9749136
-0.1906895
0.37304723
0.8296948
-0.6005589
0.07544185
0.4972831
-0.030239455
0.081703834
0.05258225
-0.030714156
-0.049790576
-0.0066303858
0.585041
0.16728345
0.4949963
-7.722933
-0.06755701
-3.6352913
0.038112592
5.0657816
-0.92536694
-0.051485106
0.3877988
-0.04184004
0.37087512
-0.048377134
-0.6711729
0.06354421
7.818141
0.048937682
0.012411299
-0.74617773
1.3822254
-0.36683857
4.1000166
-0.06994494
0.7942143
0.06770616
0.8276632
0.07465767
-5.37566
0.2446002
-0.5100344
3.090607
-0.39020577
-1.0325438
-0.19766267
-0.023994923
-5.764047
7.014825
0.0031211055
0.5807938
0.06173796
-0.5130307
0.014714523
0.11490381
-0.5462953
0.20170632
-8.85943
2.8278468
-1.496808
-0.02516911
-3.479068
-0.024077652
0.26398665
-9.298223
-0.40528506
9.189819
-0.05284015
0.78933686
-7.337256
0.002069736
-1.288159
-0.025582856
-0.18314107
-5.895488
0.06073429
0.08183296
-0.037212383
8.175391
-0.07364249
5.5815167
0.8379111
0.37410957
0.029637499
0.5869969
-0.610646
-0.075804815
-0.20709935
-2.53074
3.7171896
-7.678664
3.8871384
2.5741346
2.7703106
-0.00010422802
-0.87408096
0.081787415
0.13561995
0.042873487
-0.031123536
-3.2411559
0.3011919
-0.01989045
4.1494875
0.08230511
-0.31046152
0.5953812
-0.99470836
0.65592694
-0.0045568575
2.5739224
-3.4144754
-0.072958656
0.064299196
-3.2623992
-0.7459507
0.88597506
7.9764795
-0.1668508
0.29873058
-9.546926
0.08456014
-0.047170002
0.9688215
-0.73399806
-0.23085819
0.007715221
0.6945268
-5.54257
-0.57784534
9.816778
-0.5104392
-5.7670145
6.1518564
0.22751251
8.405778
-0.6702298
-7.020401
-0.20170051
0.23103975
-0.016441027
-0.015204037
0.0533266
0.38909486
9.694451
-0.0011828747
0.7722784
0.2885645
-5.1301546
-0.09904775
-0.30230752
-0.3320314
0.83081144
-4.392633
-6.8765974
0.037810978
0.6448012
-0.07363117
3.7578921
-6.2673965
0.035130832
0.9830858
-1.651924
0.09062187
0.3602047
-0.58966976
0.096854985
3.726718
0.042459536
-0.8915771
0.06551326
-8.149688
-0.021660598
0.05734938
0.0659177
0.089007035
7.530443
0.9867073
0.07526586
-0.461343
0.39996287
0.53215665
0.1014085
-0.18071733
0.95730555
-8.982021
4.2276306
1.5608543
-0.02197945
-0.08043325
-0.08112143
0.051783327
0.04221658
0.02763239
0.09212778
0.017062092
-0.909162
-0.00885186
-0.566327
-0.011298064
1.2251006
-0.07702368
-0.8856459
0.043663222
0.7580602
0.582679
1.893652
-4.7716765
0.055357426
0.013503944
0.8380506
-0.07400798
0.034897838
-0.46221125
0.9245353
-0.5784227
0.5931442
-0.09281073
0.16725701
0.9612262
-0.24745916
-0.90270746
-0.039880626
-0.6455534
0.47681442
0.09119023
7.1502743
-0.083549425
0.9590517
9.2122345
0.0033326938
0.009296978
4.0041246
0.08727775
-9.22068
0.91266423
0.3409751
0.7276066
2.7923467
-0.07258233
0.046949554
3.7091796
0.9092867
-0.009553595
-0.9175158
-7.6939
-0.024537938
-0.89744276
0.01646106
-0.7277796
-0.020664394
-0.9041517
9.328725
0.9708694
0.60171556
-3.561125
7.780192
-8.997124
9.341287
0.4846468
-0.0673064
0.8754655
-0.07698733
-0.06372924
7.950616
0.09166275
0.044417385
0.08328173
-2.7994187
-1.6815466
-0.916817
-0.17333135
0.021119868
0.6097282
6.0494747
0.47345373
-2.6903365
0.10322592
0.017715093
0.03860543
0.044371217
-1.0097383
-0.10102928
-0.092172846
0.003263593
0.00026782945
0.7373329
0.014921534
-0.06394727
-0.82912964
0.20432925
-0.47704095
-5.461532
3.8247201
6.9573045
0.04090903
0.18508539
-0.4764592
4.8647933
0.079421096
-0.79912174
-0.03129626
0.9643096
5.539556
-0.36169055
0.017482588
-0.016275825
0.07679803
8.46091
0.053762488
-0.022352753
0.31825525
0.055899665
-6.936419
0.7872052
-0.8290957
-3.735559
0.05109975
0.023643343
9.850301
-0.096321225
0.7747993
1.237679
-0.06035292
-0.75985825
-0.08065883
-9.235373
0.51584893
0.04858089
-0.5695109
-0.0659647
-8.834726
4.7244105
0.0053410134
-0.05998905
-6.6098256
0.6231168
0.026979167
-0.58312523
-0.0045837383
-0.004365936
0.3479813
-0.18506724
-5.8777046
-0.09219044
0.00046740388
-0.48621392
0.49804866
-0.5181542
6.2265043
-0.14248455
2.9064312
-0.08695307
-1.5290116
-0.2811426
-0.019397832
-0.8712994
0.90474457
-0.019216176
0.104838066
0.63993454
0.011233691
0.33698416
-0.01332789
0.09163234
-9.667621
-1.490655
-0.7423796
-2.6147997
-0.9711155
0.43097028
0.6384109
0.4578381
0.5148187
0.13308959
-0.78882635
1.6173601
0.48110285
-0.031856053
0.98220545
2.163532
5.8613124
0.025715895
8.776771
0.09050059
-0.08666956
-0.07060835
-0.08713236
7.6554465
-0.8360244
-0.09700818
-1.3317703
1.6050062
9.041896
0.008086018
0.7438022
-0.04486335
-0.07369298
0.058635898
6.3289585
-0.08995633
0.008172448
0.04640379
-0.078400336
-0.13408957
0.016643347
-0.06407262
-5.878183
0.44215897
-8.4073
-6.770814
1.2915776
-0.014581153
0.08686244
-0.09685855
3.6618235
-0.051171437
-0.5341202
-0.03106674
2.1010375
-0.6345403
0.73262614
-0.15018469
6.252238
-0.6744095
5.434725
-7.162526
-0.26946652
0.24645679
0.080229856
0.03382482
0.08083193
-0.21749179
-4.3594093
0.1548231
1.3154409
-3.4365988
3.0852635
3.0715883
-6.0851264
-0.5224234
0.022848219
7.786447
-0.68625045
-0.0054060826
0.4852834
0.01785244
0.21873404
-0.097996965
-9.13408
0.63038725
1.3243808
-0.5672907
-3.9187675
-0.93878734
0.08032274
0.9288461
0.26535866
0.35101873
-0.7174449
-0.57923037
0.009309597
0.08433701
-0.043769524
-0.03352924
-0.67754817
0.0024553665
3.5832262
-0.17223655
0.55485684
-0.45388633
0.054483455
-0.59753704
-0.4613571
-0.4950951
0.018569056
0.022499522
0.20952843
0.823552
-0.90877354
-2.8925097
-9.54266
-8.45848
0.889305
-0.5122393
-0.78351074
0.0001242337
-0.7508589
-0.057846986
9.504188
-7.942248
-0.084678985
-0.05158028
4.994197
0.0678924
0.4137574
0.017061077
-2.5129955
0.06151717
0.8987001
-0.06544581
0.5235053
-0.081870794
-6.317739
-0.74239
-0.72883594
-0.22333682
-0.4364002
0.014508557
-0.53336126
-7.166146
5.7835746
0.07513525
-7.217637
1.2456503
0.871769
-0.8239222
-3.695446
-0.07716717
-0.0030590135
-0.42156377
0.6016946
0.55909353
0.04421993
-9.126033
0.098606214
-0.99264216
-0.4080229
2.9527602
0.036287725
-0.96485996
5.078646
4.263505
9.178772
0.00588081
0.081508264
0.68140167
0.19213668
-0.008343932
-7.237239
0.892594
5.2163153
-0.35840532
-0.08722831
7.589744
-0.0031148763
-0.40235424
0.7161484
-6.509046
5.1818867
-0.007093349
-0.2721413
8.889598
0.29378697
-3.8987787
-0.72626203
-0.021977827
0.1663295
0.19252077
-0.82283765
5.5524263
-0.31389147
5.5121794
0.28544632
-6.662592
-7.447438
-0.8633027
-0.2606645
0.7059894
-6.374034
-0.028286602
0.92435455
6.494523
2.9221325
-0.03507785
-0.06010701
-0.7205141
-0.036192715
0.14035533
-0.07262121
8.709525
-0.91320956
-0.08872188
-0.008028518
-0.83001995
-6.953506
4.545484
0.53266877
0.038704067
-0.8781636
9.090484
-0.22776169
0.023034435
-0.06193461
0.40169495
0.071480654
0.04971936
-0.4357544
0.07615305
0.06766627
0.050523892
-5.658794
-1.1327746
-5.6536
0.046765648
-0.056993686
7.705093
-1.1052012
-9.526613
-0.1397644
-4.999752
-0.08093058
-0.018556869
-0.73237836
-4.7104487
2.5621476
-0.055898875
-0.09464189
0.9229286
-9.584694
-5.074116
-0.06086635
-0.008534929
-3.085351
0.9083323
-0.4730708
0.9743871
-1.4470713
-5.5945277
-6.98757
0.48101002
-4.478546
0.22626832
0.08616643
0.41834682
-1.1071264
-0.07547713
-6.4535394
5.854018
0.062886365
-0.940167
7.648164
-9.381608
5.785538
0.21412526
-8.621511
-3.898316
0.053197447
-0.16601275
0.26832905
-0.071127586
0.41300884
-0.048346028
0.920169
-0.046210136
-0.04427934
-0.784609
2.3289773
0.067914724
-0.05053517
2.1872578
-0.0030670902
-0.026062718
-0.077010326
0.19055903
1.9846025
0.107151635
0.016629351
-9.021753
0.2610223
1.6418802
0.06525651
-0.93100846
0.09865537
0.5131656
9.11598
-7.8334293
0.01267785
-6.3182054
-0.053539924
-7.447793
-0.32049915
0.25574476
-5.120108
5.317731
0.4263615
0.7969689
0.1209675
-0.013538689
-0.095184974
-3.5037634
0.36360273
-0.08197724
-0.7272808
-0.070099026
5.8583755
-9.883245
-0.3967708
6.8050594
-0.047340028
9.146314
-0.54935884
-5.1191654
-0.054633923
1.8404676
0.071086675
-0.86636376
-0.09824383
7.4393716
-0.021185335
-7.0549655
6.684509
-0.4016721
-4.0100446
3.4543204
-0.07515553
-2.1858044
-3.2255654
-3.3003242
8.913323
0.093256585
0.83492905
-0.0075102705
-0.0093366
-0.07726992
9.494757
-0.9471939
2.4222083
0.2256404
0.78000057
0.07870248
-6.1374736
0.7565447
7.744089
-2.9432166
-0.9454214
0.030855795
-0.012302007
0.13303629
0.60914403
0.0050138775
-0.63538915
-0.6700312
0.05047989
-2.2264426
-9.545741
-0.072988614
0.6660697
-0.069067515
-0.035028122
0.69944936
-6.2823195
0.038391307
-1.5740165
5.93254
0.0185016
-0.051503636
0.012045222
-0.057864375
-0.91836023
0.091115676
3.9117894
0.33254448
-0.039292604
0.16297366
0.0076411534
-8.411562
0.028756984
-7.668823
-8.085204
2.4385242
-5.253347
-0.09949928
1.0405748
7.89679
0.070527636
6.790733
0.018800605
-0.047118746
0.033005763
-4.2348614
-0.5486609
2.7695794
0.0026689712
8.453544
0.030132057
-8.411524
6.1393094
9.323057
-0.9530084
0.6022178
-0.06930576
8.03525
0.09468706
3.6582828
1.876516
-0.08682519
0.054527838
-0.3877688
9.84456
0.082322635
0.03226729
-1.4128479
-0.28387773
-0.06672235
-0.12679921
-0.9951095
0.09326728
0.02749808
-0.5015682
-0.28160396
-0.8447715
0.3237758
0.044546846
0.07525122
-1.2599463
0.5889238
0.023449542
0.9525502
5.3399315
0.28230134
0.35273457
0.0062926686
-0.28987324
5.0320888
0.054769497
-0.6013503
-0.8049502
0.014651029
0.0075531164
0.06704328
-0.0638516
0.08717019
-0.05705783
-0.0764994
-0.07996699
-0.52205485
0.098942354
-0.0961569
0.66065574
2.283082
-0.6546509
0.9878842
0.61585885
9.926334
0.44508365
0.8538042
-0.025902232
-0.07099955
8.854687
8.369125
0.10220606
0.077187404
0.49053317
0.6276784
9.368052
0.90957785
-0.5344866
0.058754038
0.2714478
8.487647
-3.4190352
-9.875081
-8.256108
-0.051395353
0.1182684
-0.81902933
9.658367
-0.02475795
-0.098447025
4.659068
-0.008266501
-7.2753334
-0.12747839
0.04728543
-0.02974351
-0.6680994
0.022592828
0.06319136
8.052149
7.2384763
0.2382003
-0.023976449
-0.86236054
0.6718902
2.220157
-0.39037716
-0.8704783
-0.002803365
-0.8046331
0.043706354
-0.06518985
-0.256162
1.6914958
0.9834586
-0.052674837
-0.016385706
-0.04093812
-0.006818253
-5.2458234
0.22015873
-4.276184
0.053427786
3.6408954
0.0717226
0.011362882
1.4754847
-0.01033974
4.7104754
0.048393708
-0.0030473135
-0.052085325
-0.042118378
0.38179526
0.083545916
-0.012760746
0.07807761
6.11835
-0.092157185
0.050182506
9.840582
-0.50523835
0.08750814
0.0002938659
-1.4159695
3.9757004
-0.020556428
-1.9737157
8.629678
-0.052993823
-0.017431358
-0.02893232
0.55758
-0.026846718
2.771413
-6.167199
-0.01411985
2.8286023
-0.54807395
1.0193963
3.6023047
0.040963862
-0.05918683
0.29042193
2.6125436
-0.71544677
-0.21182388
0.47728193
0.037853114
0.237649
-0.039639987
-0.061454903
-0.09439754
-0.10011172
5.8551493
-0.05388658
4.245164
-0.79482037
-8.61443
0.59234697
0.9126338
-0.03545801
-1.6655791
0.86751854
-0.5966362
-7.558573
-0.05471745
-0.05812634
-7.6799326
-0.08625858
-2.7500813
-0.50536925
-0.037436213
5.5112834
-0.04216641
-0.29149267
0.79231733
-0.0037539802
-0.57265973
9.194879
-0.22905768
3.5104978
0.79304534
0.59795237
0.038420748
0.8812694
-0.15038784
-1.3319062
0.13948993
0.1268123
0.88000846
-0.009296144
2.19257
-3.314307
0.079650514
-0.057310194
-0.88892305
-0.8162943
6.167648
7.4404354
-2.5370321
0.5028497
-0.064756446
0.6165118
-0.007466751
2.1974692
-0.95011204
0.092746146
2.8515682
-0.4572497
0.94926095
0.022702025
-0.057831176
-0.02140248
-0.5488869
0.6553715
0.41349816
-3.2412524
0.09869621
0.23283614
0.014227594
-4.885429
0.5666906
-0.079581715
-8.418516
7.998337
-2.7768366
-0.6847902
0.49567416
0.09269437
-0.016721506
-0.042934
-0.09825584
0.013298211
-0.16518383
0.05481877
-0.05599126
-4.004788
-0.3785544
-7.2114086
-0.047193196
-0.026953291
-4.999073
2.8267581
-0.28856057
0.09655963
8.761632
0.0866739
-0.8433784
-0.05382225
-3.6133697
-0.5382806
-0.37956068
5.2169185
-0.58135474
-0.052164003
-0.3147075
0.007559993
-0.211335
9.696482
0.06872413
-2.5575254
0.8066887
-0.6724767
-4.5298643
0.08317396
-0.039199565
-4.000826
7.5023966
-0.11279484
-0.00856667
-0.933143
0.09514579
-4.875808
-6.2881575
-0.008242803
-8.935177
-0.009065001
0.5123126
-0.6863159
-0.031207893
0.37386125
0.028008161
7.710124
-0.121097565
-0.47276276
0.020711103
-5.2491055
-0.40989769
-0.9390373
9.08267
0.38991714
0.65774035
-4.8464847
-0.033254247
-9.220306
-7.9400043
0.35787207
-0.31874442
0.52331245
5.373606
-7.559899
0.02018197
-0.028265573
-0.094365485
-0.07977523
0.068311565
-0.43050396
-0.24294062
-0.028061526
-0.0555346
-2.9854445
0.03825058
-0.36941823
0.1171898
-0.9936864
0.27419627
-0.043606482
0.054866932
-9.458016
-0.308329
0.6022581
-0.012604288
0.04492515
0.06803384
-0.3240448
-6.518268
3.197052
0.07101333
8.8701
3.8875701
-0.96420187
-0.025530182
-6.703224
-0.08472725
-3.5254593
0.60013276
-0.11363636
-6.076508
-0.018006235
3.6400068
-0.36418116
0.07697306
-0.7927198
-0.25241393
0.019311437
-0.9416007
1.8159957
3.5264084
0.091826215
-0.019753968
0.3881312
0.8886408
0.60391575
0.3565981
-0.07680951
-0.07916798
0.26734298
4.3691554
-9.375818
0.46798486
-2.0288124
-0.66410625
-0.029847387
0.9962249
-0.6258848
-0.6954569
2.6524022
-0.18845688
0.9142369
0.37883934
-0.4700157
0.21566057
-5.5927277
0.80978745
-9.727496
0.07552633
0.547574
-7.5335917
-0.1784065
0.08759116
-0.010540019
0.05847082
-0.6883341
-7.766621
-0.11569166
0.39428934
0.014625896
3.9334726
-8.424043
-0.0035654502
-6.437813
4.5827656
0.88969284
0.26132947
0.91651577
-8.703191
-0.017911712
-0.05171906
-3.7312672
-0.08959761
4.107288
-4.217206
-0.059303846
-0.062731974
-9.286405
-0.04774782
-0.8707678
-0.8491148
-0.04459082
2.2470367
-0.093566775
-0.6623583
8.380908
-9.524233
-6.120695
0.12208638
0.06565129
-0.31088004
0.77939355
0.098209985
8.344414
0.029548822
0.021407763
0.073908746
-0.06291975
-0.026671372
8.724367
7.19972
-0.3783818
0.06311564
-0.861237
1.8719599
3.6628532
0.216119
0.08970074
0.08032524
0.6341031
0.7179612
-0.030439515
0.36809993
-0.22702491
-0.55690426
3.7503703
0.9702266
6.948649
-0.086606234
0.8161454
-0.6710635
2.5644436
0.046143934
4.485014
-7.1773806
0.032407958
-3.0109098
1.3020517
-0.036184173
-0.76189923
2.7300315
-0.16783342
-0.107874654
0.093680546
-0.95045036
0.61509097
-0.93754447
-0.5438805
2.5688748
-4.312559
-0.006512627
-4.408771
7.865133
-0.054405987
-0.10098721
-8.322588
-3.881161
-0.55360025
2.958234
0.0693224
-0.9846145
0.5419862
-0.21412404
0.0025163183
-4.7306724
0.9467614
-0.08806149
0.04424754
0.01737778
4.94023
0.8820085
9.475008
-1.8186989
-0.8237327
0.033317324
0.06813321
-0.05407452
0.20001341
-0.6800054
0.06949265
8.926978
0.84789354
-3.7149327
0.15416756
0.023507955
-0.18358332
0.7428566
0.099609315
8.480869
0.049771693
-0.43874815
-0.030263111
-5.3878384
-0.0042936704
0.08572545
-0.068297386
8.742858
0.06796369
-2.5669863
8.184625
-0.0755411
0.052479565
-0.015326815
-0.44000658
-0.2213852
4.9878955
-0.03536956
0.87015134
0.07898497
-0.028702501
-0.20710956
-9.467715
-0.057225756
6.689679
-9.525521
0.58453923
-1.7150809
0.090430215
-4.311975
-0.5160913
0.586875
-0.062225245
0.099511325
-0.23819302
0.08154323
-2.5847285
0.42068258
0.012446256
-0.7598008
0.30786684
0.70012426
-0.02091859
0.07124189
-0.47603968
0.6374611
0.058742847
0.013318863
0.21425293
-0.037072536
8.327021
0.06123204
8.903535
-6.684218
-5.002362
-0.043183148
-0.034421824
2.8491917
0.05866156
-1.4418283
-0.029042445
-0.44442979
0.031882897
-0.07310765
0.09367457
0.060240302
-0.5679256
-0.8275895
-0.4145425
0.05506025
0.12541285
-9.503863
0.3893439
-0.07486332
0.6670796
0.0798902
-0.0848863
0.013170735
0.74023837
2.3388371
-0.055989463
-0.042855345
-0.95332557
-1.7734692
-3.5852516
-6.990447
3.6408415
-0.99613506
0.5738346
0.0070251413
-0.04414179
-3.2047105
8.6126585
0.05074659
-0.23291853
0.03563502
-0.08810784
-0.08013556
-6.3511586
1.2416065
-0.34665427
-0.117323
0.05010096
-0.925649
0.028623171
-0.105557084
-0.3939127
7.92127
7.854008
-0.063918024
8.68562
-7.776573
0.087104484
0.044358883
0.08405759
0.09656215
0.09846831
-0.048584558
0.08195636
-5.6331043
-0.0010127302
-0.08067624
0.89010483
0.08603127
-0.65183765
0.059781272
-0.2715779
-2.4594324
-0.38704848
-0.08233738
-0.061981928
-1.3457884
-2.7546566
0.026122274
0.06487891
-0.0081005255
-5.43743
-4.6066866
-0.06192583
0.09290966
-0.39653847
-3.7340388
6.688055
0.8583942
-0.011493325
-0.04801712
1.7479602
-0.038439427
2.2700531
0.018093908
-0.038867917
1.4972847
-0.5142193
-5.480961
-0.4365215
-0.009603734
-0.10147781
-0.097089775
-7.567106
0.0927893
-0.9571315
0.05538421
-0.19680052
-5.259993
-0.0572358
0.015408577
0.47701332
0.08654938
0.40890923
-0.78835315
0.3427905
-0.43264225
5.731461
0.24988459
0.07056344
-0.00992145
0.038459055
-4.6073227
-0.57996476
4.3628592
8.933126
0.90758425
-7.3255835
7.2769003
-0.025789987
0.38816985
-0.09619064
0.011773408
-0.3466782
-0.086347036
7.112389
-0.20270947
-0.80566835
-0.02882844
-0.67512697
0.011388858
-7.553691
0.056153946
-0.07872414
-3.1179373
0.50257677
0.6188388
-0.03607367
0.013006695
6.7928753
3.2182264
1.3584445
-5.4422073
-0.30942076
-4.7675753
3.2782073
0.014093782
-0.018776426
0.023673387
-0.044962056
-0.3793539
0.020382192
-0.04447499
-0.38984787
0.99059135
0.45815384
0.6486225
3.7929122
-0.073690094
-0.9910798
1.6619837
-0.8449367
-0.012168924
0.0990992
7.2058067
-0.009730073
-0.13272339
0.001838777
-0.007012554
5.7116437
9.506992e-05
-0.4220274
0.9561058
3.0448298
-7.2012405
7.6501565
0.6261285
0.19123381
-7.6015835
-0.03938969
-0.04354716
-9.0848255
-0.14675336
0.06276198
-0.05221392
-0.47758606
0.09161724
5.2728467
0.4948516
3.9140284
-0.044249754
7.0292535
-0.07982993
-0.24293108
0.053343903
0.7874797
-0.067914866
-0.38948283
-0.28591534
-2.4852755
0.06849045
0.77009946
-0.87946624
2.416013
0.027445778
0.043579612
-0.022121707
-5.0947843
4.366287
-0.023532081
0.09510364
0.53398806
-0.85880905
4.2718005
-0.55449367
0.085555136
8.02047
-0.053493146
0.06970646
2.3578992
-0.1696018
-0.09656937
-0.082578816
-5.9513626
-0.086603776
6.714682
-8.848705
0.078218825
0.04550531
0.08972169
0.67303544
5.9759364
-0.046873
0.050035927
5.240358
4.2604356
0.035947394
-6.6540766
0.05340236
-1.0596024
1.9430335
-0.07101595
0.013384595
0.9621626
5.6057444
-0.9955056
-0.089356996
0.29290885
0.6753041
-0.071687534
-2.8853037
0.02897312
-0.22754852
0.13895984
5.352045
-0.7575093
0.97106886
0.20553264
-0.47690597
-2.6534765
-0.047429103
-5.3190684
2.6691086
-0.08698007
0.010503832
-8.7628765
0.5961487
-0.08523806
0.0980239
-5.6911354
4.503036
0.39307106
-8.335896
-8.877754
-0.35977182
0.012279001
7.7613626
-0.043794822
-0.025074916
-0.77687943
-2.3340714
-0.9938276
-0.8905985
7.1540203
0.16823193
-5.600633
-0.4152021
0.068765156
-0.3485987
0.08709187
-9.430931
0.70601445
0.06198419
-0.45289704
0.039357148
-3.4116063
0.0818619
0.096880466
-0.013079106
0.1292278
0.013879834
-8.2953415
0.07981029
-7.872555
7.4534225
0.8733587
-0.08912865
-8.25747
0.001772023
0.0049039745
-2.7362514
-0.06210093
-0.014170625
0.09669037
3.5032988
-0.08091726
-0.066193275
-8.375953
-0.054328132
-0.2494152
0.49031937
8.208696
0.31643426
0.04114031
-5.4102197
6.7457705
9.790053
0.17408589
-0.0589703
-0.67250293
0.15939568
-0.08085525
0.0033700245
-0.11079656
0.1597139
-0.723539
0.33383593
-0.800084
-0.002930289
-7.562243
8.896433
0.008266876
9.894381
-0.8240786
-0.046085585
0.89043945
-4.759468
9.805506
-0.078916624
-9.909203
0.050973065
-0.008400196
-9.10317
-1.0957496
0.03316097
0.0728916
-3.060014
0.109656975
-0.025723241
-0.004153079
-6.155801
-0.08278403
-0.30284378
-0.35294127
2.2724535
-0.07117679
-1.8391258
0.1801739
-0.013006387
-0.029394142
-0.046813786
0.23855138
0.050776664
1.0716393
0.003503743
0.58573455
-0.33323944
7.586602
-9.903728
0.069368266
6.283467
0.70992756
-0.20121342
-5.1212454
0.851713
9.902819
-0.0023608753
-0.6479381
0.9573593
-0.8358482
4.1487846
-0.5896172
0.65776134
-9.450575
-4.009133
-0.064117
-0.73828936
0.018929191
-0.33011082
-0.01149582
0.034110967
4.431634
-0.15975946
-0.030653382
0.03290913
0.06595823
-0.58812165
1.0457498
-0.57338077
-0.014725405
-0.70052147
4.408904
-0.029499326
-0.48445544
0.0033734683
-3.5145133
-1.2641616
0.8699285
8.382821
-6.6764708
0.62258327
-0.018914187
-0.09774766
-0.04179726
-9.0647135
-0.008932785
-0.4696613
-0.040824894
9.38826
-5.737829
0.36322016
0.021488491
0.017325135
0.6687101
3.2034042
0.7099707
6.70893
-0.10638544
-0.07446065
0.14889684
-0.7078641
-0.06935624
0.24819078
0.094393544
0.6320815
0.6052779
-0.09891761
-0.008918758
0.068701036
-0.12347687
0.13276328
-0.0581947
-5.7168975
9.182743
-8.482195
5.0629134
9.601073
0.1423143
0.0064861886
-0.053887304
-0.07342089
3.2538953
-0.021191236
-5.8102946
0.06868948
0.17700836
-9.516313
3.0056508
-4.5996027
-0.007367617
-0.040245
-0.9986219
0.7243064
4.015513
5.8975177
-0.06900648
-7.640496
0.63255537
-0.9364086
-0.042663395
-0.44244123
6.13886
-0.017607003
-0.032766815
0.08363126
-0.011349408
-0.027255945
-0.11245429
-0.09239309
7.443185
4.9794326
5.7160535
-1.9095668
0.014847857
-4.992061
0.09538402
-0.10883844
-0.81220263
-4.157102
0.0044369427
-0.7560109
-5.007199
-0.35363173
0.48839113
-7.5050445
-1.6825938
-0.021001674
-7.5470214
3.4719512
-0.084092386
-9.565299
-0.8830971
-0.090169415
0.70811063
-9.037938
0.19845542
0.019096022
-8.627776
-0.74441147
-0.08044069
0.7916661
0.05687409
6.3538227
-4.938383
-0.06590412
-0.0706294
-0.07969217
0.1610401
7.251801
9.229564
-0.09619886
2.2839744
-0.94800687
0.05828833
0.18734016
-0.06411878
0.24474296
-0.08870982
0.07497695
-0.027405016
7.0681634
-2.240576
-0.9432433
0.5248742
-7.6831493
-0.0578382
0.99652547
0.070587754
-0.061722066
-6.61354
-9.477197
-7.7240233
0.63095206
7.6635175
-7.3780923
-0.70814604
0.7147867
0.40260676
-0.47318384
8.50034
-0.048235986
-3.8423364
-0.41634196
-0.09327108
-0.07449731
-0.23079082
-0.037442364
-9.384581
0.6767844
1.9194784
-0.050366525
-0.07934004
-0.10918317
-0.019556472
0.69531703
4.9018664
-0.64741737
2.0508528
3.240191
0.5249549
-0.8490315
-0.27549928
-2.3328857
0.05911009
-0.34872234
6.5187716
-0.5687042
0.8456768
-0.8400502
-3.3694842
0.45333883
0.668784
3.356872
-0.52881765
-0.047670923
0.0941181
-2.3551602
3.1957905
9.603288
-0.0158711
0.027550595
0.6453565
0.81695664
-0.9372938
0.027090352
-3.9152117
0.060926482
0.08492527
0.0772167
-5.7714124
-0.07430896
0.8239353
5.4045553
0.06899848
5.4880147
0.0031853032
0.9374532
-3.3171983
-0.0778972
-0.21081705
8.230945
0.996732
0.56426406
0.99105704
-0.9904553
-2.3362248
0.04996791
-4.122051
-3.3115072
0.25035548
0.018677348
-0.013520542
-6.6509023
-0.8899966
5.7625923
0.07042566
0.12303287
2.1597764
-0.023793079
-6.921471
3.9588983
0.062037803
-0.028355638
0.97846675
-2.4880571
-0.021083355
-0.019523181
0.09964465
0.011286854
-0.00055349176
-4.9978747
-0.2950776
7.161949
8.857466
-0.28308773
0.003040455
0.007347678
-0.088033736
0.04304595
4.1896224
-2.3277586
0.84202045
-0.71395236
8.959492
-0.0012133517
-0.0006240146
-0.06387855
0.45894337
-0.46602923
0.25277257
-0.8332076
2.6948786
-0.030779503
-9.676273
3.902304
-0.065563485
0.07164788
-0.7957747
0.036782097
-0.8694218
-0.3307561
0.010375828
0.8622177
-0.14604263
-0.029302541
-0.04817392
5.152609
-0.40554458
0.30423278
0.24504691
0.3638206
-0.09325922
-2.8090692
-7.1636662
-0.23737991
-0.46377313
-0.014122823
-0.0051246397
-0.027971044
-0.10037019
0.08476652
-0.07975258
0.94301057
-4.8261147
2.8478317
-5.6117597
0.005976137
6.42541
-1.6330931
0.019429838
7.3074384
0.055754203
0.006274758
-0.8881178
4.9414787
0.041371696
0.061469942
-0.08076269
0.6942323
-0.021189295
-0.29242402
-0.58358824
-0.70413095
0.060588002
-0.014353834
1.0973555
-0.08830747
-0.087915964
-0.009529591
-3.6599653
-0.07707718
0.4907809
-0.06464867
-4.1950564
-0.6308168
0.4545161
-0.09424107
-0.065351814
0.96712834
-0.04475936
-9.133297
-0.72930026
-0.07059274
0.03749853
-9.943665
0.010276786
0.025373766
0.034118198
8.256303
7.450212
-8.969095
-7.380728
-0.4243146
0.556182
-0.09930183
0.843227
-0.0030717873
-0.041317936
0.028390447
1.2085079
6.514274
-0.2751402
0.4038665
-0.04217358
0.5769721
0.019010503
-7.719275
0.09073229
7.437187
-0.16744363
-0.32059553
0.43891537
-0.024873773
-0.88302284
0.029236464
-0.8751528
8.842372
0.32017937
5.5741897
5.2911873
0.5453194
9.026462
-0.091351755
0.012322855
0.6455142
-5.3929853
-0.08658057
-6.0430946
-5.7888303
-0.055516407
-0.045546222
0.07171822
-7.596291
-0.04340677
-0.7538024
-2.9082854
-0.020940254
-0.09538972
0.37258926
-0.010576035
-6.8255777
-0.44806927
0.28318158
0.03155459
8.443935
-0.28546143
-0.09113305
-0.11371521
8.795136
0.022107685
0.040860154
9.967071
-0.0059454236
-0.6567331
0.29956594
-0.033505578
0.055033393
0.89043087
0.073810615
0.032451265
-0.28340125
-3.0117772
0.91572386
0.07125075
-4.455836
1.8029372
-7.959428
0.076328814
-0.73631805
-0.034032848
-0.06796369
-0.85531384
-0.045044497
-5.946192
0.03411076
-0.018029075
-2.7683175
-0.03614117
-2.6891024
-0.13941509
8.213559
-7.885744
2.1565537
0.25023982
-0.61779463
-0.08493723
9.548589
-1.233865
-0.6964756
-0.08060116
0.0354724
0.5633112
0.85975015
0.47448435
5.112343
0.6931244
-0.6080878
0.48753947
0.5688716
0.22297636
-0.03636612
3.2794576
-4.10071
0.0856553
-0.69089735
-0.046550687
-9.683793
-0.93429434
0.057260502
-4.4671955
-0.6569027
0.93716764
0.01303209
0.09892896
-0.0035742607
0.02083438
-8.346957
-0.055035252
-0.06157588
-4.2216444
-3.0784554
0.5682082
-0.37767094
0.058006693
0.039506543
0.96969026
-0.621461
-0.54471165
8.328474
-0.00386578
-4.1225066
0.07090463
6.336576
-1.240506
9.412961
-0.026918713
8.964064
-2.3415513
-0.08683499
-0.5943354
-5.4539566
0.06610756
5.054558
-0.091748916
-0.89832777
-0.8848938
2.2818234
-0.06942919
0.08709548
0.9737558
-0.016199963
-5.307844
-0.15743764
0.042433623
-1.5018281
0.36167794
-8.574463
0.07048805
-0.05435948
7.3026457
-7.444697
0.036862258
0.09324129
-0.07294438
0.07116846
3.2875261
0.33417398
-0.037222765
-0.06887221
0.5279739
0.021268178
0.008068223
0.008045203
0.9902608
-5.6929717
-0.6489827
7.423437
0.5429666
-0.058256492
-7.7649198
-3.6648386
-0.40093312
-0.54873466
-2.6529841
0.040877853
-2.430741
0.36872104
0.5606813
-0.087906264
0.6501014
9.937578
-0.32079232
-8.246851
-0.6380557
0.023936413
-3.5160344
-0.023460338
0.20284006
-0.058483474
-3.6042373
0.35873646
-0.09579031
-0.093054436
0.62246734
0.39115015
0.23078796
0.013523417
-0.37577733
-0.7644555
-0.31264612
-0.06453804
-0.0033161263
0.7053657
-0.018937564
-0.007016698
-0.20627755
0.58215606
5.397066
-0.84353566
0.08562709
-1.3493922
-0.042501044
-0.08472436
-1.9225532
0.018122833
-8.704842
0.06470624
0.095243834
0.008476334
-7.837153
-0.07953034
0.030894723
0.18279128
4.573562
0.042416
-0.016101493
0.031955034
-0.48333055
-0.09879986
-5.8789515
0.014329453
-0.017754901
5.8672185
-0.09035507
-0.5890598
-0.061980385
-0.030504782
6.2110643
0.51191616
-0.876866
-0.49688953
-0.5931624
4.7177973
0.07868118
0.115174286
5.7146807
0.79327464
-0.009395593
0.09731453
-0.029897077
9.630036
-2.2796488
-0.27674058
0.39639866
-0.04335099
-8.569341
-0.9624479
-0.9949446
-0.89846945
-0.30738512
-0.06608529
0.030732352
0.74612886
1.2078183
-0.025115402
0.03797488
0.06226954
0.7243956
0.06124462
0.05828495
0.7711187
9.264913
-0.00062048197
8.058162
-0.44959986
-7.7820826
-0.040113553
4.39032
-1.1159284
-0.52662456
9.061535
0.05489639
-2.4514182
9.568743
-0.5827665
-0.075992435
0.006725478
0.07534932
-0.21437977
-0.002463769
-0.75257826
0.041886445
0.5191095
6.865351
-6.34763
0.9732359
8.741042
-0.06577531
-4.9876366
0.3267949
-0.24686699
-0.009196647
-0.22938362
0.10699201
0.85192615
0.3851815
-0.04562249
-0.03997878
-0.17133176
0.93836933
0.92602354
0.09197072
0.29895025
1.4576263
-6.045363
0.039647236
-0.88842547
-0.07672271
-0.37454653
0.028226595
-0.06062512
-8.378031
-9.543673
0.017181123
-4.318375
-3.0396245
9.890942
1.9890183
0.98092085
-0.9961088
-0.029160595
-0.03253921
-0.76347774
-5.321056
-6.9386325
1.6612197
-2.564411
0.043462567
9.736552
-0.0825254
0.59951335
0.13550949
3.079018
0.036017034
-1.5149472
-1.85831
-0.08013343
0.42051625
1.8235112
0.078186356
0.848183
0.08371362
-9.103263
6.9901524
-2.2484953
0.059439782
0.057752453
-0.662012
0.02308864
-1.2578365
9.215564
0.059845507
7.022588
0.53675616
-0.015403859
0.033772703
-0.031322654
0.03758395
0.09543188
-0.056418404
-0.089899756
0.32218158
0.35888827
-0.8642245
-0.93196195
0.07367818
7.7568126
6.2544713
0.040269297
0.47859508
-0.10185597
-0.13222618
-1.8213441
-0.6920682
0.048501745
-0.04664993
0.081747964
0.07909016
0.1035546
-3.4827478
0.06293186
4.965417
-6.9119782
-5.9120283
0.052307572
4.3707194
0.052739885
-0.0070821596
-0.022192484
-8.724253
0.08084137
0.8191895
0.058249
-0.2481067
-0.08008145
-0.040460132
0.81130725
3.3227189
0.0394564
-0.08243798
5.754502
2.1730785
-0.9576083
7.3545237
0.07565882
0.9849015
-7.6593184
-0.03614942
-6.1123586
6.7648077
-0.5829554
-0.021201082
0.08326482
-0.07965487
0.07392693
-0.049812756
-0.25995743
0.96251464
-0.45890522
0.06904703
9.355075
-7.150013
-0.9671118
-2.702054
-2.9301987
0.6844946
0.5116269
-0.057118513
-0.8556257
-1.7868971
-0.22329727
-5.490951
0.062249556
0.97673804
-0.33966413
1.7774112
-0.008448245
0.0064483895
0.01408644
0.087433204
-1.6267024
1.6008885
-0.9163428
-0.054366685
-0.021703016
8.727238
-0.0176184
-7.87603
-0.5901641
-0.082709245
-0.045689516
-0.040135093
0.040360846
0.017036527
-3.3438337
-0.76486987
0.8736389
-0.47506425
-1.6463417
0.9705247
1.7277137
-0.82008034
0.95161504
-0.28169224
0.64901
6.9623675
-0.64330834
-0.033873506
-1.4950336
5.0319924
5.39875
-4.296029
0.00394852
8.475698
-0.32859257
-0.078187235
6.391185
-8.457312
6.191624
0.07361159
-6.474146
0.5079616
0.08349166
-0.5160844
-0.034500506
-0.06847161
-0.011141248
-0.0006571953
0.054180782
8.078861
0.043486804
0.07470215
-2.383867
0.4184537
-9.682163
0.061954148
-0.032691922
0.0747973
-0.994616
0.5791208
7.5703206
7.9062996
0.05364242
-0.7485603
0.060433913
0.07731668
-0.48549366
0.11269436
0.5288345
-0.8818219
-0.031970713
0.011281926
1.3252866
0.57274806
-0.029285925
-0.66000813
-0.0144710345
0.08789833
0.67285925
-0.23824528
-0.6703015
0.37913328
0.28633237
0.00089783856
-0.025361745
5.423421
0.08749639
0.40047082
-0.5760326
-0.99168974
0.3955124
0.06666524
-0.01921165
0.050888777
-0.95536774
0.23828752
-7.015354
5.3086405
-0.048731066
0.16665119
0.18042421
-0.96513045
-7.215635
0.8944729
8.962972
-0.034711763
0.07909569
-0.90665656
-1.6445832
-0.012194974
-0.028135661
-0.06953822
0.038892917
0.097597554
0.3775817
7.2260246
0.03272245
0.012630152
-2.9782977
-8.443425
-0.59879863
-8.316691
0.88011134
-0.28226954
-0.6186131
3.3403025
-1.9068402
-0.010809511
3.3320525
-1.6834971
-0.0429836
-0.5337751
0.48017222
-0.09112419
3.302105
0.05821957
-0.097515166
0.56728774
-0.061179366
-0.36255845
-0.042358693
-4.1120143
0.45545563
0.010265172
-0.09211191
-0.0011986122
0.0136467535
-0.5579556
0.49109566
-0.077522725
0.45450065
3.407078
-0.12499638
0.81229234
-0.088167295
0.7771515
-0.042247433
-0.2636378
-0.69137317
-0.28526625
0.09019077
-0.12941265
0.9801715
-0.48764026
-0.05162349
0.024103364
0.6180883
-9.858645
-0.03567802
-9.864476
-0.9686853
-0.75645196
-5.1129017
0.00034958904
0.07194305
7.0388713
0.6038476
5.262595
-0.08464342
-0.96865165
-0.03515971
-8.388869
-0.9469416
-7.2446437
-0.39960498
-0.6298146
-9.425795
-0.56536305
5.837846
0.06215463
8.209882
-7.43026
0.08236246
-0.76569307
0.50234604
-0.038061514
0.0877786
0.07686177
0.08239855
-7.5266356
-1.8094847
0.03630331
-8.081937
0.09901249
-0.44214764
0.10190117
-0.6820371
4.186892
-0.07365169
5.9982033
1.5345223
3.552874
-3.7488368
-0.330193
-0.3546788
-7.954213
-0.6178208
-0.022668222
-0.27971917
-9.80308
-0.5704004
0.06485441
-0.24207318
-0.40782458
-0.07800393
-0.65976894
0.104308344
0.61232173
3.2310126
-7.124082
-0.06390293
-3.2761714
-0.041936897
-0.24589644
-0.783663
-2.2152076
-0.0040325164
0.06711214
-0.072940856
3.1089401
0.0012021118
-0.65246093
0.03036029
-0.6312658
7.260227
0.09719658
-0.88993454
2.9563446
0.46420524
0.022745876
1.1014981
1.819835
-0.067865275
6.608021
-8.940142
-0.40152285
-8.018546
-0.026395477
-2.396169
-0.014927654
0.09262178
-0.08060453
0.21975805
-0.6002996
-0.083715856
6.971574
0.90234363
0.018488036
-0.6956754
0.07643595
7.5442343
0.0236177
0.0700557
0.025236499
-0.29571068
-0.35277823
-0.064950004
6.5651417
-0.06922996
0.06787826
1.1321533
0.07437857
0.044515926
-0.7801166
-0.013810215
0.011678795
-4.1039424
-0.34242865
0.4299016
0.84676546
0.2313492
2.941772
-0.6374302
0.07921309
2.1313825
-0.005484407
-8.576372
-9.465232
0.61673695
-0.013699694
-0.009038966
0.8907308
0.45035228
0.5550669
0.57626027
3.5966957
-0.040743347
-0.07860648
8.199067
-0.8072653
0.046698537
-0.09158004
-7.360178
0.326461
-0.09047129
0.8821718
-8.203739
-0.14663689
-1.7369298
-1.2965424
-0.7062527
-5.540109
-0.031353883
0.32607055
4.18783
-5.069099
0.03617644
0.016363926
-0.049061745
0.066126175
0.0013428982
-5.385863
0.019470623
6.6517353
0.008595369
5.848526
5.014336
1.7737017
3.4521656
0.04447358
0.8798642
9.477749
-3.014152
-8.308942
0.64845526
-0.18011534
0.05610006
0.29435155
-0.01520123
-0.83542645
0.25643864
-8.431009
-0.096976995
0.075842045
-0.0555949
-5.2076974
6.214792
4.4873104
2.7149594
-8.723996
0.091855615
-3.8650396
0.022768341
-0.0066378643
-0.009485116
-0.71960956
-0.07807395
0.0384998
-0.9961502
-9.287143
0.01818674
0.09511369
-0.08709188
0.053527623
-1.9270356
8.286397
5.6317396
0.094513275
0.007114616
-0.052309044
-0.06917138
1.6832838
0.4081139
-0.0793859
-8.301401
-0.7647538
0.81807405
-0.020337012
0.99637043
-0.66193634
-0.9472265
0.03145672
-0.5334055
0.036179107
3.8726842
-0.040109262
-6.659198
0.015478863
-0.08067045
0.0826579
2.0931094
0.051800672
0.8038113
0.02010757
-7.280439
-0.01632581
-0.015992442
-6.851156
-0.2557717
-0.047992207
-0.95352226
8.479127
0.088796586
0.086666115
-0.57401854
3.0212166
-0.46311593
0.0009196551
0.012170609
0.8561963
-0.021200933
0.5966741
0.14525478
0.053838897
2.104142
1.2744956
-6.4325686
-8.626314
6.145987
0.92309517
-8.16734
2.2056487
-0.41844964
0.9523567
0.71665233
-0.0020873253
0.08018764
0.72057724
2.686712
0.64196455
0.0579991
0.00697557
0.027627267
8.798515
-7.052606
-2.9004793
0.0060929167
-0.0449665
-6.6133137
9.70124
-0.0013336892
0.8144622
-0.020833084
-0.08693599
-0.29240277
-0.07187832
0.5367898
-0.081512846
-1.0789961
0.39141336
0.50572246
-0.09191543
-3.020638
0.20893228
0.524058
-1.9798175
0.050982025
8.35852
-4.9132
0.045520946
0.38299435
9.294135
0.008753873
1.3327106
0.020052955
0.08860868
0.38208392
0.39838153
-0.09321501
-0.38985214
-0.18711588
-0.06928908
0.083873965
-0.04004936
-1.0082275
-0.74832976
-1.1129285
-8.442992
-0.6085488
-0.09085822
0.031087011
7.6290736
-0.062300038
0.33974972
-0.07885937
-1.7859284
0.065454945
0.04156769
-0.90352905
-0.09157357
-8.979433
0.69
-0.021704346
0.97410136
-3.253251
-7.2374835
0.44492576
-7.6969113
0.22179815
-0.29063243
0.16932087
2.9318843
0.98069656
2.477997
-9.231292
-0.74549824
0.18984729
0.0376203
7.0896735
0.0031641922
-2.1568851
8.214726
0.7916667
0.33817533
0.57226
0.7640838
-0.36857775
0.71475446
0.057255555
0.24705577
8.675953
-0.022609126
0.05619997
-7.4855623
5.646738
0.3533222
-0.095115215
-1.824292
-1.5113692
0.09989414
0.22700645
6.1647077
-0.52053636
0.313787
-9.83362
-0.04593488
6.4926505
0.0711049
-0.0043562306
-0.14838843
7.9078393
0.0493321
0.0018600362
6.326833
0.13261764
-0.5391595
-0.8109345
0.09526995
-0.030121457
-0.069344975
-0.21079205
0.00039922976
-0.030684674
-4.8627496
-0.05100261
3.070605e-05
-0.011012897
-0.16798548
0.041030303
5.6177526
0.18815099
0.2214038
0.08766533
-6.5344114
-0.024595965
8.660838
-0.0034842691
0.9205875
-6.6272845
0.0036156492
-0.251814
3.055127
-3.1644652
6.257746
-0.059278242
-0.65137136
0.029073209
0.8242929
-0.08294532
-0.3845797
1.457221
0.027336344
8.366044
6.9341106
-0.09994626
-3.6110492
-0.70987344
-9.852265
-0.6180088
-0.6803639
5.0785704
0.21141149
-0.0013040113
0.023750236
0.97414815
0.02025
-5.6914887
0.05588147
-0.259697
-0.062782235
-0.05823136
3.1185246
0.5163118
0.08873378
-0.0333394
0.24821982
4.4664774
-0.031756345
-0.67573154
0.071023576
-0.8555905
-6.7884116
-0.059454504
-0.502481
2.802218
-2.9338927
-0.3291926
0.08757801
0.47728124
0.8463651
0.36300308
-3.0214777
0.034201108
0.0651219
7.099873
-3.607929
-8.659645
-0.6419499
-0.014952811
0.018230464
7.1092896
0.060725965
0.4737784
4.929714
-0.009963091
-0.5212429
-0.32705373
0.07042695
9.97459
-0.8034155
-5.720472
0.93999547
-8.413104
0.7693567
0.087481245
0.9994226
-0.07984457
-1.3419126
0.19240816
0.66138345
4.3527956
4.9360247
-0.08258995
0.19412772
-0.0020241218
0.012620892
-0.22903562
-0.16975221
-4.2517333
0.8052586
0.968516
0.99618804
-0.09049449
-0.9683063
0.5193052
4.0938663
0.22408643
0.23461333
-0.067588836
-6.1885633
2.797898
-9.988776
-0.656428
0.36787736
-0.05630957
0.020002974
0.51817137
-7.876203
-8.798906
-0.2138007
0.5769936
-0.06462653
0.84012324
-0.038903564
0.8974523
-5.215263
-0.063955374
0.97429055
5.7523026
0.017495325
0.02754577
0.46945718
-7.855964
0.039840747
-0.092058875
-0.8871828
-5.4470167
-0.07799927
0.037151467
-0.08478692
-9.810661
-7.5162134
0.08945777
0.06231229
0.13240863
3.1896574
-0.723595
-5.730294
-0.825982
0.45204455
0.075878896
-0.067388184
0.032210156
-0.080238014
0.0065914355
-4.306017
0.07670408
0.028049974
0.06271103
-0.23819162
-0.08964911
5.1523204
0.06836436
-0.065108776
0.064359255
-4.0140686
-2.5430517
-1.9146309
-0.35212907
0.010245674
0.15036185
-0.191939
-0.1442359
-0.9070402
-0.21457757
0.6636724
0.07310915
-0.13720272
-0.8175616
0.46443495
-0.77433383
0.34494236
7.4029684
-4.088566
-0.63322484
0.058908183
-0.75143933
7.3130255
-0.0420066
-4.951017
7.3838615
0.086283214
9.95395
0.6196598
-0.074219055
-0.046419926
-1.3118815
0.34544373
0.7675598
-0.7955154
0.39268613
0.084775575
0.02535712
-0.05127421
0.044099532
-0.054617714
0.07642686
-6.866305
0.7881986
-2.983863
-0.017542569
0.070835225
0.7008129
0.07837988
-0.031364225
3.4123101
3.8695648
4.3139024
7.8725424
7.5924544
-0.5212786
0.098151915
-1.7948545
-6.621154
-0.036706828
0.05499287
-0.07380517
0.0049314867
0.6640298
0.0458554
-0.05808664
0.4349684
-0.5349764
0.106822446
-0.051567867
0.040974084
-8.885884
0.1787142
2.2399266
-0.737615
-0.02876529
5.7845225
-0.04521434
-4.9916964
7.6893888
-0.0004545154
0.0937844
-0.99765986
0.086561665
-6.0221457
-6.944999
-0.08961152
0.918554
0.63275915
9.091542
0.014304016
0.06479716
6.425951
1.3009584
0.09719732
0.48974124
4.611784
0.76461
0.08058687
3.4618213
4.8844757
0.08368068
8.182641
0.0059237424
0.09250898
0.22104603
6.318326
0.06547243
-0.76069003
-9.136305
-0.12028039
-0.09199537
-2.669883
-0.23751503
0.012113778
-0.07972983
7.577152
0.8780893
0.45302278
0.0015257053
-0.5852684
0.056113414
-0.043746334
0.090387195
-0.62450475
-0.040526405
0.01657324
0.005634864
0.45391008
4.259066
0.81290126
0.27050993
-0.020289786
0.026469894
-2.2960536
0.09004975
-9.2326765
6.2117667
0.07340363
0.005438037
4.6510544
0.43585628
-0.057408616
0.09408752
0.05066234
-6.8491044
0.95322984
5.260442
2.852403
-0.8590303
-0.755751
-0.046983376
-0.47911575
-8.285097
8.089462
-0.09446995
-8.162907
-0.45595446
-3.1409829
-0.016596232
3.2184389
0.029530147
-0.07074649
-3.4177282
0.68524647
-0.036847837
0.08671423
-3.1188323
-0.035973758
0.6248961
-2.6020696
0.06709856
-0.02416539
-0.042839643
-0.060459808
-9.571097
-0.23470013
-8.287937
-4.1670365
0.07793353
-9.807259
-0.7423272
0.28899834
8.049687
-0.091009624
-3.5678144
0.62312895
0.027595222
-0.9616414
0.092384584
-0.9037545
0.08367079
0.61105895
-8.921515
2.876425
-0.4701713
0.9547775
-6.6464405
0.0062971506
0.03259272
0.31678358
-9.665686
-0.024963679
9.388205
-5.9466667
0.15283073
-7.8005075
-0.0054385937
5.6529603
-0.47125494
0.025180142
0.08453572
-7.5939612
-0.7269007
-0.63018215
-0.9998741
2.5571802
0.008336325
4.872705
0.019745734
-0.54845905
2.839799
0.07081777
0.017057141
0.05590992
-0.07619731
0.88394326
-0.17294405
-0.6789782
3.1050951
-2.0357134
-2.588323
-8.489913
-0.80149
0.070236035
-7.59124
-0.031638548
-0.00254475
8.560677
0.0022535408
-0.69730103
0.74644196
-0.7878467
-0.06935046
-0.08119767
0.9712006
0.0780263
-0.86990106
-0.20783356
0.091254294
0.036712617
-0.9706244
-0.6034421
0.6361473
0.048386663
3.1022844
0.4704753
0.8855812
-0.9952983
-0.65065837
0.9983857
0.0063219694
0.89052236
-0.59053034
0.041933775
0.61068594
-0.87210065
0.44149253
0.07666777
-0.0012078956
0.102509804
2.408766
-7.4321375
-0.05682369
-0.029651187
-9.298257
4.7534285
0.10036601
0.087638974
0.68069094
-0.08272461
-0.6739355
0.057270687
-0.42477596
-0.47338003
-0.09829429
0.23763265
-0.08705876
0.019353384
0.059258327
-0.34939054
0.06406937
-0.034992818
-0.7794949
-0.02795955
-9.5662565
1.7700595
7.7610545
-3.8857558
-1.1726612
-0.032257244
6.825384
-0.20757222
0.088350184
-9.945685
0.044487726
-0.7259038
-8.927068
5.704795
-4.809324
8.900216
-7.298202
0.076893516
-0.43601835
0.45348933
-2.467358
0.026897885
-1.7465832
0.86693954
-0.019786755
-0.06305365
-0.067468695
1.4310924
-0.63245285
-0.106224574
0.8380656
2.2395103
9.929571
-0.02609119
0.4782478
0.3100528
0.050896037
-0.08999452
0.735843
0.3424081
-0.8189774
0.09088314
0.89259434
3.8744059
0.390067
-0.0681242
-0.50016886
8.878308
-4.090114
7.6802316
0.04845057
0.7495865
-0.042272195
-0.05318681
-0.044030905
-0.45751786
2.986118
0.2763334
-0.034996163
0.93785214
8.005371
-0.04420372
-5.2227855
-0.02970602
-0.5314944
0.08207843
0.03118234
-7.1832952
-0.0054821935
0.017422704
0.019029526
0.018609462
0.8138595
4.9187346
-0.018297113
-0.0168079
-0.41431677
0.75820714
-0.7942564
-0.07381461
-1.8050627
0.83136356
-0.05189914
2.7038422
-0.73508453
-0.38485947
-4.4764304
-0.06884756
-0.019384498
0.94937545
-0.4801088
-0.08481228
-0.90773666
3.7999027
-5.821893
-0.47954783
0.09153579
-0.009447622
0.45677656
0.007346099
-0.767921
0.028748924
-0.09804818
-2.8419924
0.017167723
-9.447487
-8.73961
0.05823157
3.0347445
-0.78673965
0.0041082194
0.03948678
-0.05556425
0.42595106
0.041775893
0.017406492
-0.060608964
0.6248349
0.012153501
0.093007155
0.040061433
-0.032404177
0.06825313
-8.268828
-0.042841684
0.28206432
0.04047862
-0.9033051
0.90666527
0.018041791
-0.71296424
0.4256261
-6.8798723
-1.1123
8.827127
2.8807418
-0.92137307
-0.004711195
-0.012436344
0.08243868
0.09959113
-0.85005724
-2.312127
-0.0069688987
-0.5111863
0.0032554935
-0.06272818
0.061322413
5.8468065
1.5125763
0.088434055
0.7863789
7.1708293
4.8817005
1.9508575
-0.058211267
2.8647568
-0.068243854
3.002839
5.4943385
-0.36009395
0.0650668
5.9551497
-0.5500763
-4.4236407
-0.0024022814
0.05184238
-0.44343594
0.3097656
0.07704812
-0.009468168
3.259035
-0.08658827
-0.009155143
0.04843746
-0.044959314
-0.889885
-0.40282896
-0.06066462
-3.001691
-1.6529691
0.06072294
-9.022951
0.06792585
0.6505088
-0.08940703
-0.48245674
0.013577462
0.07132252
0.07973176
-2.5319405
-0.028941864
7.3626246
0.7486115
0.09937204
-0.001317522
5.0185113
1.9905134
0.8190038
-0.023605198
0.29324716
-0.078544036
-6.300688
-0.766703
-0.1267388
-6.5445685
0.62268203
-0.16634531
-0.25408837
-0.046721138
-0.8016771
0.6333668
0.18087734
0.8636474
4.3042846
0.08040426
0.0832622
-0.27091932
0.07970407
0.10057341
6.682211
-6.2452965
-0.04950328
-0.4251163
-0.015503491
-4.7000484
-0.51052964
-3.642806
-0.61165005
0.8940404
-0.8999422
0.35458073
7.7200923
9.408352
-0.009173274
0.045499895
-6.371869
-0.045212783
-2.2422032
-0.0924943
0.99593586
3.9713643
5.0263805
0.80872333
-0.046210844
-0.81964564
-0.039101932
0.22440653
-1.7163703
6.3765125
5.112246
0.041109398
0.08117588
0.8308064
-0.034345325
0.99743396
-0.030474762
-3.6787214
-0.08572329
-0.0846158
-0.68204814
-0.033598218
-6.0993795
-0.57065576
-0.043819793
0.05674521
-9.349809
-0.066088736
-0.4506763
2.9488637
-0.09755892
0.55622286
-2.2740872
-0.06385452
-0.1664239
-0.053910967
8.274738
0.041202214
-0.22030006
0.07957601
-0.42432293
-8.774675
-0.075875886
2.101228
2.5349045
-0.046996158
0.019716674
0.009830986
-0.0697001
-0.65352243
0.036834158
0.0034937665
-0.46640015
-0.8089497
0.40649304
-0.044402022
-0.07653597
0.007642703
0.3928662
-0.76285225
-0.92379904
0.69567335
0.08861636
0.07559993
-0.07396912
-6.3660407
-1.7821108
-0.09366531
0.32905543
0.26897416
-0.6296404
6.7374067
0.19895245
1.7538741
-0.016069995
-0.12406642
-9.818231
-0.7559872
-0.04573477
-0.05217416
0.3265356
-0.5680039
-0.13351086
8.536665
0.9097922
-0.036660675
-0.093915135
-7.4916306
-0.3032695
0.72815984
0.5124716
0.09510548
0.010126237
-5.138576
9.402558
-0.024965538
0.6025689
-0.082404844
4.46034
-0.05789157
-9.187121
7.9607654
-0.03590585
0.620234
-0.002811219
0.4282727
-0.03523244
-9.6762
0.16546267
0.008462835
-5.508654
-9.651994
-0.050920308
7.8479176
-0.43090254
0.0075706504
0.061185647
-0.0026263166
0.008099291
0.9439852
-4.105045
-0.8334191
0.003749506
0.6215354
0.09173276
0.04808671
0.21826394
0.07357959
0.09564426
-2.3851247
-0.013440336
0.35491604
-0.66894114
-0.07756533
-6.0722694
0.023115028
-0.045212816
-8.9786625
-1.182944
-0.0010983187
0.024763275
7.105861
-3.538889
-5.7502937
-0.098758444
-5.8765483
8.20385
-0.49542767
0.01812329
0.55261
5.2685194
5.754139
0.06626192
0.0064328965
-8.687702
6.2411757
-0.19769782
5.5247135
-2.7077832
2.2834795
-0.0005810566
0.7636571
-0.06423586
0.09164897
-0.6683301
0.54109204
-0.28074324
0.01617597
-0.026794348
-0.7882413
8.06092
0.0393613
-0.5195568
-0.014939877
1.8990155
-5.7685533
-0.05727646
-0.07896766
0.054489836
-5.750539
-0.030553263
-9.685821
0.046167016
-0.68753976
0.26537815
0.34209737
0.06907541
-6.230605
6.9407616
-0.013322915
-0.011255595
-0.044069313
-0.06361161
-9.785406
-0.3463072
-3.8254108
0.057408795
0.61379534
5.500305
0.8807373
-0.19630897
0.06633351
0.45046678
-0.069231704
-4.758165
-7.8705516
-0.09445484
0.050980736
-0.08171212
1.9024394
-0.04302593
-0.035823572
9.587124
0.09420962
-5.084334
-0.58084536
-0.4314818
2.2969549
0.38996008
-0.8324178
-0.87071633
0.15276809
2.9520736
-0.09376086
0.25282228
3.403811
0.83269167
0.05742276
-0.20820297
-1.9594365
0.06598631
8.951674
0.23935191
0.073902585
4.0812683
-0.099692
2.3409996
4.4905663
0.11313951
0.42788818
-0.2812381
-6.7831955
-0.32385126
1.4145495
-0.02609863
0.67041963
-3.3338525
7.511583
-4.9858775
-5.67376
-5.2510824
3.293954
-0.18058142
-1.2147424
-0.07745404
0.42210484
-3.6016262
-0.036442302
-0.10811674
4.6587443
0.071082406
0.0120300455
7.4282594
-0.2043403
-7.205848
0.13192809
-0.0890817
-1.8726131
0.8587789
0.014893321
0.3559426
-0.0055232914
0.7389834
-2.008274
0.08670283
-5.461485
0.008900543
-0.0759688
0.08538811
-0.07763537
0.6285337
0.24199435
0.05141138
-0.5704025
0.27318048
-0.085929096
-0.18667027
-5.447877
-3.729704
0.40640232
0.03427786
0.072910696
-0.5481133
-0.048380043
3.4433985
6.736072
-0.32081723
-8.493829
-0.84268683
-0.38371745
-0.5203877
0.3408388
2.4696546
-0.088135436
-0.08324697
-9.231875
0.07677513
-6.915281
-0.08358361
-0.028790003
-7.8944287
-0.7200124
-0.92651623
-4.427884
0.07029737
-0.031313293
-5.548614
-5.446442
-3.3656893
-0.015582399
-0.09685193
0.016184764
-0.13872221
8.673563
-5.7001
-0.072231285
-0.1802083
-0.05430957
-4.727418
4.3110666
-0.8643149
-0.1219907
-0.5544876
5.4896092
-0.017246192
9.438028
-0.19597763
1.3283815
-0.9064782
0.6762617
-0.0154375965
-0.039578658
0.8297056
7.282437
3.3080838
-0.5371925
1.1887001
3.4073896
7.293972
0.086023666
-0.036013428
-0.08310413
-5.431102
-0.05558301
9.958265
0.040358357
0.0087511195
-8.193452
-0.95010495
-0.10374571
0.013485861
0.39317423
-1.9653531
3.4051926
0.40705115
-0.017273325
-6.4474277
0.54187036
0.785813
-5.261253
-0.65414226
-2.6005754
7.567387
-0.65878886
8.4785
0.039875127
-0.21339492
-3.324763
-0.09136138
-0.09725492
0.23826875
-0.10097133
0.4750087
0.45305917
0.4214684
-0.28350678
-2.309234
-0.025774827
-6.248935
1.2070719
0.06476283
0.029702358
-0.12501481
2.9851117
-0.004924364
0.013983524
0.61251307
-8.458018
-0.4845489
0.017400475
-0.7494494
-1.1794165
-0.046893377
0.0039564488
7.4719706
-0.13760795
-5.948035
0.041997157
0.85750246
6.5805244
0.2574021
-0.75201565
0.38954318
0.35063937
2.2319527
-7.3579793
0.25703147
-5.651522
0.030970322
-0.021213768
5.5201785e-05
0.041692212
5.7584352
7.4973607
0.050269235
-4.985589
0.0788775
0.3665919
-4.2771087
0.5216848
-0.30908558
0.9830635
-1.3130322
0.08414167
0.6697349
0.92304754
-5.5176783
-0.07708714
0.06560816
0.006890308
0.39724177
0.29950073
6.7927413
-0.23983607
-6.3762107
-8.542316
0.5706734
-0.06553241
8.872367
-8.014246
-0.086256914
4.96675
1.3442645
-0.26624575
0.03429024
-0.029186223
-0.2292401
-8.45331
-0.06738868
6.3039107
-0.09345758
-0.018671852
-5.1960864
-0.9999438
0.70555073
-0.6411447
7.8518834
-0.039885767
0.8424933
0.16740757
4.6969757
-6.0236483
-6.1150312
-0.1994772
-7.1748357
0.45378706
0.20842701
0.51121384
0.024129152
-0.55025864
-0.5863329
-1.9389384
-1.6098938
-0.061319638
3.3714468
-0.7890705
0.97840804
0.013695442
0.038627382
-0.023567352
0.93985873
-0.07578584
-0.22369848
-0.029147409
0.8982964
5.9966874
-0.010209339
-0.045516036
-3.046519
0.077836625
-0.24872355
-0.659871
-0.023829747
0.024986332
0.06550415
0.69853324
-8.116443
-0.018890463
-0.008331488
-0.04273988
3.2256389
0.038643185
-0.3216684
-0.79397756
-0.040948894
-0.9946942
4.3589215
-0.3379156
0.08760933
-7.525799
-2.6890993
-5.261232
0.06847344
0.937821
2.6738992
4.902956
0.085566424
